   -0.375221371253636082E+01   -0.654818847611383426E+00    0.180152108233838675E+03    0.227504145708502892E+04   -0.175033516252423027E+00    0.558633331838954694E+00   -0.398162183944757064E+01   -0.925119058700039743E+00    0.757403305246441616E+00   -0.419469971566006521E+02
   -0.225050165630869881E+01   -0.356659903982415649E+00    0.462128595975872685E+02    0.234334285167444614E+04   -0.317853407171691416E+00    0.487147938562425331E+00   -0.232767010307557864E+01   -0.564148578441030724E+00    0.856989617485039434E+00   -0.398843025774447923E+02
   -0.593995206716924429E+01   -0.530366226040576194E+01    0.600810082868962354E+03    0.187429707633442877E+04   -0.330138521176515454E+01   -0.171941676774697405E+00   -0.342669661713466667E+01   -0.727632687112660270E+00    0.811185133398127034E+00   -0.398636795770003758E+02
   -0.518690269681074145E+01   -0.153670064781766413E+01    0.430767948818923287E+03    0.140572297338733665E+04   -0.891948559439838817E+01   -0.307718328811579900E+00   -0.311086682110794266E+01   -0.581537842297882412E+00    0.825065637309298161E+00   -0.398422833808569052E+02
   -0.576604550409253314E+01   -0.485379149451780556E+01    0.554711019090116110E+03    0.165101339582886249E+04   -0.825045097590059662E+01   -0.125822609664028029E-02   -0.242558928140883268E+01   -0.819890406592047150E+00    0.785683161943779962E+00   -0.393528867266802607E+02
   -0.360100987258072358E+01    0.364275108972434580E+01    0.510968145844564390E+03    0.179116253743642756E+04   -0.325307595637301983E+01   -0.294711371520390730E+00   -0.339799097209071199E+00   -0.594136915253486553E+00    0.817066468568770965E+00   -0.391163120237230117E+02
   -0.595740670281355111E+01   -0.159325378818805952E+01    0.164861035463337572E+03    0.194181073287986806E+04   -0.276720237116317236E+01   -0.158591143946030355E+00   -0.329493681033337760E+01    0.680269304081035919E+00    0.911356458753574850E+00   -0.390414077064920662E+02
   -0.503495919439022721E+01   -0.137475341545383145E+01    0.639195049401245910E+03    0.157529794407248301E+04   -0.475166109678297488E+01   -0.165678512007895407E+00   -0.161250765853104561E+01   -0.673005366410106554E-02    0.838124293127722075E+00   -0.390400833949977439E+02
   -0.561976714905717678E+01   -0.369985977258611420E+01    0.630605895961430292E+03    0.188790772417984908E+04   -0.562698861014590790E+01    0.935535254888265166E+00   -0.199457619578891521E+01    0.625604236733741992E+00    0.897044241543113574E+00   -0.388897089545309669E+02
   -0.608409763236996426E+01   -0.180252938539456409E+01    0.516696409642912386E+03    0.189936026945305980E+04   -0.552116970283320452E+01    0.362149704434772790E+00   -0.260239704066154331E+01    0.295081402783627267E+00    0.920038986803817349E+00   -0.387120898333451890E+02
   -0.571907921308885658E+01   -0.532881259597385171E+01    0.841050718400400001E+03    0.153010541355481428E+04   -0.735913641724948420E+01    0.136727101849108301E+00   -0.291603713614313342E+01   -0.144389089645047108E+01    0.730231929659745593E+00   -0.386707122151193232E+02
   -0.508320490983226136E+01   -0.135479581724877196E+01    0.992322197501837081E+03    0.132356236159304922E+04   -0.469130552399585810E+01   -0.623872254855207808E+00   -0.623953327231192567E+00   -0.762013136799469692E+00    0.786535489491351658E+00   -0.386157676388052167E+02
   -0.249985745805357595E+01    0.472218184981629463E+01    0.271866217101647976E+03    0.152154912908680467E+04   -0.252022494945232989E+01    0.187426181436882500E+00   -0.369380520749766061E+01   -0.355456900031190015E+00    0.853504340494667946E+00   -0.385343968936702268E+02
   -0.568469028501371909E+01   -0.124230794669183808E+01    0.752337090591457013E+03    0.178244484180631480E+04   -0.705145133269619784E+01    0.669733490401554388E+00   -0.138560173445235080E+01   -0.211956575427565630E+00    0.862801674193922286E+00   -0.383993942613763863E+02
   -0.434172395687964574E+01    0.222215282659663949E+01    0.728118021256003658E+03    0.137294511160101774E+04   -0.455485139838694497E+01   -0.956075028934967541E+00   -0.198518251348144448E+01   -0.124987367477530209E+01    0.740950464993231361E+00   -0.383891264632752183E+02
   -0.555644850186214256E+01   -0.230430553902119772E+01    0.863693586622338557E+03    0.161895220705697420E+04   -0.315585851608365608E+01   -0.935905797634469128E+00   -0.182182201767023599E+01   -0.176049518067866950E+00    0.888565008726575623E+00   -0.383442876019766459E+02
   -0.577012860070925804E+01   -0.216849033480323738E+01    0.370243213960055698E+03    0.176277501066780860E+04   -0.810042419194945040E+01    0.482589020928348766E+00   -0.256022253084473350E+01   -0.250269187142368343E+00    0.854168413582698793E+00   -0.382617812803559687E+02
   -0.598219508518714704E+01   -0.168673710801102139E+01    0.322865674527789906E+03    0.207803118904059374E+04   -0.167642442644499301E+01    0.156288411709486708E+00   -0.148959666907077315E+01    0.709115701236648022E+00    0.903887188568551325E+00   -0.382168586423121184E+02
   -0.604679351965660672E+01   -0.329542182711066811E+01    0.997966975288729486E+03    0.187399267499580628E+04   -0.221577067996384436E+01   -0.107277066915510755E+00   -0.114905344737083004E+01   -0.498574378267085061E+00    0.883198196713280148E+00   -0.381998962272023306E+02
   -0.572827678184530598E+01   -0.138706424409951978E+01    0.122983667089529632E+03    0.193468833038026514E+04   -0.546017015492891478E+01    0.296700730311530325E+00   -0.339034128683762059E+01    0.636404188201651788E+00    0.909931392148514373E+00   -0.381578216740878418E+02
   -0.603109820261176210E+01   -0.589481690834301730E+01    0.522738865346776720E+03    0.197379067977735076E+04   -0.387055889631334082E+01    0.245269915738291377E+00   -0.340345878278202463E+01    0.855620093642444068E+00    0.927713475537776056E+00   -0.380309716303509759E+02
   -0.574410217968116399E+01   -0.134747257000757159E+01    0.643157576827066464E+03    0.167528403640893021E+04   -0.859049733516631875E+01   -0.216352963025351452E+00   -0.115703532206391912E+01   -0.858378834935542012E+00    0.877718677608456121E+00   -0.379548106964999405E+02
   -0.468082287595023416E+01   -0.122874491723117085E+01    0.849862992659495603E+03    0.137474294670053678E+04   -0.879181979796272017E+01    0.124330156140679104E+00   -0.156426400564366297E+01    0.141053626194826087E+00    0.860638426432793535E+00   -0.378040154717728285E+02
   -0.557370179487299211E+01   -0.277916362539911699E+01    0.732088598173082346E+03    0.175995317262531216E+04   -0.266635238836173816E+01    0.201479770985788731E+00   -0.154987373950870033E+01    0.686005105321742192E+00    0.904184562569623318E+00   -0.375392142693949395E+02
   -0.572290757457785659E+01   -0.212369242701127892E+01    0.442852790486083904E+03    0.177609631827359703E+04   -0.715771712838008156E+01    0.302133510574547515E+00   -0.241521705140193310E+01   -0.812285279258950776E-01    0.870150180282833197E+00   -0.374414233679411907E+02
   -0.578499709279551588E+01   -0.479097856219020368E+01    0.684741665764805020E+03    0.159989871420890722E+04   -0.674141805700175212E+01    0.112590963374837649E+00   -0.332592148718350256E+01   -0.115116687065847256E+01    0.786563270943116066E+00   -0.373243009055553188E+02
   -0.561830921699951435E+01   -0.494971398423295561E+01    0.934621246388600753E+03    0.144761865852974847E+04   -0.836726738075975263E+01    0.413348461929838873E+00   -0.185468500768418698E+01   -0.113799824855861509E+01    0.759761522032390557E+00   -0.372793073500637249E+02
   -0.561830921699951435E+01   -0.494971398423295561E+01    0.934621246388600753E+03    0.144761865852974847E+04   -0.836726738075975263E+01    0.413348461929838873E+00   -0.185468500768418698E+01   -0.113799824855861509E+01    0.759761522032390557E+00   -0.372793073500637249E+02
   -0.583154335355363074E+01   -0.196024587908224746E+01    0.987322349794279603E+03    0.169146069749301523E+04   -0.387701656841613485E+01   -0.296943858798507820E+00   -0.225182635149020705E+00   -0.378151767690104723E+00    0.868031436977593329E+00   -0.371768888103681903E+02
   -0.559824531936177294E+01   -0.325419835842581762E+01    0.933929334938825264E+03    0.159344234713230617E+04   -0.246317201616108328E+01   -0.461919437676607814E+00   -0.221579603080829601E+01   -0.439246682952250778E+00    0.846384732445579990E+00   -0.371509314176102805E+02
   -0.580134612401857108E+01   -0.346698993408107237E+01    0.851889086028069073E+03    0.179082750131331204E+04   -0.428491649625619697E+01   -0.129572231882081002E+00   -0.137926078813217945E+01   -0.294706837655666742E+00    0.872406711316848660E+00   -0.370407418524091980E+02
   -0.580134612401857108E+01   -0.346698993408107237E+01    0.851889086028069073E+03    0.179082750131331204E+04   -0.428491649625619697E+01   -0.129572231882081002E+00   -0.137926078813217945E+01   -0.294706837655666742E+00    0.872406711316848660E+00   -0.370407418524091980E+02
   -0.570813219507521463E+01   -0.265622620322518088E+01    0.682429494473795444E+03    0.156625897473645546E+04   -0.675697179927761127E+01    0.119810728313446857E+00   -0.222538226777818871E+01   -0.116769394937829807E+01    0.782790854527452340E+00   -0.369356859893567631E+02
   -0.570813219507521463E+01   -0.265622620322518088E+01    0.682429494473795444E+03    0.156625897473645546E+04   -0.675697179927761127E+01    0.119810728313446857E+00   -0.222538226777818871E+01   -0.116769394937829807E+01    0.782790854527452340E+00   -0.369356859893567631E+02
   -0.572550993697744559E+01   -0.257256706543814939E+01    0.455697344830876489E+03    0.173675527738151050E+04   -0.713698489739577724E+01   -0.190431100734457126E+00   -0.255078488546659043E+01   -0.514373573036484233E+00    0.836073488320103975E+00   -0.368504768939328216E+02
   -0.580728428199104840E+01   -0.504032726982618939E+01    0.563288256181362954E+03    0.173569403186020054E+04   -0.844052994123705069E+01    0.627211172660832261E+00   -0.373807181932018651E+01   -0.736599087549185461E+00    0.833983481684403949E+00   -0.368081110989849876E+02
   -0.580805477113442414E+01   -0.511861405846310547E+01    0.438681742118386637E+03    0.180282264680578874E+04   -0.849924768604283187E+01    0.732141593515805100E+00   -0.378464642641925364E+01   -0.261442676492860127E+00    0.861238714156782104E+00   -0.367991683827459113E+02
   -0.580805477113442414E+01   -0.511861405846310547E+01    0.438681742118386637E+03    0.180282264680578874E+04   -0.849924768604283187E+01    0.732141593515805100E+00   -0.378464642641925364E+01   -0.261442676492860127E+00    0.861238714156782104E+00   -0.367991683827459113E+02
   -0.491314888736625122E+01   -0.102924567068378003E+01    0.557245756478471662E+03    0.161397855877958295E+04   -0.513690715414392862E+01    0.102056705327709940E+00   -0.985873328192451659E+00    0.132892527155616635E+01    0.927659634720528037E+00   -0.366273448211051971E+02
   -0.491314888736625122E+01   -0.102924567068378003E+01    0.557245756478471662E+03    0.161397855877958295E+04   -0.513690715414392862E+01    0.102056705327709940E+00   -0.985873328192451659E+00    0.132892527155616635E+01    0.927659634720528037E+00   -0.366273448211051971E+02
   -0.542757088843060309E+01   -0.181511098901572510E+01    0.244852589902141602E+03    0.154130828637820696E+04   -0.557008051831076401E+01   -0.803173168756794009E+00   -0.287634407023212191E+01   -0.399906257762390194E+00    0.841209080912829976E+00   -0.366181767628723307E+02
   -0.576136018383648807E+01   -0.265960873185293023E+01    0.804186256578762368E+03    0.174671281934863555E+04   -0.559223826454977946E+01   -0.259404559648921063E+00   -0.211487145004233579E+01   -0.404864933737690169E+00    0.863102963762603426E+00   -0.366104272256678129E+02
   -0.585413391830847996E+01   -0.296418649123472155E+01    0.514944253688707477E+03    0.182746275002757125E+04   -0.376655448393950287E+01    0.397180833689653179E+00   -0.379234339370304374E+01   -0.404840976480778325E+00    0.862951501626193385E+00   -0.366096805384230279E+02
   -0.574732227413468788E+01   -0.574208260408871141E+01    0.968784464165539589E+03    0.162439621680508526E+04   -0.887519334568850660E+01    0.698677325245156799E+00   -0.302379386521001514E+01   -0.760630583244168101E+00    0.854546585690604599E+00   -0.365896721795435695E+02
   -0.599347330002651013E+01   -0.287070349883652209E+01    0.269561730749002663E+03    0.179417555933374206E+04   -0.881165018271350320E+01    0.190677507858970197E+00   -0.309224309039168999E+01   -0.781578339708471237E+00    0.859859465823935687E+00   -0.365645900982161507E+02
   -0.599347330002651013E+01   -0.287070349883652209E+01    0.269561730749002663E+03    0.179417555933374206E+04   -0.881165018271350320E+01    0.190677507858970197E+00   -0.309224309039168999E+01   -0.781578339708471237E+00    0.859859465823935687E+00   -0.365645900982161507E+02
   -0.590616889277266210E+01   -0.380671838631734882E+01    0.165430151889436104E+03    0.191578904008735867E+04   -0.839074013483914527E+01    0.524114021381990369E+00   -0.276211408235224942E+01    0.602188721135815008E+00    0.910523697045572233E+00   -0.365597600895744606E+02
   -0.590616889277266210E+01   -0.380671838631734882E+01    0.165430151889436104E+03    0.191578904008735867E+04   -0.839074013483914527E+01    0.524114021381990369E+00   -0.276211408235224942E+01    0.602188721135815008E+00    0.910523697045572233E+00   -0.365597600895744606E+02
   -0.589974815569601052E+01   -0.352709547985542216E+01    0.589480415262841802E+03    0.178230530547261378E+04   -0.799150209382169585E+01    0.294950881987701807E+00   -0.194594127524698024E+01   -0.220354413538881078E+00    0.888840751267492402E+00   -0.365300067020910646E+02
   -0.626104204228153005E+01   -0.245142775152094838E+01    0.834568538002623995E+03    0.205385947753347864E+04   -0.154289360715187662E+01    0.287091446846679421E+00   -0.177895206800413685E+01   -0.418336063402229730E+00    0.883395543480703371E+00   -0.365198572168011921E+02
   -0.568155499684460441E+01   -0.469846973036778159E+01    0.699500091498508596E+03    0.176801677761704923E+04   -0.527182056440035129E+01    0.169306085121119443E+00   -0.246645851972420305E+01    0.458824867706929984E+00    0.902855628816070621E+00   -0.364780742927595298E+02
   -0.545635830350177020E+01   -0.423511391940993231E+01    0.925158778336415367E+03    0.145220750670089956E+04   -0.571777531827843966E+01    0.586250727198895927E-01   -0.220297399412158956E+01   -0.664308249439954701E+00    0.812350954933949931E+00   -0.364331296077839824E+02
   -0.617686520561873564E+01   -0.319398479932899981E+01    0.918197675657181776E+03    0.213495379146729283E+04   -0.480375764305032149E+00    0.221840022070954879E+00   -0.100783254845645143E+01   -0.169113441715987189E+00    0.902505147105178707E+00   -0.364273087552348400E+02
   -0.588404582087715600E+01   -0.345908245866087771E+01    0.662244889893359414E+03    0.170321230935420044E+04   -0.727063566191163968E+01    0.417265136469881393E+00   -0.359911561008356573E+01   -0.917866407210857993E+00    0.833256965002621253E+00   -0.364040516894777610E+02
   -0.588404582087715600E+01   -0.345908245866087771E+01    0.662244889893359414E+03    0.170321230935420044E+04   -0.727063566191163968E+01    0.417265136469881393E+00   -0.359911561008356573E+01   -0.917866407210857993E+00    0.833256965002621253E+00   -0.364040516894777610E+02
   -0.533023316668834379E+01   -0.197921532087383767E+01    0.431191033861325877E+03    0.155658324912243233E+04   -0.704407841492005815E+01   -0.568025687168272286E+00   -0.226196055637891469E+01   -0.148747677416249946E-01    0.883584610434519302E+00   -0.362551335360857863E+02
   -0.533023316668834379E+01   -0.197921532087383767E+01    0.431191033861325877E+03    0.155658324912243233E+04   -0.704407841492005815E+01   -0.568025687168272286E+00   -0.226196055637891469E+01   -0.148747677416249946E-01    0.883584610434519302E+00   -0.362551335360857863E+02
   -0.561145667709698337E+01   -0.259455258946383571E+01    0.198177906701520584E+03    0.166731185541379091E+04   -0.737141715223154836E+01   -0.689494628878638105E+00   -0.239630441831910534E+01    0.767946092055418195E-01    0.903866565245212250E+00   -0.361537031810309628E+02
   -0.561145667709698337E+01   -0.259455258946383571E+01    0.198177906701520584E+03    0.166731185541379091E+04   -0.737141715223154836E+01   -0.689494628878638105E+00   -0.239630441831910534E+01    0.767946092055418195E-01    0.903866565245212250E+00   -0.361537031810309628E+02
   -0.575521117287171879E+01   -0.196210687039424325E+01    0.924222426554577510E+03    0.172908257553598173E+04   -0.472092503772155148E+01   -0.211866961092027850E+00   -0.887669105848192697E+00   -0.145609379885810020E+00    0.898687598475499283E+00   -0.361375518236199582E+02
   -0.568433048995128498E+01   -0.363843470499171051E+01    0.561598149874325600E+03    0.161840794034336022E+04   -0.463451129405889439E+01   -0.283764172821960425E+00   -0.295127995713479763E+01   -0.484710150453022237E+00    0.852248431378645588E+00   -0.360770153260566886E+02
   -0.568433048995128498E+01   -0.363843470499171051E+01    0.561598149874325600E+03    0.161840794034336022E+04   -0.463451129405889439E+01   -0.283764172821960425E+00   -0.295127995713479763E+01   -0.484710150453022237E+00    0.852248431378645588E+00   -0.360770153260566886E+02
   -0.560292901959240908E+01   -0.308876612340850132E+01    0.898975497806584826E+03    0.146532387985248761E+04   -0.577173151065724888E+01   -0.101359512885878855E+00   -0.225224289711545911E+01   -0.103092931762542994E+01    0.797688519954157682E+00   -0.360441886369983635E+02
   -0.560292901959240908E+01   -0.308876612340850132E+01    0.898975497806584826E+03    0.146532387985248761E+04   -0.577173151065724888E+01   -0.101359512885878855E+00   -0.225224289711545911E+01   -0.103092931762542994E+01    0.797688519954157682E+00   -0.360441886369983635E+02
   -0.589162348320779117E+01   -0.185238807490864676E+01    0.496149145869651306E+03    0.177907816307097869E+04   -0.389924583172751049E+01   -0.334587496926286310E-01   -0.263100553497976675E+01   -0.562635224800561162E+00    0.868119831540019149E+00   -0.359837491448779190E+02
   -0.589162348320779117E+01   -0.185238807490864676E+01    0.496149145869651306E+03    0.177907816307097869E+04   -0.389924583172751049E+01   -0.334587496926286310E-01   -0.263100553497976675E+01   -0.562635224800561162E+00    0.868119831540019149E+00   -0.359837491448779190E+02
   -0.581099183953164644E+01   -0.127711678336958201E+01    0.360533854655584435E+03    0.185030346995035143E+04   -0.628524166025089492E+01    0.159289512776568554E+00   -0.225922701978557061E+01    0.193144991447458114E-01    0.901000012941305717E+00   -0.359672617802084176E+02
   -0.575556740689209967E+01   -0.237361674102859777E+01    0.147710434499314516E+03    0.172728760720145942E+04   -0.879337844901252552E+01    0.185670717817271180E+00   -0.378244064938511659E+01   -0.281569087051075861E+00    0.870493425099744478E+00   -0.359184127364160162E+02
   -0.572689963650055667E+01   -0.349505887258285508E+01    0.794977522444471674E+03    0.176299394701406118E+04   -0.517718256747901151E+01    0.342237128437941962E+00   -0.103120400486130182E+01    0.436940045111076092E-01    0.893694688950433358E+00   -0.359025309800047765E+02
   -0.589564516119336712E+01   -0.574429652384938461E+01    0.314838351473852185E+03    0.180838201869766135E+04   -0.600803202547889192E+01   -0.378651759924841569E+00   -0.353241469083292259E+01   -0.238288556164859333E+00    0.886369357808638680E+00   -0.358880343774872586E+02
   -0.569555653017954366E+01   -0.342168536514493127E+01    0.953863764801978618E+03    0.151623475751603360E+04   -0.344128154690248600E+01    0.250913495813565035E+00   -0.331580880724205507E+01   -0.105386443245855976E+01    0.815161402664422607E+00   -0.358789307837007598E+02
   -0.559027813313042277E+01   -0.305888923273727453E+01    0.507805077936411806E+03    0.157391035314816895E+04   -0.875022628844239847E+01   -0.539948903364115496E+00   -0.221684303907698155E+01   -0.846261042438274380E-01    0.902066614620092633E+00   -0.358728297332165695E+02
   -0.557626334851440042E+01   -0.456093261825637253E+01    0.889891095033546890E+03    0.150917021450702259E+04   -0.495024502573038028E+01   -0.407444125096117160E+00   -0.255321985375149119E+01   -0.624803224245421451E+00    0.872782354604646593E+00   -0.358609952627568376E+02
   -0.557626334851440042E+01   -0.456093261825637253E+01    0.889891095033546890E+03    0.150917021450702259E+04   -0.495024502573038028E+01   -0.407444125096117160E+00   -0.255321985375149119E+01   -0.624803224245421451E+00    0.872782354604646593E+00   -0.358609952627568376E+02
   -0.521360200220780978E+01   -0.106129677000186184E+01    0.538738017204221478E+03    0.171552132952062038E+04   -0.747059702575231199E+01    0.575999015749736554E+00   -0.130744407779503025E+01    0.536661153145622460E+00    0.904622791163066542E+00   -0.358323280335746333E+02
   -0.577861305521726187E+01   -0.254944157799701809E+01    0.663906652341463541E+03    0.169654499839629011E+04   -0.735950882588967303E+01    0.610023811629253565E+00   -0.273774596968050155E+01   -0.607326907734856314E+00    0.873260305948567406E+00   -0.357995853099410368E+02
   -0.554484662460747035E+01   -0.171713377690336522E+01    0.907098756484831767E+02    0.163674246114926746E+04   -0.834572178426440558E+01   -0.465372809287539213E+00   -0.330532072986854342E+01   -0.477087760969011399E+00    0.847422417346516910E+00   -0.357954012914690551E+02
   -0.560750542722888135E+01   -0.453340636620598936E+01    0.631288588095453633E+03    0.149086698256850786E+04   -0.560187526467765196E+01   -0.689567100265499944E+00   -0.300734226531675519E+01   -0.998967472748700014E+00    0.817671802717571117E+00   -0.357635330034213368E+02
   -0.576358356738709610E+01   -0.249954645889692362E+01    0.278836125988204856E+03    0.167779554643951019E+04   -0.824985842733843633E+01   -0.474690195289073635E-01   -0.287025473732909076E+01   -0.545350674267662816E+00    0.853493854388060247E+00   -0.357121842794462410E+02
   -0.597587674911915645E+01   -0.401863489524361039E+01    0.747959020363709328E+03    0.185179214820625270E+04   -0.713844494051806855E+01    0.742664740127164658E+00   -0.154748997001086908E+01    0.193357229550108478E+00    0.910464271077336629E+00   -0.357029205138591976E+02
   -0.542733312137968493E+01   -0.284754433211751179E+01    0.462631025016119509E+03    0.149818491747416488E+04   -0.726946279211849333E+01   -0.999078682804910301E-03   -0.317143399476033983E+01   -0.300150688920412412E+00    0.870080078602744944E+00   -0.356955854217672908E+02
   -0.587250048782013767E+01   -0.360464467305096781E+01    0.488284945289944119E+03    0.182800944442337868E+04   -0.768185382395485039E+01    0.131967622980581512E+00   -0.225450481202391106E+01    0.139816374734437865E+00    0.900616779240423715E+00   -0.356405963588606625E+02
   -0.569762189199243885E+01   -0.170992164626499132E+01    0.708316916757598165E+03    0.161263628786673166E+04   -0.510128290615400370E+01   -0.185710883597305143E+00   -0.288368490758568186E+01   -0.546870814237341629E+00    0.877166469474206068E+00   -0.356219979120678190E+02
   -0.550213979124882169E+01   -0.288245864965578891E+01    0.916964561448516974E+03    0.140515332859994965E+04   -0.540879285210800020E+01   -0.206780595169465231E+00   -0.184787468925738851E+01   -0.948273875226836815E+00    0.821865347288891712E+00   -0.356217929877182655E+02
   -0.560776583033464959E+01   -0.379580746720175455E+01    0.538762870299615201E+03    0.155964950586343593E+04   -0.803268961746823074E+01   -0.273818741028946988E+00   -0.357136610614307948E+01   -0.304450962576315654E+00    0.901158758287923911E+00   -0.356191748082897561E+02
   -0.573378188132754207E+01   -0.273802377305266464E+01    0.543324431615578831E+02    0.164819604452274302E+04   -0.761566709765039374E+01   -0.706108331687325341E+00   -0.380363990651524375E+01   -0.199447071733453773E+00    0.897181367176267064E+00   -0.356155629955015200E+02
   -0.594340164760244072E+01   -0.223778040668216782E+01    0.890743984397698455E+03    0.181869013713218874E+04   -0.434144217799507093E+01   -0.168781960129006592E+00   -0.716918419060598389E+00   -0.243729051168721789E+00    0.896222075391134299E+00   -0.356117678040731036E+02
   -0.578170670140078968E+01   -0.224183734475963181E+01    0.971451722100012034E+03    0.172419289978635516E+04   -0.528723271988953414E+01    0.717011011773663220E+00   -0.767738954624081149E+00   -0.244554887296428936E+00    0.892783165127550182E+00   -0.355588031086096876E+02
   -0.566921248736118777E+01   -0.257966595728681902E+01    0.123002686587169833E+03    0.168015066738035421E+04   -0.875397015119115451E+01   -0.338569808689455964E+00   -0.184234740403072239E+01    0.125332589997302568E+00    0.901115381502231250E+00   -0.355419271575347011E+02
   -0.554123069669194201E+01   -0.153467377946221362E+01    0.704779804031450567E+03    0.166208204505178878E+04   -0.890561973417810826E+01    0.964812068264483402E+00   -0.103054407932515835E+01    0.107375705622848372E+00    0.895451615089445041E+00   -0.355377998569979354E+02
   -0.587611880757877536E+01   -0.244660936701004683E+01    0.134300648842461811E+03    0.179741360561423244E+04   -0.874125787962441869E+01   -0.256453492453206922E+00   -0.324287717355003124E+01   -0.391801740690779887E+00    0.888101017170961016E+00   -0.355059004541690584E+02
   -0.573306642980028958E+01   -0.439631614273732119E+01    0.964414890342256058E+03    0.159588879252390188E+04   -0.554652148870480488E+01   -0.194798588382727011E+00   -0.109616894983421354E+01   -0.762514630254249370E+00    0.851014917187341235E+00   -0.354969025763232224E+02
   -0.567064838765396395E+01   -0.342076253693823507E+01    0.130162387200333967E+03    0.163930917250365746E+04   -0.779374160754187351E+01    0.102990992466342801E+00   -0.323502416835698536E+01   -0.453665098897023000E+00    0.854603897097382936E+00   -0.354708105222405479E+02
   -0.550980792194940872E+01   -0.550898346246399662E+01    0.339287311100336751E+03    0.149273712965950676E+04   -0.813774877278118502E+01   -0.325152828246634495E+00   -0.396849798273811594E+01   -0.679812641770197956E+00    0.832758241895982465E+00   -0.354648267888894750E+02
   -0.595113908051964113E+01   -0.286011779486641338E+01    0.875100101283945264E+03    0.176751044717927380E+04   -0.483425729286046391E+01   -0.375042070831553387E+00   -0.126451119220289598E+01   -0.472366494958966321E+00    0.889917190185392726E+00   -0.354576058914162644E+02
   -0.569068252266419172E+01   -0.470044505145589575E+01    0.383648381064407857E+02    0.163216023407061743E+04   -0.871662911056363043E+01   -0.605032160752946746E+00   -0.280625537614695109E+01   -0.640077238861767261E+00    0.838637917501901087E+00   -0.354562821611694758E+02
   -0.553535344237800331E+01   -0.488980580082868688E+01    0.980331836859297709E+03    0.148308408050881098E+04   -0.465581432220308677E+01   -0.473599686462844227E+00   -0.272886824892683055E+01   -0.573322228637718312E+00    0.848055189561834344E+00   -0.354256204261278000E+02
   -0.584749174036220953E+01   -0.191086493966018178E+01    0.898229560928785077E+03    0.175849120622082864E+04   -0.381505946742436386E+01   -0.920903998210675923E-02   -0.833052112749047335E+00   -0.139829724306821390E+00    0.894086271279660338E+00   -0.354107800362311096E+02
   -0.569649637220386484E+01   -0.448052120262144449E+01    0.288343342416239068E+03    0.159469996217794460E+04   -0.812318365558320110E+01    0.196060011937828627E-01   -0.330310098203001035E+01   -0.879902304523534684E+00    0.829650456962398808E+00   -0.353994847857953232E+02
   -0.560306755870433371E+01   -0.312746785034713426E+01    0.772026122614985184E+03    0.157527999059127387E+04   -0.647578811804368026E+01   -0.232447703966323860E+00   -0.223721027643373649E+01   -0.502647186793001577E+00    0.863474878581976912E+00   -0.350646718179128882E+02
   -0.547824959650512699E+01   -0.152380127972435009E+01    0.979598046198014003E+03    0.156108616309797799E+04   -0.444645744027550549E+01    0.406363175418782419E-01   -0.163031060389062521E+01   -0.323265479612799611E+00    0.878187315716408068E+00   -0.353197729703128900E+02
   -0.557897211257847836E+01   -0.269646011767985838E+01    0.993577331127066145E+03    0.145519204006364271E+04   -0.543052697728143574E+01   -0.405360051723016812E+00   -0.217073806298614658E+01   -0.511615617334279404E+00    0.884766040959880429E+00   -0.349064137569618183E+02
   -0.580989117788986320E+01   -0.487166661808704760E+01    0.553246788651218367E+03    0.168107989570165751E+04   -0.694776602746852490E+01   -0.558651516200188381E+00   -0.292911517178063674E+01   -0.419362873435369155E+00    0.890695443510805207E+00   -0.348378734681439184E+02
   -0.571116427628368672E+01   -0.272858574044432522E+01    0.736214876382486750E+03    0.155938995692530352E+04   -0.489117536525342889E+01   -0.473753814838696607E+00   -0.218716887603404331E+01   -0.677638608952118360E+00    0.883658433137754051E+00   -0.353417770081926861E+02
   -0.580423749383826593E+01   -0.280307090695019179E+01    0.593893021368196514E+03    0.172058735004700839E+04   -0.504724242127817035E+01   -0.198063470419798104E+00   -0.318155653482821243E+01   -0.361493969884135069E+00    0.876136944368574810E+00   -0.353450156661533299E+02
   -0.581952282563470380E+01   -0.382350016626563072E+01    0.713659633521361116E+03    0.166101301314091666E+04   -0.570293950245348036E+01   -0.432084039954441890E+00   -0.193677413906216112E+01   -0.711832790627372369E+00    0.878637410340828651E+00   -0.350651608638236780E+02
   -0.564599572786636550E+01   -0.189239825022013530E+01    0.649457709230789760E+03    0.162816444999065106E+04   -0.624527893787390731E+01   -0.208899801715970002E+00   -0.108892870530793129E+01   -0.334436646522881853E+00    0.891503623055872718E+00   -0.344298770777743783E+02
   -0.564599572786636550E+01   -0.189239825022013530E+01    0.649457709230789760E+03    0.162816444999065106E+04   -0.624527893787390731E+01   -0.208899801715970002E+00   -0.108892870530793129E+01   -0.334436646522881853E+00    0.891503623055872718E+00   -0.344298770777743783E+02
   -0.573023364577926131E+01   -0.321303741784810315E+01    0.287478973271489281E+03    0.164104466678853669E+04   -0.817141183879469679E+01   -0.349810817237796390E+00   -0.205400904443470766E+01   -0.468219321353612328E+00    0.896943313966253153E+00   -0.349775093584445713E+02
   -0.565162186620095852E+01   -0.510371629774207225E+01    0.929701059906448563E+03    0.160264492147966507E+04   -0.542325206349308075E+01   -0.681229747047989775E+00   -0.226473917482778520E+01   -0.326688668543933192E+00    0.886026914083757999E+00   -0.351201941466083127E+02
   -0.585483809561878665E+01   -0.243724278427121721E+01    0.634817576545970724E+03    0.176665019914124969E+04   -0.539822868232064668E+01    0.370109586579549399E+00   -0.210765626246293980E+01   -0.309396865718670533E+00    0.889307280758111607E+00   -0.350656164742727228E+02
   -0.571209296143425860E+01   -0.471576358950851304E+01    0.907201206807676954E+03    0.155781947428355170E+04   -0.423836696401733626E+01   -0.114502514738193950E+00   -0.375403561472622727E+01   -0.585917146547897172E+00    0.868660258848271138E+00   -0.351731377435288977E+02
   -0.577450471946453447E+01   -0.361800877784295860E+01    0.507203794373536027E+03    0.168146044630600591E+04   -0.860904110507704701E+01    0.100850627258722181E+00   -0.306549271183762828E+01   -0.437798464657005226E+00    0.885154831079013271E+00   -0.345612413607033773E+02
   -0.577450471946453447E+01   -0.361800877784295860E+01    0.507203794373536027E+03    0.168146044630600591E+04   -0.860904110507704701E+01    0.100850627258722181E+00   -0.306549271183762828E+01   -0.437798464657005226E+00    0.885154831079013271E+00   -0.345612413607033773E+02
   -0.575047641762136408E+01   -0.386159656510171700E+01    0.833273764089906763E+03    0.160068934210069483E+04   -0.348700963653757956E+01    0.303799224271095181E-01   -0.233503015547309234E+01   -0.834707634720018410E+00    0.854735649629605576E+00   -0.352694542781745142E+02
   -0.570122613515139065E+01   -0.232644600933722856E+01    0.879473259612102765E+03    0.156397645516928151E+04   -0.433243112387375362E+01   -0.878851332107974281E+00   -0.333239380055031509E+01   -0.683193133028996424E+00    0.879829034767467988E+00   -0.351032723825845210E+02
   -0.586929568082482156E+01   -0.336402903754918192E+01    0.259446705135999821E+03    0.175532377792506713E+04   -0.613976200672199646E+01   -0.724686191079304987E+00   -0.849099806342718200E+00   -0.369926511649283141E+00    0.886403264407654379E+00   -0.351627892377933833E+02
   -0.570795871565350765E+01   -0.244915842645576420E+01    0.240346659608700151E+03    0.165258651832431724E+04   -0.826216213113903208E+01   -0.132907833547228682E+00   -0.534672758151052641E+00   -0.450794678854235187E+00    0.873467405951697473E+00   -0.347156255083308594E+02
   -0.570795871565350765E+01   -0.244915842645576420E+01    0.240346659608700151E+03    0.165258651832431724E+04   -0.826216213113903208E+01   -0.132907833547228682E+00   -0.534672758151052641E+00   -0.450794678854235187E+00    0.873467405951697473E+00   -0.347156255083308594E+02
   -0.574374340107866743E+01   -0.278049669493604323E+01    0.460798726827221344E+03    0.163694295348074661E+04   -0.771104749099551512E+01   -0.230421421762977641E+00   -0.198650818651626793E+01   -0.482681290298942356E+00    0.892782805030978177E+00   -0.345667134218409444E+02
   -0.574374340107866743E+01   -0.278049669493604323E+01    0.460798726827221344E+03    0.163694295348074661E+04   -0.771104749099551512E+01   -0.230421421762977641E+00   -0.198650818651626793E+01   -0.482681290298942356E+00    0.892782805030978177E+00   -0.345667134218409444E+02
   -0.584167488526423639E+01   -0.358878841295414563E+01    0.476390098840515520E+03    0.181387237523897420E+04   -0.864084359667645430E+01   -0.613522533513415347E-01   -0.829677950650369311E+00    0.838140557570408173E-01    0.901478506719832651E+00   -0.352545490174054876E+02
   -0.569923022414212710E+01   -0.376117104404289559E+01    0.477716567181986989E+03    0.161886232981938292E+04   -0.757484735081524008E+01   -0.110779253752197659E+00   -0.336132218577580000E+01   -0.681437773755432019E+00    0.861651047388623081E+00   -0.349497098573264253E+02
   -0.577687452527643153E+01   -0.483334267878155188E+01    0.344104011524096734E+03    0.170475449282195746E+04   -0.791958136874839624E+01   -0.578390617077721769E+00   -0.136360633849585344E+01   -0.399962130179687403E+00    0.894266238797203905E+00   -0.352313363632106942E+02
   -0.564889725264426890E+01   -0.450833372944499189E+01    0.515089174085272475E+03    0.162125711262424716E+04   -0.737299045105367323E+01   -0.348590700693641953E+00    0.495054864216104562E-01   -0.164127694736969421E+00    0.900206342822051364E+00   -0.350698657208181217E+02
   -0.562975722710974136E+01   -0.377399191242060361E+01    0.663145817118038508E+03    0.153281593736307195E+04   -0.794157451735356368E+01   -0.703285618024520609E+00   -0.397687263164486771E+01   -0.808251307830753496E+00    0.843534753310601015E+00   -0.349378209525463319E+02
