   -0.580754578113555908E+01    0.515616416931152344E+00    0.103377521038055420E+03    0.179132393002510071E+04    0.526651865243911743E+01    0.675379514694213867E+00   -0.911522150039672852E+00    0.226097524166107178E+01    0.426744288206100442E+00   -0.326543206039064904E+01
   -0.838922619819641113E+01   -0.504581737518310547E+01    0.424171328544616699E+03    0.327374702692031860E+04    0.298394536972045898E+01    0.905438661575317383E+00    0.977802932262420654E+00    0.267977187037467957E+01    0.111413437724113473E+01   -0.326543145452254358E+01
   -0.369358181953430176E+01    0.202941727638244629E+01    0.988981425762176514E+03    0.319671890139579773E+04    0.443408972024917603E+01    0.916546463966369629E+00   -0.367836380004882812E+01   -0.688049197196960449E-01    0.549441492557525613E+00   -0.326542466306038026E+01
   -0.891884922981262207E+01   -0.518034124374389648E+01    0.118016302585601807E+03    0.300606018304824829E+04    0.553901588916778564E+01    0.664481043815612793E+00   -0.267852389812469482E+01    0.154305651783943176E+01    0.850995546579360940E+00   -0.326541489743431024E+01
   -0.297210991382598877E+01    0.225619411468505859E+01    0.577202796936035156E+03    0.236971786618232727E+04    0.528569734096527100E+01    0.842738151550292969E+00   -0.911763846874237061E+00    0.119042488932609558E+01    0.625427579879760720E+00   -0.326541396038921850E+01
   -0.270982325077056885E+01    0.569855332374572754E+01    0.487507522106170654E+03    0.197508028149604797E+04    0.277565395832061768E+01    0.970905780792236328E+00   -0.276605749130249023E+01    0.525775104761123657E+00    0.967281645536422707E+00   -0.326535763058289774E+01
   -0.716603457927703857E+01   -0.364855241775512695E+01    0.419238328933715820E+03    0.108424103260040283E+04    0.141322231292724609E+01    0.756974577903747559E+00   -0.244200104475021362E+01   -0.815751850605010986E-01    0.147134659290313730E+01   -0.326532519299123170E+01
   -0.193072199821472168E+01    0.107977795600891113E+01    0.300219058990478516E+02    0.102099201083183289E+04   -0.351373815536499023E+01   -0.855148077011108398E+00   -0.141025209426879883E+01   -0.366152197122573853E+00    0.965569859743118264E+00   -0.326531964181514534E+01
   -0.519981563091278076E+01   -0.316745209693908691E+01    0.913389265537261963E+03    0.111337995529174805E+04    0.109024858474731445E+01    0.904034614562988281E+00    0.337859451770782471E+00    0.172411420941352844E+01    0.369484579563140847E+00   -0.326529675805553410E+01
   -0.421162962913513184E+01    0.301631498336791992E+01    0.956254422664642334E+03    0.215318179130554199E+04    0.422815686464309692E+01    0.774918198585510254E+00   -0.573494672775268555E+00    0.292353129386901855E+01    0.124907103776931772E+01   -0.326525086793410901E+01
   -0.786559462547302246E+01   -0.239992904663085938E+01    0.184910237789154053E+03    0.131214669346809387E+04   -0.894454979896545410E+01   -0.899390101432800293E+00   -0.268925720453262329E+01    0.177793514728546143E+01    0.326547330617904641E+00   -0.326422783268825700E+01
   -0.445036053657531738E+01    0.438426375389099121E+01    0.487354993820190430E+02    0.134233048558235168E+04    0.174369817972183228E+01    0.161993503570556641E-01   -0.383464568853378296E+01    0.612785160541534424E+00    0.132045534849166879E+01   -0.326400211866318779E+01
   -0.915860116481781006E+01   -0.149946212768554688E-01    0.675249993801116943E+03    0.112858480215072632E+04   -0.473958903551101685E+01    0.171482920646667480E+00    0.475931763648986816E-01    0.855603128671646118E+00    0.906826084852218606E+00   -0.326394877977312037E+01
   -0.938664257526397705E+01   -0.221787643432617188E+01    0.806156814098358154E+03    0.130215084552764893E+04   -0.813989603519439697E+01   -0.750204443931579590E+00   -0.428782939910888672E+00    0.294025835394859314E+01    0.149142355322837838E+01   -0.326373335005349574E+01
   -0.626246750354766846E+01    0.162629342079162598E+01    0.141171514987945557E+03    0.304624891281127930E+04    0.458781158924102783E+01    0.736593127250671387E+00    0.787901937961578369E+00   -0.128276950120925903E+01    0.381969636678695657E+00   -0.326302480827810770E+01
   -0.894401907920837402E+01    0.156698942184448242E+00    0.698050618171691895E+03    0.117954945564270020E+04   -0.157338255643844604E+01    0.631432533264160156E+00   -0.116202884912490845E+01    0.108353430032730103E+01    0.137351748943328866E+01   -0.326212521665759336E+01
   -0.726500272750854492E+01    0.102841114997863770E+01    0.600544571876525879E+03    0.157881683111190796E+04    0.113691812753677368E+01    0.440382003784179688E+00   -0.342827975749969482E+00    0.170500159263610840E+01    0.100056633949279794E+01   -0.326191756823751211E+01
   -0.831565082073211670E+01    0.591524648666381836E+01    0.301640272140502930E+03    0.150769269466400146E+04   -0.669039130210876465E+00    0.952848553657531738E+00   -0.117932343482971191E+01   -0.112314373254776001E+00    0.846603161096572854E+00   -0.326170008736934847E+01
   -0.865887403488159180E+01   -0.146550965309143066E+01    0.827713191509246826E+03    0.142922079563140869E+04   -0.309215033054351807E+01    0.506546020507812500E+00   -0.218349331617355347E+01    0.192361879348754883E+01    0.963359540700912453E+00   -0.325990238143347533E+01
   -0.579189360141754150E+01   -0.716567516326904297E+00    0.452443361282348633E+02    0.108630499243736267E+04   -0.852694863080978394E+01   -0.547412633895874023E-01   -0.642314493656158447E+00    0.587009400129318237E+00    0.432680821418762185E+00   -0.325983840205673170E+01
   -0.916589438915252686E+01   -0.512801742553710938E+01    0.338382720947265625E+02    0.147963827848434448E+04   -0.282402598857879639E+01    0.811777114868164062E-01   -0.374375128746032715E+01   -0.115267914533615112E+01    0.311618602275848366E+00   -0.325918166294347422E+01
   -0.720487534999847412E+01   -0.547604799270629883E+01    0.740178048610687256E+03    0.129748812317848206E+04   -0.676982045173645020E+00   -0.307528257369995117E+00   -0.130579406023025513E+01    0.268188357353210449E+01    0.146230307817459115E+01   -0.325697252614420840E+01
   -0.858595252037048340E+01    0.930197238922119141E-01    0.356853187084197998E+03    0.168219095468521118E+04    0.489811545610427856E+01    0.229268789291381836E+00   -0.335043126344680786E+01   -0.142318528890609741E+01    0.411618059873580910E+00   -0.325561040153075920E+01
   -0.622247755527496338E+01    0.565305733680725098E+01    0.184692740440368652E+02    0.105880996584892273E+04   -0.808424645662307739E+01    0.606200695037841797E-01   -0.342270970344543457E+00    0.219540166854858398E+01    0.940737700462341286E+00   -0.323920178181476848E+01
   -0.279732525348663330E+01    0.568629169464111328E+01    0.839675247669219971E+03    0.191949254274368286E+04    0.786976575851440430E+00    0.893417358398437500E+00   -0.187351310253143311E+01    0.134987872838973999E+01    0.159176862239837652E+00   -0.323770152530205202E+01
   -0.868123412132263184E+01   -0.528957009315490723E+01    0.480788052082061768E+03    0.186341321468353271E+04   -0.650488489866256714E+01    0.229679465293884277E+00   -0.713713407516479492E+00    0.248569312691688538E+01    0.264887636899948098E+00   -0.318366392265389697E+01
   -0.404647588729858398E+01    0.528129029273986816E+01    0.872291564941406250E+03    0.186458772420883179E+04    0.203547960519790649E+01    0.486335277557373047E+00    0.581260979175567627E+00    0.578608185052871704E+00    0.517270183563232400E+00   -0.317929635035022251E+01
   -0.239009499549865723E+01    0.485983729362487793E+01    0.291445493698120117E+03    0.120325243473052979E+04    0.326052939891815186E+01    0.176975131034851074E+00   -0.246004724502563477E+01    0.142458736896514893E+01    0.594051992893218972E+00   -0.315691093231661180E+01
   -0.553906023502349854E+01   -0.536110711097717285E+01    0.830902278423309326E+03    0.111155113577842712E+04   -0.486361026763916016E+00   -0.442163109779357910E+00   -0.198288285732269287E+01    0.165436041355133057E+01    0.108145353794097909E+01   -0.310054734700481616E+01
   -0.269286811351776123E+01    0.355853962898254395E+01    0.592911183834075928E+03    0.278491100668907166E+04   -0.181518369913101196E+01    0.373140573501586914E-01   -0.226522737741470337E+01    0.230193445086479187E+01    0.987748867273330666E+00   -0.306526996094054471E+01
   -0.508248805999755859E+00    0.173642778396606445E+01    0.765827894210815430E+02    0.184198042750358582E+04   -0.735450321435928345E+01    0.915515422821044922E-02   -0.312427932024002075E+01    0.568822413682937622E+00    0.294399625062942483E+00   -0.306299477163764866E+01
   -0.226454257965087891E+01    0.286834073066711426E+01    0.422769665718078613E+03    0.201175099611282349E+04    0.531079477071762085E+01    0.395152568817138672E+00   -0.207688146829605103E+01    0.737851470708847046E+00    0.532348400354385354E+00   -0.304965630840616653E+01
   -0.174803495407104492E+01    0.806332111358642578E+00    0.791625380516052246E+02    0.148040017485618591E+04   -0.182899260520935059E+01    0.952187776565551758E-01   -0.393617504835128784E+01   -0.122951638698577881E+01    0.285523390769958474E+00   -0.304254104100847167E+01
   -0.246247708797454834E+01    0.412001967430114746E+01    0.291813433170318604E+03    0.107080256938934326E+04   -0.145266616344451904E+01   -0.201536059379577637E+00    0.197932720184326172E-01    0.820618808269500732E+00    0.857707864046096780E+00   -0.301037997574068461E+01
   -0.541215360164642334E+01   -0.133552694320678711E+01    0.265151143074035645E+03    0.160601413249969482E+04   -0.440332227945327759E+01   -0.997492313385009766E+00   -0.173386275768280029E+00    0.748975932598114014E+00    0.182109659910202032E+00   -0.298692657889555280E+01
   -0.718777358531951904E+01    0.513409709930419922E+01    0.945175826549530029E+03    0.146081930398941040E+04   -0.100536221265792847E+01    0.371892690658569336E+00   -0.320154666900634766E+00    0.227476662397384644E+01    0.138659379482269296E+01   -0.295331860915842004E+01
   -0.657757103443145752E+01   -0.471755933761596680E+01    0.348690867424011230E+03    0.225107839703559875E+04   -0.246634894609451294E+01    0.653348445892333984E+00   -0.321846240758895874E+01    0.407665640115737915E+00    0.440387344360351540E+00   -0.294982788002099383E+01
   -0.601114928722381592E+01   -0.128820919990539551E+01    0.956453382968902588E+03    0.206806427240371704E+04   -0.496180379390716553E+01   -0.331427931785583496E+00   -0.381563359498977661E+01    0.188059213757514954E+01    0.679089999198913552E+00   -0.284405483767555767E+01
   -0.454774439334869385E+01   -0.137364864349365234E-01    0.511941313743591309E+02    0.192895671725273132E+04   -0.261612528562545776E+01    0.177574157714843750E-02   -0.397901976108551025E+01    0.294797104597091675E+01    0.105232984423637399E+01   -0.277802552236024747E+01
   -0.421961426734924316E+01    0.987492799758911133E+00    0.486222326755523682E+03    0.126941388845443726E+04   -0.284403973817825317E+01    0.182353854179382324E+00    0.565836787223815918E+00   -0.699799150228500366E+00    0.646624630689620949E+00   -0.276926253169871872E+01
   -0.571447850340072172E+01   -0.252634865951884535E+01    0.568087772613590573E+03    0.161306561543304042E+04   -0.405528623728034354E+01   -0.948393580390144209E+00   -0.257000813741061318E+01    0.287134312443197448E+01    0.357148422230844087E+00   -0.267054407915091874E+01
   -0.222440004348754883E+01   -0.156515336036682129E+01    0.589602589607238770E+02    0.135517260432243347E+04   -0.205944120883941650E+00    0.848624467849731445E+00   -0.760515928268432617E-01    0.773871123790740967E+00    0.140973419547081003E+01   -0.253504997845327118E+01
   -0.570313962208732317E+01    0.371086260523970424E+01    0.726317228774311843E+03    0.118554468326737015E+04    0.215247389983375115E+01   -0.754986285675355528E+00   -0.132032426436218664E+01    0.183580077501302741E+01    0.104537124430100348E+01   -0.252296262059706766E+01
   -0.969334781169891357E+01    0.171169424057006836E+01    0.864876806735992432E+03    0.223492687940597534E+04    0.356155014038085938E+01    0.580078721046447754E+00   -0.284462654590606689E+01    0.985446721315383911E+00    0.839676892757415749E+00   -0.237477657288436905E+01
   -0.730212748050689697E+01    0.346020698547363281E+00    0.192527294158935547E+03    0.217628514766693115E+04   -0.398234421014785767E+01    0.882718443870544434E+00   -0.245119237899780273E+01   -0.140068423748016357E+01    0.121039233207702646E+01   -0.228573895236631008E+01
   -0.746301437066219187E+01   -0.129147727725778427E+01    0.639354622051847059E+03    0.128324998363254440E+04    0.465676051751987075E+01   -0.537773267692550183E+00   -0.293572530457958125E+01   -0.113769030471168353E+01    0.142486612460215589E+01   -0.220010208120188100E+01
   -0.233039796352386475E+01    0.392997336387634277E+01    0.215439617633819580E+03    0.247023275494575500E+04   -0.823372954130172729E+01    0.466310262680053711E+00   -0.124450200796127319E+01    0.121185332536697388E+00    0.553100740909576394E+00   -0.218325391284628001E+01
   -0.454652726650238037E+01   -0.161139822006225586E+01    0.110329985618591309E+03    0.149038961529731750E+04   -0.295104646682739258E+01   -0.932902693748474121E+00   -0.117614805698394775E+00   -0.286726355552673340E-01    0.400732672214508034E+00   -0.214648663897492398E+01
   -0.414583999924549929E+01    0.248368189974919318E+01    0.274474805789262348E+03    0.246622829559312322E+04   -0.307977330733321963E+01   -0.992823251603113244E-01   -0.336275913776068691E+00    0.277651804660371537E+00    0.814909627988194107E+00   -0.212581353459103584E+01
   -0.232853651046752930E+01    0.566290068626403809E+01    0.191402733325958252E+03    0.244300967454910278E+04   -0.561339014768600464E+01    0.999523639678955078E+00   -0.113632732629776001E+01    0.236440283060073853E+01    0.125405994653701791E+01   -0.211509157211935461E+01
   -0.526899390518176780E+01    0.948173744082987824E+00    0.866158317430032298E+03    0.120622901068748047E+04   -0.528216812778283806E+01   -0.988582346929102962E+00   -0.274047317159336234E+01   -0.110913333275931225E+01    0.498829986438635964E+00   -0.209849936076902210E+01
   -0.945187747478485107E+01   -0.160409760475158691E+01    0.870215475559234619E+03    0.346843516826629639E+04   -0.600166225433349609E+01   -0.559518933296203613E+00   -0.106697016954421997E+01    0.215956681966781616E+01    0.121331120133399972E+01   -0.205985878090524688E+01
   -0.653490300419384607E+01    0.502271531389600945E+01    0.131791176520335569E+03    0.233796577215666821E+04   -0.497095026664704598E+01    0.999895185571729961E+00   -0.156175076112845002E+01    0.247515743290135415E+01    0.945684262779766804E+00   -0.204831554902353030E+01
   -0.583666066934860783E+01    0.192002771861452715E+01    0.719861977932498576E+03    0.122215544871420980E+04   -0.365437862815856906E+01   -0.451992708138153843E+00    0.982043601494009266E-01    0.271092608080892195E+01    0.725392968834353113E+00   -0.203474389337611106E+01
   -0.331342586305161824E+01    0.470074213301061938E+01    0.389030757597484410E+03    0.237925038244564666E+04   -0.251926949401342437E+01    0.354819803626873265E+00   -0.277373078947832763E+01    0.166491654933865796E+01    0.144958625649063855E+01   -0.201108603967722566E+01
   -0.856915676207983523E+01    0.247598387869794934E+00    0.727233958358133123E+03    0.179423783583803265E+04   -0.366429240374305909E+01   -0.271761319534334356E+00   -0.296627422532888296E+01    0.259383606748964901E+01    0.754045708705520235E+00   -0.199391650722566260E+01
   -0.263106734218435534E+01   -0.521429043827017136E+01    0.548758908317607279E+03    0.119416306637706975E+04    0.392140853367749465E+01    0.226193133469811736E+00   -0.324844590110653009E+01    0.189788564120866443E+01    0.365243398293043531E+00   -0.197044760704497923E+01
   -0.762188568391439514E+01    0.374176224682892489E+01    0.120299584024331267E+03    0.248989773622448456E+04   -0.101267751440165643E+01   -0.229558959520764438E+00   -0.122480555741802277E+01   -0.494763392561572202E+00    0.113337732807131863E+01   -0.195684353482897255E+01
   -0.256914436817169189E+01    0.535889840126037598E+01    0.205015778541564941E+03    0.256681299209594727E+04   -0.864356750249862671E+01   -0.268013477325439453E+00    0.565959274768829346E+00    0.241121649742126465E+00    0.340519940853118874E+00   -0.195345615773959125E+01
   -0.530071914196014404E+01    0.173220491409301758E+01    0.373865306377410889E+03    0.203952780365943909E+04    0.142635887861251831E+01   -0.309451818466186523E+00   -0.326728457212448120E+01   -0.642268985509872437E+00    0.144845259785652170E+01   -0.192513318140048328E+01
   -0.397325396537780762E+01    0.449835348129272461E+01    0.751904904842376709E+03    0.347516453266143799E+04   -0.705994927883148193E+01   -0.432486534118652344E-01   -0.174792432785034180E+01    0.857142716646194458E+00    0.566859042644500710E+00   -0.191929475917696002E+01
   -0.612281322479248047E+01    0.114214754104614258E+01    0.309601843357086182E+03    0.174730530381202698E+04   -0.455018037557601929E+01    0.156842708587646484E+00   -0.488886475563049316E+00   -0.518315792083740234E+00    0.530511355400085427E+00   -0.189197455199968845E+01
   -0.665475487709045410E+01    0.512120890617370605E+01    0.115912973880767822E+03    0.200213736295700073E+04   -0.318913900852203369E+01   -0.870878815650939941E+00    0.861620664596557617E+00    0.187098902463912964E+01    0.134909964203834543E+01   -0.188855880693308831E+01
   -0.389833927154541016E+01   -0.172908282279968262E+01    0.124989569187164307E+03    0.101570120453834534E+04   -0.281337136030197144E+01   -0.453438043594360352E+00   -0.394981378316879272E+01    0.283318161964416504E+00    0.126394442319870004E+01   -0.186320102692593026E+01
   -0.671535849571228027E+01    0.122398138046264648E+01    0.331023037433624268E+03    0.171599200367927551E+04   -0.214675033092498779E+01   -0.261111259460449219E-01   -0.155749821662902832E+01    0.212494942545890808E+01    0.505279546976089455E+00   -0.182496446353491781E+01
   -0.864638880432130819E+01   -0.405444080407324670E+01    0.962815450135560013E+03    0.259758591777287438E+04   -0.854926844097720640E+01    0.818551496468194584E+00    0.316552142305564388E+00    0.571581571824135271E+00    0.111974395096024981E+01   -0.180661982246984842E+01
   -0.777624607086181641E+01    0.553417539596557617E+01    0.199291050434112549E+03    0.169786190986633301E+04   -0.402955645322799683E+01    0.160661935806274414E-01   -0.134199821949005127E+01    0.411930888891220093E+00    0.484516477584838845E+00   -0.178221001705052395E+01
   -0.534695644903923650E+01   -0.567476380051006757E+00    0.281672219196238075E+03    0.282892000696965169E+04    0.574797595327384059E+01    0.118847481282266632E+00   -0.271574601980162411E+01    0.208110931287553269E+01    0.792359404542213208E+00   -0.173288543744128321E+01
   -0.702438766986737217E+01    0.232711734925039160E+01    0.960840550386792302E+03    0.256361684096471163E+04   -0.435530320007601723E+01    0.704129698654769376E+00   -0.213478568911587985E+01   -0.804000169564644707E+00    0.152470877924784110E+01   -0.172311916126615006E+01
   -0.153094887733459473E+01    0.426019048690795898E+01    0.124276757240295410E+03    0.203856191039085388E+04    0.125123387575149536E+01   -0.642180085182189941E+00   -0.296153509616851807E+01    0.109516301751136780E+01    0.949877774715423562E+00   -0.168604310186116280E+01
   -0.743943150499252059E+01   -0.255774156480223169E+00    0.507896134862306894E+03    0.145785490671971093E+04    0.462066518657832859E+01   -0.646282816401916982E+00   -0.159046751833888100E+01    0.216628974323482870E+01    0.161752349379674087E+00   -0.166524924064887214E+01
   -0.338892325558670304E+01    0.169702309865712131E+01    0.689661671917299827E+03    0.205212151494224918E+04   -0.431127725857296085E+00    0.104461170886471111E+00   -0.194804653250821103E+01    0.256585994153018149E+01    0.100091773580678578E+01   -0.162591752321150240E+01
   -0.940294504165649414E+01   -0.398973941802978516E+00    0.777535080909729004E+03    0.321239537000656128E+04   -0.362675392627716064E+01    0.491587996482849121E+00   -0.244633489847183228E+01    0.142327603697776794E+01    0.131591016650199899E+01   -0.160174502216108960E+01
   -0.913853466510772705E+01    0.843262195587158203E+00    0.917441666126251221E+03    0.216413369774818420E+04   -0.208163076639175415E+01    0.552664041519165039E+00    0.450101852416992188E+00   -0.235203802585601807E-01    0.155626595616340646E+01   -0.155934244558433921E+01
   -0.323258705825251980E+01    0.175434977854780438E+01    0.676335265028322056E+03    0.331944148729420294E+04   -0.209690541601058467E+01    0.491268852829928271E+00   -0.125178783142231564E+01    0.182886675331737969E+01    0.298644269146446706E+00   -0.155778601754201418E+01
   -0.791136031320492172E+01   -0.232883061675953940E+01    0.821526486826856058E+03    0.268142632330587548E+04   -0.647561706076804455E+01   -0.420891425731542035E+00   -0.177327573168515817E+01    0.725814293931504650E+00    0.504952021637567694E+00   -0.151632732767709810E+01
   -0.649618089199066162E+01    0.261976647377014160E+01    0.779131710529327393E+03    0.153168490529060364E+04   -0.844954633712768555E+01   -0.507799386978149414E+00    0.403282999992370605E+00   -0.416903614997863770E+00    0.125531053543090826E+00   -0.151178511151797612E+01
   -0.377449333667755127E+01    0.214608120918273926E+01    0.880343317985534668E+02    0.343178248405456543E+04   -0.207592570781707764E+01   -0.538029432296752930E+00   -0.297477686405181885E+01   -0.847198337316513062E+00    0.910462802648544289E+00   -0.149184731322954733E+01
   -0.425731241703033447E+01    0.540688705444335938E+01    0.574749112129211426E+03    0.164629733562469482E+04    0.126300519704818726E+01   -0.633716583251953125E+00   -0.229851508140563965E+01    0.226393774151802063E+01    0.759734100103378274E+00   -0.147525072479019204E+01
   -0.522837115108500683E+01    0.353292493292051368E+01    0.821374390653742125E+03    0.150028454824136452E+04   -0.902808885199046784E+00   -0.621893753890381040E+00   -0.309923768601791050E+01    0.135906063822395540E+01    0.842267178633091196E+00   -0.146179048414356516E+01
   -0.645074682961220613E+01    0.411473176740872582E+01    0.553197811827534906E+03    0.182129716726791298E+04    0.229172292797165689E+01    0.208029901617602153E+00   -0.234521771699488246E+01    0.244902135580938962E+01    0.566742403438491249E+00   -0.142564183236760100E+01
   -0.419163777008847838E+01    0.137385813467695783E+01    0.373580305699070664E+03    0.161187884858526695E+04   -0.489785637061024470E+01   -0.336405374049016714E+00   -0.317172486985187696E+01    0.155238388721356824E+01    0.684354977306680934E+00   -0.140307740714938789E+01
   -0.986253619194030762E+00    0.586239337921142578E+01    0.495312154293060303E+03    0.156230530142784119E+04   -0.252973079681396484E+00    0.383500337600708008E+00    0.806025028228759766E+00    0.958038836717605591E+00    0.157949036359786993E+00   -0.140264585290659061E+01
   -0.378767168021662037E+01    0.231831202115130530E+01    0.542381471844063981E+03    0.333307606212034852E+04   -0.399422473675596468E+01   -0.106360192705781120E-01   -0.308698131208718163E+01    0.225025982075266695E+01    0.131047744173640734E+01   -0.138024688175787213E+01
   -0.712109536530290033E+01   -0.568831340937980290E+01    0.123502092427966858E+03    0.290708260254269180E+04    0.148020880633299434E+01    0.420876060060230817E+00   -0.206468231909494815E+00   -0.484979973487003058E+00    0.105932000734473974E+01   -0.137561292371236710E+01
   -0.681518755439487833E+01   -0.148250935546312412E+01    0.252282153976141899E+03    0.251943900323785465E+04   -0.771291656443078644E+01    0.262349022876038784E+00   -0.393911351790517994E+01   -0.555811627106252204E+00    0.677890164395490213E+00   -0.137327896288628781E+01
   -0.829260564277788426E+01   -0.412826431431607510E+01    0.756214750487250171E+03    0.272377581046932210E+04   -0.401339686734814105E+01   -0.262406809781368211E+00    0.717978028798551549E+00    0.762902483864086989E+00    0.957404722430894251E+00   -0.133873520381977196E+01
   -0.439180851466336897E+01    0.752553074072672246E+00    0.143066109036918135E+03    0.341208381100229781E+04    0.437748585907629106E+01    0.260517496871444321E+00   -0.125693406902836458E+01   -0.353558199042498300E+00    0.379251439749375030E+00   -0.132508935483796675E+01
   -0.812418835873745238E+01   -0.512723582779673670E+00    0.138757060635464427E+03    0.291035942836361846E+04   -0.279992934881578392E+00    0.221384242284518917E+00   -0.169726870040752242E+01    0.126733817060986809E+01    0.110629159920621656E+01   -0.127454944671726778E+01
   -0.746676128266187789E+01   -0.134716898667302498E+01    0.677614248829274629E+03    0.274122830504908507E+04   -0.697571396657650844E+01   -0.569039837882003630E+00   -0.181590219687555754E+01    0.112823779330538976E+01    0.892612358621238666E+00   -0.120075159471303938E+01
   -0.746676128266187789E+01   -0.134716898667302498E+01    0.677614248829274629E+03    0.274122830504908507E+04   -0.697571396657650844E+01   -0.569039837882003630E+00   -0.181590219687555754E+01    0.112823779330538976E+01    0.892612358621238666E+00   -0.120075159471303938E+01
   -0.657189022265500622E+01   -0.143778713935533720E+01    0.180175164092170149E+03    0.269448852881520361E+04   -0.344593417777060917E+01    0.321080779511573322E-01    0.525630326495008404E+00   -0.245851918554462312E+00    0.398449501164854447E+00   -0.118141241386207407E+01
   -0.849494331942878311E+01   -0.502408591265608973E+01    0.636763353136041246E+03    0.274411818804162249E+04   -0.286141874098978910E+01   -0.134029515938139165E+00   -0.130928800433608350E+01   -0.276510651493516946E+00    0.130945735013528974E+01   -0.115660442756667536E+01
   -0.470156311988830566E+01    0.132131481170654297E+01    0.374215304851531982E+03    0.282320356369018555E+04    0.416603744029998779E+00    0.412616729736328125E-01   -0.230491870641708374E+01    0.189182764291763306E+01    0.127099058628082284E+01   -0.112527184159910365E+01
   -0.513639696647746913E+01    0.151221162445831325E+01    0.864384042104344189E+03    0.107265047269937349E+04   -0.251399002336123711E+01   -0.248627924241917708E+00   -0.355917001269296351E+01    0.269406640584299062E+01    0.396517269515993975E+00   -0.110738062673406312E+01
   -0.896982105123461260E+01   -0.429936730714467341E+01    0.803203306188422403E+03    0.341286761596294446E+04   -0.431108556687854261E+01    0.587379671974983975E+00   -0.275952509934830736E+01   -0.347672063836440115E+00    0.859696700994590723E+00   -0.108698758437909815E+01
   -0.713389001627410568E+01   -0.575003065974010408E+01    0.504096445359658787E+03    0.335863438010001664E+04   -0.171245597486781254E+01    0.218416145882673662E+00   -0.781860984015975369E+00    0.908077602981153031E+00    0.503860465821359238E+00   -0.108550812087693327E+01
   -0.522817552089691162E+01    0.249401879310607910E+01    0.969680964946746826E+03    0.121958708763122559E+04   -0.115612202882766724E+01   -0.910585641860961914E+00   -0.965880095958709717E+00    0.742965102195739746E+00    0.774053966999053933E+00   -0.108177881392787523E+01
   -0.520669776442236643E+01   -0.292909548385702934E+00    0.195982268100823774E+03    0.223720433735358438E+04    0.456241498275594459E+01    0.196217826777880244E-01   -0.629078202369790063E+00   -0.253930519415529465E+00    0.108619123843989285E+01   -0.107537217014853304E+01
   -0.397690892219543457E+01    0.534114360809326172E+00    0.364741742610931396E+03    0.261825209856033325E+04   -0.379276478290557861E+01    0.630653142929077148E+00    0.392654597759246826E+00    0.970243692398071289E+00    0.512396520376205422E+00   -0.104541931917519193E+01
   -0.647895216941833496E+01   -0.397985816001892090E+01    0.136150598526000977E+03    0.176310038566589355E+04   -0.449462020397186279E+01   -0.103968620300292969E+00    0.865042567253112793E+00   -0.895348280668258667E+00    0.102183661460876474E+01   -0.103577185667960303E+01
   -0.871648372473547361E+01   -0.404924877256708982E+01    0.265495040509674993E+03    0.334047790177193247E+04   -0.437197301592237242E+01    0.308426744797770658E+00   -0.226591294308254065E+01   -0.133014451945338164E+01    0.696401906009986083E+00   -0.102334553410127360E+01
   -0.730447069724514986E+01    0.494125073836212181E+00    0.346365272083884975E+03    0.243334490189000826E+04   -0.311816012931037356E+01   -0.955285517853233457E+00   -0.334805847814365620E+01   -0.100195059356354932E+01    0.973632526049100666E+00   -0.101936562541591669E+01
   -0.601928305434341837E+01    0.238881468017147114E+01    0.633916984667557927E+03    0.162348192028459789E+04   -0.511736613690850461E+01   -0.349667723624516813E+00   -0.372762873808291584E+01    0.207319697143415027E+00    0.416988145489456397E+00   -0.988883955990627395E+00
   -0.672106087207794189E+01    0.114422893524169922E+01    0.665760636329650879E+03    0.166142827272415161E+04    0.793070197105407715E-01    0.104744195938110352E+00   -0.308955663442611694E+01    0.290323421359062195E+01    0.745901411771774270E+00   -0.985782654105625045E+00
   -0.206264764297792880E+01    0.176158343608008217E+01    0.371354303516565096E+03    0.245854816167708395E+04   -0.114782347223112424E+00   -0.263186954470176593E+00   -0.388951287272495616E+00    0.118716400968573232E+01    0.917979648176155627E+00   -0.963188828470633474E+00
   -0.530861616134643555E+01   -0.476398944854736328E+01    0.781495690345764160E+03    0.276421388983726501E+04   -0.295523875951766968E+01   -0.859570503234863281E-02    0.497897624969482422E+00    0.955628067255020142E+00    0.640201365947723366E+00   -0.952311316389053863E+00
   -0.530861616134643555E+01   -0.476398944854736328E+01    0.781495690345764160E+03    0.276421388983726501E+04   -0.295523875951766968E+01   -0.859570503234863281E-02    0.497897624969482422E+00    0.955628067255020142E+00    0.640201365947723366E+00   -0.952311316389053863E+00
   -0.422686572958473139E+01    0.177893982269161199E+00    0.164417422086542075E+03    0.190655449775616944E+04    0.390613839414280406E+01   -0.319507097385955285E+00   -0.121133562063316980E+01   -0.632148075773069973E+00    0.120861290807025612E+01   -0.854391953921964986E+00
   -0.422686572958473139E+01    0.177893982269161199E+00    0.164417422086542075E+03    0.190655449775616944E+04    0.390613839414280406E+01   -0.319507097385955285E+00   -0.121133562063316980E+01   -0.632148075773069973E+00    0.120861290807025612E+01   -0.854391953921964986E+00
   -0.635562356604665624E+01   -0.120762468440570991E+01    0.664977129193835594E+03    0.268078488487004142E+04   -0.367573702026252835E+01   -0.700511469523891095E+00   -0.260192279288938622E+00    0.470953675662550753E+00    0.808783935146010435E+00   -0.811110097617665726E+00
   -0.635562356604665624E+01   -0.120762468440570991E+01    0.664977129193835594E+03    0.268078488487004142E+04   -0.367573702026252835E+01   -0.700511469523891095E+00   -0.260192279288938622E+00    0.470953675662550753E+00    0.808783935146010435E+00   -0.811110097617665726E+00
   -0.674933969736862771E+01    0.597219907540521078E+01    0.350858065617328577E+03    0.273571443934181752E+04   -0.450788501205119463E+01    0.552255272081740411E+00   -0.178935686730436139E+00    0.226730137696843181E+01    0.601147613606079489E+00   -0.803199559499568894E+00
   -0.446391313355143815E+01    0.244978455387143157E+01    0.800045763861053956E+03    0.203848640167017697E+04   -0.416294743702447345E+01    0.234428142530024974E+00   -0.306468832962102500E+01    0.681387444723234204E+00    0.106303101450831039E+01   -0.773884080345377257E+00
   -0.821963565926666817E+01    0.469990031412032394E+01    0.863640518031201196E+02    0.241052402863106272E+04   -0.369188351484272825E+01   -0.171801381987494728E+00   -0.751235397491242018E+00    0.695955768669274999E+00    0.100859241742365291E+01   -0.752064140181040730E+00
   -0.762125362007772544E+01   -0.445110976064848352E+01    0.623120086704065443E+03    0.285400209469099991E+04   -0.891701116308514763E+01   -0.217938455519097407E+00   -0.184940981072064581E+00    0.140662466992931234E+01    0.126518930694843990E+01   -0.750416903271793334E+00
   -0.762125362007772544E+01   -0.445110976064848352E+01    0.623120086704065443E+03    0.285400209469099991E+04   -0.891701116308514763E+01   -0.217938455519097407E+00   -0.184940981072064581E+00    0.140662466992931234E+01    0.126518930694843990E+01   -0.750416903271793334E+00
   -0.644837141036987305E+01    0.462693715095520020E+01    0.935591340065002441E+03    0.113838171958923340E+04   -0.700235009193420410E+00    0.270289540290832520E+00   -0.388862633705139160E+01    0.222850281000137329E+01    0.167303329706192022E+00   -0.730138794941648794E+00
   -0.644837141036987305E+01    0.462693715095520020E+01    0.935591340065002441E+03    0.113838171958923340E+04   -0.700235009193420410E+00    0.270289540290832520E+00   -0.388862633705139160E+01    0.222850281000137329E+01    0.167303329706192022E+00   -0.730138794941648794E+00
   -0.950111329555511475E+01   -0.631351232528686523E+00    0.596194624900817871E+03    0.214585801959037781E+04    0.248899519443511963E+00   -0.285376906394958496E+00   -0.328102552890777588E+01    0.176929280161857605E+01    0.528424775600433327E+00   -0.716165991910064137E+00
   -0.950111329555511475E+01   -0.631351232528686523E+00    0.596194624900817871E+03    0.214585801959037781E+04    0.248899519443511963E+00   -0.285376906394958496E+00   -0.328102552890777588E+01    0.176929280161857605E+01    0.528424775600433327E+00   -0.716165991910064137E+00
   -0.817204654669667896E+01   -0.554589046490520854E+01    0.786547384090874971E+03    0.285590206187866352E+04   -0.437185701001714300E+01   -0.454084010496762613E+00   -0.910051866180490165E-01    0.304883014463622537E+00    0.584826458158176132E+00   -0.700212488196503502E+00
   -0.882088482379913330E+01   -0.462458109855651855E+01    0.821452558040618896E+03    0.342330595850944519E+04   -0.560194337368011475E+01    0.433903098106384277E+00   -0.305257523059844971E+01    0.208545845746994019E+01    0.132032638788223272E+00   -0.693511553400322445E+00
   -0.189985513687133789E+01   -0.517095065116882324E+01    0.646842181682586670E+03    0.124615913629531860E+04    0.232580369710922241E+01    0.356832146644592285E+00   -0.314828956127166748E+01    0.188396260142326355E+01    0.263315683603286721E+00   -0.692500823631995832E+00
   -0.844021243036318225E+01    0.309906479476332208E+01    0.106827158251678341E+03    0.206699843161100080E+04   -0.159280065322992836E+01   -0.255236114386693247E-01   -0.535529948617022189E+00   -0.101713950189046098E+01    0.701477748128830458E+00   -0.665540472049727660E+00
   -0.429168163964692084E+01    0.144752097738505814E+01    0.279065917230359091E+02    0.268086745703753968E+04   -0.429709640684722149E+01    0.510083637618401475E-01   -0.210223846983989127E+01    0.590966312465802890E+00    0.700071166734836603E+00   -0.647036709751405925E+00
   -0.413844804358639884E+01    0.187732308674963200E+01    0.766516150417538142E+03    0.188500388117638795E+04   -0.449483868275761189E+01    0.357628637453297760E+00   -0.242472421872684230E+01    0.214290839023609436E+01    0.175745686566868980E+00   -0.635031976007401133E+00
   -0.413844804358639884E+01    0.187732308674963200E+01    0.766516150417538142E+03    0.188500388117638795E+04   -0.449483868275761189E+01    0.357628637453297760E+00   -0.242472421872684230E+01    0.214290839023609436E+01    0.175745686566868980E+00   -0.635031976007401133E+00
   -0.484449988030166256E+01    0.441243865218797993E+00    0.618604205357865567E+03    0.197159044649628868E+04   -0.124087526497354439E+01   -0.112994373434168405E+00   -0.391960009819825261E+01    0.249584103582831363E+01    0.474360466485018284E+00   -0.625562093085355375E+00
   -0.798587196938676502E+01   -0.357577007666942315E+01    0.778943717113459115E+03    0.341797567652218686E+04   -0.258854412428260616E+01    0.757690263572807776E+00   -0.122135818676720342E+01    0.399360332698700971E+00    0.210356883423220425E+00   -0.608755988346752153E+00
   -0.521151900291442871E+01    0.712839603424072266E+00    0.191539525985717773E+03    0.284835523366928101E+04    0.115232473611831665E+01    0.309375524520874023E+00   -0.325455009937286377E+00    0.165230423212051392E+01    0.312633818387985207E+00   -0.606658459019590923E+00
   -0.595026099395809815E+01   -0.270808999434398245E+01    0.910199559338559993E+03    0.246504242131288629E+04    0.311994003581456525E+01   -0.343206031280668844E+00    0.936878742510684148E+00    0.584848201106118015E+00    0.518353233517210410E+00   -0.604154466018754110E+00
   -0.544202613548252234E+01    0.409420715539314628E+01    0.672787260248346001E+03    0.290482624863576530E+04   -0.711710555448580973E+01   -0.157198785185708179E+00   -0.257255920113352410E+01   -0.942255994032561328E+00    0.182883405299159779E+00   -0.597634159440877388E+00
   -0.544202613548252234E+01    0.409420715539314628E+01    0.672787260248346001E+03    0.290482624863576530E+04   -0.711710555448580973E+01   -0.157198785185708179E+00   -0.257255920113352410E+01   -0.942255994032561328E+00    0.182883405299159779E+00   -0.597634159440877388E+00
   -0.911888165983079091E+01   -0.343212793308535113E+01    0.337227609005193074E+03    0.287587911649625039E+04   -0.127633656805126705E+01   -0.176386853353300843E-01   -0.154184945586621236E+01    0.967441062858318990E+00    0.367682193072507713E+00   -0.595420476245073105E+00
   -0.739371895790100098E+01    0.185901117324829102E+01    0.512501120567321777E+03    0.160577660799026489E+04   -0.171558880805969238E+01    0.274237275123596191E+00   -0.551617085933685303E+00    0.289650401473045349E+01    0.260310536623001076E+00   -0.590913800097373487E+00
   -0.580827675040014846E+01    0.211314882439107699E+01    0.603238395375107871E+03    0.243575229893748838E+04   -0.190488075301764059E+01    0.176000029864717522E+00   -0.175187115534885418E+00   -0.365608843691744845E-02    0.416298968777661926E+00   -0.579066812478989834E+00
   -0.580827675040014846E+01    0.211314882439107699E+01    0.603238395375107871E+03    0.243575229893748838E+04   -0.190488075301764059E+01    0.176000029864717522E+00   -0.175187115534885418E+00   -0.365608843691744845E-02    0.416298968777661926E+00   -0.579066812478989834E+00
   -0.156130106350876829E+01    0.563921187170859817E+01    0.369984122969394377E+03    0.292806562535161720E+04   -0.628851608091173908E+01    0.461353348835685795E+00    0.147870188707029726E+00    0.212564353064364786E+01    0.497513196658645906E+00   -0.570696049457077081E+00
   -0.753762766637058057E+01   -0.319057290240590463E+01    0.524085079406847967E+03    0.320916171891821432E+04   -0.291965575380879017E+01   -0.995648129791287806E-01   -0.249268292764148036E+01   -0.564821129007911260E+00    0.778302616767154731E+00   -0.566845853348101003E+00
   -0.673422320958747278E+01   -0.274875003071152957E+01    0.316834818799957134E+03    0.292733449591803219E+04   -0.886653483502735540E+01   -0.355897525527852365E+00   -0.161741129184065535E+01    0.151746893295464425E+01    0.881408661197764842E+00   -0.565455045767144782E+00
   -0.673422320958747278E+01   -0.274875003071152957E+01    0.316834818799957134E+03    0.292733449591803219E+04   -0.886653483502735540E+01   -0.355897525527852365E+00   -0.161741129184065535E+01    0.151746893295464425E+01    0.881408661197764842E+00   -0.565455045767144782E+00
   -0.521365165710449219E+01    0.180382490158081055E+00    0.145977616310119629E+03    0.257437399029731750E+04   -0.749678277969360352E+01    0.407840371131896973E+00    0.859234333038330078E-01   -0.109365954995155334E+01    0.285495316982269265E+00   -0.565362513636894715E+00
   -0.564361045964137276E+01   -0.503400991633146511E+01    0.583199611325512819E+03    0.292332285677228083E+04   -0.785978194382682194E+01   -0.153031728560189761E+00   -0.122855248080674029E+01    0.156487080335917650E+01    0.736697386659045717E+00   -0.559785433797484133E+00
   -0.564361045964137276E+01   -0.503400991633146511E+01    0.583199611325512819E+03    0.292332285677228083E+04   -0.785978194382682194E+01   -0.153031728560189761E+00   -0.122855248080674029E+01    0.156487080335917650E+01    0.736697386659045717E+00   -0.559785433797484133E+00
   -0.556609288589445494E+01    0.510861531418326464E+00    0.161096506031810492E+03    0.273582584689178748E+04   -0.349998485681695826E+01   -0.670709247380285811E+00   -0.290265984953945688E+01    0.389435486249513296E+00    0.121564726812179713E+01   -0.555381190843987849E+00
   -0.615516117028825782E+01    0.165003776926282697E+01    0.787253000189809200E+03    0.121426055488076395E+04   -0.904014487264468869E+00   -0.155539607242547784E+00   -0.312593968516572707E+01    0.180112625020391048E+01    0.859718122445554789E+00   -0.555236248596654991E+00
   -0.705894947052001953E+01    0.180399084091186523E+01    0.491949379444122314E+03    0.109523063898086548E+04   -0.807103389501571655E+01   -0.530827760696411133E+00   -0.356837654113769531E+01    0.970949381589889526E+00    0.730716085433959939E+00   -0.535919079885253224E+00
   -0.587569832801818848E+01   -0.300665330886840820E+01    0.935121059417724609E+03    0.290498337149620056E+04   -0.587355458736419678E+01    0.783435106277465820E-01    0.736590385437011719E+00    0.801408022642135620E+00    0.756940579414367654E+00   -0.529212028268892909E+00
   -0.587569832801818848E+01   -0.300665330886840820E+01    0.935121059417724609E+03    0.290498337149620056E+04   -0.587355458736419678E+01    0.783435106277465820E-01    0.736590385437011719E+00    0.801408022642135620E+00    0.756940579414367654E+00   -0.529212028268892909E+00
   -0.547311242372364948E+01    0.450644272841715399E+01    0.995343572568169179E+02    0.293759985963921827E+04   -0.288318026731961119E+01   -0.369215636852418538E+00   -0.256486380184583984E+01    0.368569993764131132E+00    0.123982309732337281E+01   -0.523927872300579245E+00
   -0.365719258785247803E+01    0.339718794822692871E+01    0.266273021697998047E+03    0.144691517949104309E+04    0.870339632034301758E+00   -0.690122723579406738E+00   -0.109571158885955811E+00   -0.140912219882011414E+01    0.145570126771926889E+01   -0.516302614681365402E+00
   -0.365719258785247803E+01    0.339718794822692871E+01    0.266273021697998047E+03    0.144691517949104309E+04    0.870339632034301758E+00   -0.690122723579406738E+00   -0.109571158885955811E+00   -0.140912219882011414E+01    0.145570126771926889E+01   -0.516302614681365402E+00
   -0.685394194438936033E+01    0.459992872740589220E+01    0.665682675583683590E+03    0.107329476501450540E+04   -0.186616025758432968E+01    0.524925552050484523E+00   -0.187348800836558205E+01    0.261380102144890625E+01    0.117035546501093851E+00   -0.509868913340607133E+00
   -0.685394194438936033E+01    0.459992872740589220E+01    0.665682675583683590E+03    0.107329476501450540E+04   -0.186616025758432968E+01    0.524925552050484523E+00   -0.187348800836558205E+01    0.261380102144890625E+01    0.117035546501093851E+00   -0.509868913340607133E+00
   -0.659635683120272631E+01    0.549942907606238762E+01    0.773181831043681200E+03    0.221068929505891538E+04   -0.327427478602570687E+01   -0.744420872899522523E+00   -0.280409498630931431E+01    0.125099143338126195E+01    0.394235632299701377E+00   -0.499688709051269442E+00
   -0.623814772116692140E+01   -0.389139200679333008E+01    0.497339370005831711E+03    0.277997742704935172E+04   -0.231938780137753309E+01   -0.777276190780681331E-01   -0.202844620020208799E+01    0.172438821980210122E+01    0.274928227197223929E+00   -0.498192143721690350E+00
   -0.870350120661644411E+01   -0.463721319103087470E+01    0.522496362441369911E+03    0.334632178226207543E+04   -0.710154239628342943E+01    0.390993693798803887E+00    0.287874119357796943E+00    0.220657914897443330E+01    0.541964100879366306E+00   -0.489674875060151171E+00
   -0.850447780600559433E+01   -0.415247322311235134E+01    0.790582694163547330E+03    0.329604210321175287E+04   -0.924085768559482545E+00   -0.424889400748448276E-01   -0.661398620227025447E+00   -0.117309412623107789E-01    0.965051357851162916E+00   -0.466945418423270253E+00
   -0.776774823665618896E+01   -0.271592402458190918E+01    0.949561476707458496E+03    0.285625135898590088E+04   -0.823445016145706177E+01    0.869652986526489258E+00    0.370380938053131104E+00    0.195255339145660400E+00    0.113823000192642221E+01   -0.451320775950202868E+00
   -0.776774823665618896E+01   -0.271592402458190918E+01    0.949561476707458496E+03    0.285625135898590088E+04   -0.823445016145706177E+01    0.869652986526489258E+00    0.370380938053131104E+00    0.195255339145660400E+00    0.113823000192642221E+01   -0.451320775950202868E+00
   -0.781684488625078977E+01   -0.475028749790614491E+01    0.726966850364813240E+03    0.324789760922072128E+04   -0.808385876087945299E+01    0.964735189522252012E+00    0.466003916424080344E-01    0.351475003902512073E+00    0.108380298713969303E+01   -0.439044139267249611E+00
   -0.327391822287843492E+01    0.269711850472751458E+01    0.758992089630547980E+03    0.216163812222688011E+04   -0.114450899114615723E+01   -0.341147399893458991E+00   -0.174330778244722495E+01    0.231991436066564161E+01    0.223909230603829223E+00   -0.436133392902021022E+00
   -0.763548254966735840E+01    0.196950387954711914E+01    0.588576436042785645E+03    0.151455363631248474E+04   -0.277725899219512939E+01    0.638904094696044922E+00   -0.166233742237091064E+01   -0.112137696146965027E+01    0.170031315088272100E+00   -0.435699164053770960E+00
   -0.763548254966735840E+01    0.196950387954711914E+01    0.588576436042785645E+03    0.151455363631248474E+04   -0.277725899219512939E+01    0.638904094696044922E+00   -0.166233742237091064E+01   -0.112137696146965027E+01    0.170031315088272100E+00   -0.435699164053770960E+00
   -0.892043206750998507E+01   -0.412935329772293880E+01    0.683316021881773622E+03    0.294978325360285635E+04   -0.824506984656135877E+01   -0.489474410892698497E-01   -0.163016597782419304E+01   -0.387380568159460204E+00    0.100605224927772485E+01   -0.429999773290420606E+00
   -0.896790862083435059E+01   -0.153001284599304199E+01    0.746649265289306641E+03    0.294408997893333435E+04   -0.353395932912826538E+01   -0.933663845062255859E-01   -0.388379359245300293E+01    0.260480171442031860E+01    0.104344502687454233E+01   -0.428205005657459392E+00
   -0.377820790027180475E+01    0.852630912958332488E+00    0.368004830795821420E+03    0.288782680956898412E+04   -0.485033412187300517E+01    0.435883682468334976E+00    0.626209439519450406E+00    0.120213109920746630E+01    0.281192762656419404E+00   -0.427423015166261355E+00
   -0.515364481212846304E+01    0.216394604911281441E+01    0.710988824986019154E+03    0.160102159489266433E+04   -0.372503500915418861E+01   -0.709464569677100809E+00   -0.106921279705491168E+01    0.115280383640798378E+01    0.664481967117708572E+00   -0.427208483150708529E+00
   -0.584877151671112117E+01   -0.484497243950628675E+01    0.772045030893239527E+03    0.256644320787855440E+04   -0.775832992407550925E+01   -0.744975070663567607E+00   -0.953315587166370548E+00    0.166877815219603809E+01    0.132793713554698489E+01   -0.415321871078959626E+00
   -0.406287618228079594E+01   -0.443185502237202655E+00    0.300263063144488001E+03    0.314351871580497027E+04   -0.322248061846413147E+01    0.835910279321417926E+00   -0.697238652746539511E+00    0.183614139329641635E+01    0.408753486595414439E+00   -0.403606821832483531E+00
   -0.406287618228079594E+01   -0.443185502237202655E+00    0.300263063144488001E+03    0.314351871580497027E+04   -0.322248061846413147E+01    0.835910279321417926E+00   -0.697238652746539511E+00    0.183614139329641635E+01    0.408753486595414439E+00   -0.403606821832483531E+00
   -0.373626856697301690E+01    0.277069602527919834E+01    0.403519709385448039E+03    0.317752620776296999E+04   -0.374017950968899004E+01    0.494365364810841923E+00   -0.100076471838148473E+01    0.896883837371285075E+00    0.427367013912626770E+00   -0.391227416907164560E+00
   -0.373626856697301690E+01    0.277069602527919834E+01    0.403519709385448039E+03    0.317752620776296999E+04   -0.374017950968899004E+01    0.494365364810841923E+00   -0.100076471838148473E+01    0.896883837371285075E+00    0.427367013912626770E+00   -0.391227416907164560E+00
   -0.528719071775667881E+01    0.323698945090363210E+01    0.151123977288577493E+03    0.297930813540750023E+04   -0.590784231962275896E+01    0.743795585085742283E+00   -0.344093882459282518E+00   -0.250417404479963412E+00    0.109648091456005936E+01   -0.386076720789545136E+00
   -0.528719071775667881E+01    0.323698945090363210E+01    0.151123977288577493E+03    0.297930813540750023E+04   -0.590784231962275896E+01    0.743795585085742283E+00   -0.344093882459282518E+00   -0.250417404479963412E+00    0.109648091456005936E+01   -0.386076720789545136E+00
   -0.597874457663078296E+01   -0.626801853297475731E+00    0.309996467851001512E+03    0.277462727013129143E+04   -0.381445583833120772E+01   -0.112530004438083253E+00    0.768668816555133638E+00   -0.350324496530125762E+00    0.743534340539212968E+00   -0.385613184029472089E+00
   -0.759926240006447884E+01    0.117549479481828811E+01    0.710877666112377028E+03    0.316669549851172042E+04   -0.173494743537311980E+01    0.687964666639986566E+00   -0.422735204186574620E+00    0.238484481128653458E+01    0.279720435491011998E+00   -0.375986845811044745E+00
   -0.759926240006447884E+01    0.117549479481828811E+01    0.710877666112377028E+03    0.316669549851172042E+04   -0.173494743537311980E+01    0.687964666639986566E+00   -0.422735204186574620E+00    0.238484481128653458E+01    0.279720435491011998E+00   -0.375986845811044745E+00
   -0.363334259339131194E+01    0.595756915052817249E+00    0.256067909560733256E+03    0.282073330901952022E+04   -0.568877410899948810E+01    0.804707876944813494E+00   -0.167184320193735658E+01    0.235994476169453238E+00    0.886051255661186254E+00   -0.371556277848249794E+00
   -0.826333185416280713E+01   -0.272737275958444547E+01    0.237523648971780034E+03    0.323411416450722390E+04   -0.415892612879150558E+01    0.828483296812333903E+00   -0.122220370000700207E+01   -0.348060021284200216E+00    0.138426430886744423E+01   -0.371473245887891435E+00
   -0.364212378066285680E+01    0.830658842708223766E+00    0.656394451718301525E+03    0.124707277327718657E+04    0.677301370838764072E+00   -0.554123908071057381E+00    0.182026887875874621E-02    0.186122156031365638E+01    0.100670531397153584E+01   -0.351210974748035032E+00
   -0.364212378066285680E+01    0.830658842708223766E+00    0.656394451718301525E+03    0.124707277327718657E+04    0.677301370838764072E+00   -0.554123908071057381E+00    0.182026887875874621E-02    0.186122156031365638E+01    0.100670531397153584E+01   -0.351210974748035032E+00
   -0.880080713881911159E+01   -0.406030335843162238E+01    0.224709009554175680E+03    0.298990708422767784E+04   -0.499249656878567194E+01    0.724024761311112819E-01   -0.133209784185314817E+01    0.354374682394876128E+00    0.913010743679265602E+00   -0.349890742432259649E+00
   -0.827972242698932526E+01    0.480457601667625411E-01    0.517512537234538058E+03    0.201074459609490032E+04    0.270431667205654946E+01   -0.393615345230902358E+00   -0.122529822858739568E+01    0.230673129572685198E+01    0.600709650600027012E+00   -0.345294140437947483E+00
   -0.827972242698932526E+01    0.480457601667625411E-01    0.517512537234538058E+03    0.201074459609490032E+04    0.270431667205654946E+01   -0.393615345230902358E+00   -0.122529822858739568E+01    0.230673129572685198E+01    0.600709650600027012E+00   -0.345294140437947483E+00
   -0.671789385105127135E+01   -0.478151920419803034E+01    0.479114133033308462E+03    0.294867183889503576E+04   -0.501878681477944433E+01    0.509842800530644569E+00   -0.110618604483342731E+01   -0.159212459190665845E+00    0.542283136776230745E+00   -0.343738571338419341E+00
   -0.931740645684787872E+01   -0.906767258934765508E+00    0.725680565298115425E+03    0.322928246260818287E+04   -0.259404470398395581E+01   -0.779885075183895937E-01   -0.103705832234222317E+01    0.335691032207777296E+00    0.122774149551656775E+01   -0.334261011525529117E+00
   -0.556426662113909920E+01    0.514897577091041825E+01    0.535086347471203567E+03    0.299331457183486327E+04   -0.428308676967781565E+01    0.104820172974073422E+00   -0.250855475237888115E+01    0.554350644216027089E+00    0.952645057908892867E+00   -0.328013097755000926E+00
   -0.841612687119738112E+01    0.461982117125347358E+01    0.132262789730599707E+03    0.148462499370302658E+04   -0.493106812067673417E+01   -0.424069386017117411E+00   -0.275066207991351508E+00    0.103925796258936298E+01    0.122826980995207213E+01   -0.327232263438667681E+00
   -0.734130042032548857E+01   -0.165305428809247701E+00    0.408174960473429508E+03    0.317400518739650488E+04   -0.359637620968674732E+01    0.830220773172247073E+00   -0.890183761788214234E+00    0.420014965061512813E+00    0.231694061819568503E+00   -0.325052307756601100E+00
   -0.734130042032548857E+01   -0.165305428809247701E+00    0.408174960473429508E+03    0.317400518739650488E+04   -0.359637620968674732E+01    0.830220773172247073E+00   -0.890183761788214234E+00    0.420014965061512813E+00    0.231694061819568503E+00   -0.325052307756601100E+00
   -0.747475238184312740E+01   -0.276084520776140696E+01    0.647026105893894851E+03    0.252886563414064312E+04    0.152224020579953567E+01   -0.308304526885353036E+00   -0.734545975853742483E+00    0.170903000228200419E+01    0.416372914515258929E+00   -0.308597812456766818E+00
   -0.789085651817800482E+01    0.296533841983368518E-01    0.300005757053105526E+03    0.310714970025482762E+04   -0.938204424749825350E+00    0.179278470919095767E+00   -0.141916498587052731E+01   -0.573258516879883384E+00    0.179399731258323591E+00   -0.306260082255315813E+00
   -0.498697195233273582E+01   -0.301987608746640479E+01    0.916703179450593097E+03    0.288831803766056601E+04   -0.631357337414473285E+01    0.689907261676969252E+00   -0.734371292081760885E+00    0.866045903851707877E+00    0.156509757654341247E+00   -0.293697075651149109E+00
   -0.793979287147521973E+01    0.202599406242370605E+01    0.426256060600280762E+02    0.210488563776016235E+04   -0.739781731367111206E+01    0.914992094039916992E+00   -0.315473252534866333E+01   -0.107084602117538452E+01    0.658760464191436745E+00   -0.291252507065253463E+00
   -0.658743855364859776E+01   -0.389758676924525549E+01    0.599723233847993924E+03    0.256659804726433686E+04   -0.264068460324278220E+01   -0.320029413502500137E+00    0.756321713532565276E+00    0.809852230644769744E+00    0.198862507576768405E+00   -0.278525560205661105E+00
   -0.658743855364859776E+01   -0.389758676924525549E+01    0.599723233847993924E+03    0.256659804726433686E+04   -0.264068460324278220E+01   -0.320029413502500137E+00    0.756321713532565276E+00    0.809852230644769744E+00    0.198862507576768405E+00   -0.278525560205661105E+00
   -0.850250363349914551E+01    0.494238424301147461E+01    0.560240209102630615E+03    0.301075121760368347E+04   -0.871953392028808594E+01   -0.105205774307250977E+00   -0.157139414548873901E+01   -0.141888436675071716E+01    0.158512375354766855E+01   -0.278079698754924720E+00
   -0.556574833589226969E+01   -0.501331831382979765E+00    0.136365409773567933E+03    0.241477574539081070E+04   -0.219594977497760890E+01   -0.730381119407529145E+00   -0.342761659511850603E+01   -0.165376625479077166E+00    0.107960390233719594E+01   -0.276411791582841126E+00
   -0.556574833589226969E+01   -0.501331831382979765E+00    0.136365409773567933E+03    0.241477574539081070E+04   -0.219594977497760890E+01   -0.730381119407529145E+00   -0.342761659511850603E+01   -0.165376625479077166E+00    0.107960390233719594E+01   -0.276411791582841126E+00
   -0.898311146109458925E+01   -0.599976791089651940E+01    0.323566338014024041E+03    0.309530585726383788E+04   -0.292991830441404488E+01   -0.346410545105281464E+00   -0.231186722038744108E+01    0.714002916986013592E+00    0.717842822956010207E+00   -0.268143186710154136E+00
   -0.836924582378910209E+01   -0.221833109960079078E+01    0.873634720220729378E+03    0.329332252722745625E+04   -0.669505772928152609E+01   -0.132998410046766158E+00   -0.909071586350643557E+00    0.264369248766118892E+00    0.698789977944618057E+00   -0.256850531192111209E+00
   -0.836924582378910209E+01   -0.221833109960079078E+01    0.873634720220729378E+03    0.329332252722745625E+04   -0.669505772928152609E+01   -0.132998410046766158E+00   -0.909071586350643557E+00    0.264369248766118892E+00    0.698789977944618057E+00   -0.256850531192111209E+00
   -0.995349226533316056E+01   -0.464001789414979537E+01    0.647333486822243685E+03    0.333086363501407914E+04   -0.204665428070949673E+00    0.852082692971038336E+00   -0.150743904488348424E+01   -0.147633273584608560E+01    0.714436992760095979E+00   -0.249321994796790403E+00
   -0.334578926642729968E+01    0.253950801063928999E+01    0.321971623415798945E+03    0.310276561032717245E+04   -0.454822368068991523E+01    0.634446469737740770E+00   -0.638792471334078904E+00    0.178343571520033262E+01    0.184371544018637479E+00   -0.231152245613556878E+00
   -0.819165065330441067E+01   -0.551442871593501049E+01    0.705235481942724618E+03    0.329355348999273019E+04   -0.787851285665828804E+01    0.144831050081398960E+00   -0.135451750160624940E+01    0.106660949618017709E+01    0.708990738229483664E+00   -0.227326761512119946E+00
   -0.716266108587916506E+01   -0.287231921242192723E+01    0.118315435260859047E+03    0.309279505983217587E+04    0.164383719645346282E+01   -0.353523767594069449E-01   -0.284265181340317685E+01    0.135218246787809804E+01    0.108009603339520299E+01   -0.210910783210296604E+00
   -0.716266108587916506E+01   -0.287231921242192723E+01    0.118315435260859047E+03    0.309279505983217587E+04    0.164383719645346282E+01   -0.353523767594069449E-01   -0.284265181340317685E+01    0.135218246787809804E+01    0.108009603339520299E+01   -0.210910783210296604E+00
   -0.844581194214610775E+01   -0.824912152917727681E+00    0.485557879875218987E+03    0.245554855523888000E+04   -0.603066219393729952E+00   -0.207641482578480030E+00   -0.381611307459866511E+01    0.909656111090836106E+00    0.713915433837860047E+00   -0.206821883933030332E+00
   -0.846045119760863429E+01   -0.201509996508119826E+01    0.396712907264490525E+03    0.322761468746667970E+04   -0.432619729960520782E+01    0.670547308517902563E+00   -0.184461179843463885E+01    0.125082876045705138E+01    0.536378962477215948E+00   -0.206296958201314717E+00
   -0.846045119760863429E+01   -0.201509996508119826E+01    0.396712907264490525E+03    0.322761468746667970E+04   -0.432619729960520782E+01    0.670547308517902563E+00   -0.184461179843463885E+01    0.125082876045705138E+01    0.536378962477215948E+00   -0.206296958201314717E+00
   -0.418915674895313561E+01   -0.148514134598842862E+01    0.768527618540818821E+03    0.206624937886420230E+04   -0.346318883168013514E+00   -0.467953402871778334E+00   -0.398818539575115505E+01    0.133498586962850352E+01    0.348821310545222807E+00   -0.197440653197753141E+00
   -0.968870818614959717E+01    0.100357961654663086E+01    0.508681893348693848E+03    0.127640238404273987E+04    0.399260705709457397E+01   -0.349629163742065430E+00   -0.270672434568405151E+01    0.182785508036613464E+01    0.529563730955123879E+00   -0.191208865687948093E+00
   -0.423416406021711733E+01    0.117991978325444524E+01    0.997680937429836149E+03    0.206121766634843516E+04   -0.351932790320840461E+01   -0.722007435023447330E+00   -0.362400271986850431E+00    0.971673475451617641E+00    0.179878708645720115E+00   -0.180359910657230921E+00
   -0.489266879521796128E+01    0.122004939808351942E+01    0.911390362033489168E+03    0.228527204165398325E+04   -0.189386069374638755E+01   -0.957267792464173706E+00   -0.125695889842720376E+01    0.321050335035702572E+00    0.597971380632617122E+00   -0.178827208708481289E+00
   -0.489266879521796128E+01    0.122004939808351942E+01    0.911390362033489168E+03    0.228527204165398325E+04   -0.189386069374638755E+01   -0.957267792464173706E+00   -0.125695889842720376E+01    0.321050335035702572E+00    0.597971380632617122E+00   -0.178827208708481289E+00
   -0.401701958125586600E+01   -0.550043476271947096E+01    0.619419052043869101E+03    0.286551554527722647E+04   -0.783169893925390337E+01   -0.644486570199032771E+00   -0.649537964941054202E+00    0.260817668936227420E+01    0.681630152598793781E+00   -0.171452876527117437E+00
   -0.270050088736062310E+01   -0.195297094430907592E+00    0.638689336441156684E+03    0.184586773802183052E+04   -0.397469533583379331E+00   -0.491014800254537698E+00   -0.286996393583189047E+01    0.211684229488757847E+01    0.452233318568990184E+00   -0.170625278962571403E+00
   -0.409420900491584838E+01    0.334462195700059972E+00    0.787016893625433909E+03    0.245185717789610726E+04   -0.719884107680742158E+01   -0.508402512789477901E+00   -0.189482121523437952E+01    0.184751492323440702E+01    0.859045304734044946E+00   -0.166120037105376206E+00
   -0.523524582386016846E+01    0.420928287506103516E+01    0.407048761844635010E+03    0.327588385343551636E+04   -0.691780918836593628E+01   -0.753130674362182617E+00   -0.224001550674438477E+01   -0.229565799236297607E-01    0.833016163110733010E+00   -0.160797779951495245E+00
   -0.612759744235985515E+01   -0.352809069756234273E+00    0.694886928269321629E+03    0.301743322199881095E+04   -0.728414762232833546E+01   -0.532273242573211958E+00   -0.297974164109228390E+01    0.171685371805087028E+01    0.828618698397295184E+00   -0.158377552783438430E+00
   -0.524499451627811109E+01    0.514403315276102724E+01    0.636946094485266485E+03    0.295291981573710109E+04   -0.436841391686244496E+01    0.384496727578196751E+00   -0.994010653586777870E+00   -0.284917528090957717E-01    0.130824974865372679E+01   -0.155382956679873951E+00
   -0.801426297360295159E+01   -0.365617396335845868E+01    0.645787151289130520E+03    0.316858808140981637E+04    0.949635352240743913E+00    0.344752335064422155E-01   -0.137038279624121184E+01    0.142541487270482259E+01    0.303986392930480021E+00   -0.150231585854889632E+00
   -0.447201884139968087E+01    0.527471211075056168E+01    0.998916331377621191E+03    0.209656210142218106E+04   -0.717159424914485477E+01   -0.498722128683217747E+00   -0.760333580898354011E+00    0.103880827962882405E+01    0.102054465666448135E+01   -0.146320158427350022E+00
   -0.483780141338254399E+01    0.359101857568259497E+01    0.184593828043874538E+03    0.326926882573770126E+04   -0.221655760969024218E+01   -0.508339190756710302E-01   -0.209898284021368298E+01    0.786418069942606213E+00    0.104235115367738462E+01   -0.146319369524947951E+00
   -0.481324110574675501E+00    0.535195933196390783E+01    0.317019167157705681E+03    0.268376208292237152E+04   -0.821607295215672906E+01    0.501720346515731608E+00    0.277866845045921629E+00    0.118224225527354099E+01    0.349032413668206476E+00   -0.138668108444653521E+00
   -0.569614974262015039E+01   -0.245722272021713373E+01    0.985089149904203367E+02    0.141113696541771037E+04    0.402917681699737784E+01    0.360663933297726835E-01   -0.106002085096949017E+01   -0.649487218216158735E+00    0.944847116544527021E+00   -0.136698835169093785E+00
   -0.189873818977507014E+01    0.133917125186397801E+01    0.880534782913689185E+02    0.324030907221965253E+04   -0.578860190189306412E+01    0.640435808820833063E+00   -0.169016479628588989E+01    0.503708881862262370E+00    0.504309457739976930E+00   -0.132254134530897072E+00
   -0.959044396877288818E+01   -0.590000081062316895E+01    0.691560506820678711E+02    0.306362113356590271E+04    0.514266228675842285E+01   -0.308513641357421875E-03   -0.223004812002182007E+01   -0.115830561518669128E+01    0.688185995817184426E+00   -0.131359872540369627E+00
   -0.774891512679393202E+01   -0.667465553478725937E+00    0.208587135014863151E+03    0.292592343334863881E+04   -0.713044161098810392E+01    0.689302506153399497E+00   -0.378047680466178981E+00   -0.781595561881777146E+00    0.256589846536147803E+00   -0.131309818952986157E+00
   -0.716794215012298963E+01    0.356446573397897204E+01    0.224787903829948959E+03    0.244005616487528096E+04   -0.438813028936648308E+01    0.436940943814874805E+00   -0.200127295126707860E+01   -0.864552393064035307E-01    0.207266943872654152E+00   -0.130368429358320215E+00
   -0.235399186611175537E+01    0.523504400253295898E+01    0.177509188652038574E+03    0.272700047492980957E+04   -0.502297425270080566E+01   -0.399931669235229492E+00    0.893579185009002686E+00   -0.134407192468643188E+01    0.257468914985656716E+00   -0.129471300934924705E+00
   -0.513178191101070880E+00    0.462782857109942114E+01    0.647067723473276146E+02    0.307131009496342722E+04   -0.595693854643575094E+01    0.804735638568165879E-01    0.157422763699184287E-01    0.102356552998183004E+01    0.669574987209345052E+00   -0.128038068059952076E+00
   -0.750582874554622492E+01   -0.289451701287118368E+01    0.901031507046710772E+03    0.326046037156701232E+04   -0.884058525906545789E+01    0.812225638582049436E+00    0.635343678491902430E+00    0.468159412342071590E+00    0.446828317263994745E+00   -0.127832738610189622E+00
   -0.866364798353087373E+01   -0.576169269581949539E+01    0.465801000914648739E+03    0.320748316763091680E+04   -0.403552793599532666E+01   -0.677398229972224764E-01   -0.168076478383326755E+01   -0.721032066347995215E-01    0.124216828646539001E+01   -0.457361757230355728E-01
   -0.679978191852569580E+01   -0.312283229827880859E+01    0.668230712413787842E+03    0.170521026849746704E+04   -0.773438447713851929E+01    0.134853959083557129E+00   -0.333239966630935669E+01   -0.147468665242195129E+01    0.146976730823516855E+01   -0.221265899715399166E-01
   -0.654558385681035571E+01   -0.524622974209485449E-01    0.230607481312474960E+03    0.267689097004856012E+04   -0.509751169101192581E+01   -0.199290556702358179E+00    0.845464835930483716E+00   -0.136851813369198672E+01    0.147128743358830105E+01   -0.561474497371458972E-03
   -0.528366047924491156E+01    0.247538853975743933E-01    0.553033074246535421E+03    0.271976096458834127E+04   -0.642764427815927508E+01    0.266635551630301837E+00   -0.619177360807217525E+00   -0.305706946881979968E+00    0.113133845506786201E+01   -0.435847948903136176E-01
   -0.744649350643157959E+01    0.246832466125488281E+01    0.482152760028839111E+03    0.318539223074913025E+04   -0.767346972227096558E+01   -0.238579988479614258E+00   -0.269406676292419434E+00   -0.132573473453521729E+01    0.132660583257675180E+01   -0.630851468896215760E-02
   -0.991979528828809443E+01   -0.206804736004067014E+01    0.593877237903489231E+03    0.312548768768773562E+04   -0.582260082829114367E+01    0.306441401234709421E-01    0.585642088703970387E+00    0.453504292835165135E+00    0.126751567290694567E+01   -0.233633158642540355E-01
   -0.749360316278155825E+01   -0.429944052928530152E+01    0.109613050369012761E+02    0.254568523186171433E+04   -0.841383845713107092E+00   -0.884120375241975065E+00   -0.283719497538086696E+01   -0.905647640410344845E+00    0.127171585836790801E+01   -0.463067082764208066E-02
   -0.749360316278155825E+01   -0.429944052928530152E+01    0.109613050369012761E+02    0.254568523186171433E+04   -0.841383845713107092E+00   -0.884120375241975065E+00   -0.283719497538086696E+01   -0.905647640410344845E+00    0.127171585836790801E+01   -0.463067082764208066E-02
   -0.494976143964832893E+01    0.453160415824385154E-01    0.288941227466808357E+03    0.192343466365482800E+04   -0.511877398456009658E+00   -0.430519859335498412E+00   -0.970464611861467930E+00    0.201053003517133533E+01    0.831226038269340495E+00   -0.724300747323114030E-01
   -0.757604897022247314E+01    0.218975543975830078E-01    0.892402589321136475E+03    0.261755725741386414E+04    0.396124488115310669E+01   -0.435955524444580078E-01    0.594827592372894287E+00    0.107670271396636963E+01    0.253198301792144753E+00   -0.245448460566801245E-01
   -0.428878188133239746E+01   -0.426311874389648438E+01    0.496840238571166992E+03    0.199204942584037781E+04    0.469292914867401123E+01   -0.523904204368591309E+00   -0.327294850349426270E+01    0.247614687681198120E+01    0.409943467378616311E+00   -0.200062261931823540E-01
   -0.785205112043495213E+01   -0.207547352438288613E+01    0.768548615698485150E+03    0.157584265000630330E+04    0.297674811528173500E+01   -0.933418932184271632E+00   -0.199818290653238817E+01    0.919612608698905376E+00    0.472875401841351017E+00   -0.792233712413954877E-01
   -0.469744582708623071E+01   -0.335217288677892666E+01    0.191573451491077634E+03    0.176861587827136827E+04    0.293530341215287649E+00   -0.727457121835182408E+00   -0.239428151540961931E+01    0.218614929998649377E+01    0.729380953757108763E+00   -0.916778068185536005E-01
   -0.431572079658508301E+01   -0.889752388000488281E+00    0.852884650230407715E+02    0.113182789087295532E+04    0.343887394666671753E+01   -0.702518582344055176E+00    0.881171822547912598E-01    0.660496830940246582E+00    0.146066353321075448E+01   -0.121875874589176886E-03
   -0.431572079658508301E+01   -0.889752388000488281E+00    0.852884650230407715E+02    0.113182789087295532E+04    0.343887394666671753E+01   -0.702518582344055176E+00    0.881171822547912598E-01    0.660496830940246582E+00    0.146066353321075448E+01   -0.121875874589176886E-03
   -0.837250630448909661E+01   -0.569363763059014882E+01    0.142308737414377390E+03    0.312132520941371513E+04   -0.661967174056559493E+01    0.512974968432760470E+00   -0.236945981835461872E+01   -0.229419379614839158E-01    0.102798923233403094E+01   -0.411294813718448074E-02
   -0.887805891066833119E+01   -0.495938776554129213E+01    0.437208973559535821E+03    0.321389777921672749E+04   -0.218404882973134207E+00   -0.703291631783931059E-02    0.198073805541816306E+00   -0.987194103063514072E+00    0.337249414497379885E+00   -0.427525663502517222E-01
   -0.939319056903429583E+01   -0.492908736469791986E+01    0.601330434824158488E+03    0.318527760045258538E+04   -0.379673080448290001E+01    0.728981032028076292E+00   -0.127177134508579037E+00   -0.139178113839187412E+01    0.661397487721059441E+00   -0.656802919272253885E-02
   -0.853281140327453613E+01    0.528699874877929688E+00    0.645623803138732910E+02    0.231428644061088562E+04   -0.204915279150009155E+01    0.504909157752990723E+00   -0.963115036487579346E+00   -0.506109327077865601E+00    0.108510393500328073E+01   -0.257844716280307279E-01
   -0.853281140327453613E+01    0.528699874877929688E+00    0.645623803138732910E+02    0.231428644061088562E+04   -0.204915279150009155E+01    0.504909157752990723E+00   -0.963115036487579346E+00   -0.506109327077865601E+00    0.108510393500328073E+01   -0.257844716280307279E-01
   -0.641708349081794793E+01   -0.117791740413475132E+01    0.196474230868176051E+03    0.267291216188422959E+04   -0.483576180825137047E+01    0.794681473799714544E+00   -0.720657448217911778E+00    0.538505949827840169E+00    0.951601784629291569E+00   -0.106791169448794174E+00
   -0.846998457668083304E+01   -0.174405853826901591E+01    0.313781423715774338E+03    0.316537577545658132E+04   -0.395629332946101364E+01    0.800384196478417298E+00   -0.594829560220416109E+00   -0.369099537995054128E+00    0.299342874597758102E+00   -0.241087937796807018E-01
   -0.819608447798806594E+01   -0.370198132645556921E+01    0.120919094985115464E+03    0.328540030257083117E+04   -0.127577885885733178E+01    0.472519071731539508E+00   -0.232228984160570562E+01   -0.964821770000157453E+00    0.719230563081610152E+00   -0.283159944497566492E-01
   -0.645008781835406442E+01   -0.386848197962946649E+01    0.262741786124075020E+03    0.287477647501094816E+04   -0.684944888934049700E+01    0.235188488920464955E+00   -0.134275157646674836E+01    0.147780999105707433E+01    0.133068939980202572E+01   -0.115912552244558462E-01
   -0.653867775607316126E+01   -0.466683022936790959E+01    0.418563790265688112E+03    0.321831678710173628E+04   -0.875911081173112116E+01    0.584935883662979661E+00   -0.164589974815652962E+01    0.234574322171746896E+01    0.943722458023920185E+00   -0.583359573866660264E-01
   -0.772098238188140762E+01   -0.579132489696287767E+01    0.630551561566775604E+03    0.321392536023101866E+04   -0.676831088286624905E+01   -0.721303496242030384E+00   -0.250541464163609895E+00    0.133610448368539281E+01    0.106755952992817127E+01   -0.634263079850469202E-01
   -0.728105811794937186E+01   -0.196480803145275207E+01    0.248833447145913141E+03    0.286812250077722683E+04   -0.338871369360410402E+01   -0.231229711197805665E+00   -0.665427572852298699E+00    0.216628409622709528E+01    0.661884579593108757E+00   -0.172081952485666698E-01
   -0.870063841342926025E+01   -0.556699919700622559E+01    0.246040880680084229E+03    0.326052388548851013E+04   -0.791889274120330811E+01    0.242946982383728027E+00   -0.183497810363769531E+01    0.169572946429252625E+01    0.699150508642196633E+00   -0.108519100852641381E+00
   -0.610970651877306103E+01   -0.581832863036271242E+01    0.343393379601158813E+03    0.312212972866639211E+04   -0.567527535347127099E+01   -0.340619680316386453E+00   -0.161804544668784533E+01    0.202738712286982281E+01    0.117698047375844023E+00   -0.338953038102804589E-02
   -0.933998682959246374E+01   -0.873739663257234511E+00    0.379178842121979699E+03    0.322598956044955867E+04   -0.341411130213456904E+01    0.107078205525033887E+00   -0.325563886158383164E+01    0.200974682477998545E+01    0.592802652725192947E+00   -0.324549802397515533E-01
   -0.933998682959246374E+01   -0.873739663257234511E+00    0.379178842121979699E+03    0.322598956044955867E+04   -0.341411130213456904E+01    0.107078205525033887E+00   -0.325563886158383164E+01    0.200974682477998545E+01    0.592802652725192947E+00   -0.324549802397515533E-01
   -0.670411202761860014E+01   -0.479774637005528071E+01    0.508282718372928798E+03    0.324821765747497420E+04   -0.543317905006085411E+01    0.299356863322393085E-01   -0.121543164071008558E+01    0.107209184456375350E+01    0.435904397429940360E+00   -0.790824942014443089E-01
   -0.696169126005848327E+01   -0.276236158699456169E+00    0.465250853064886371E+03    0.315238612110799795E+04   -0.437209400907368373E+01    0.661858465185089839E+00   -0.160706775740646046E+01    0.164133555120024299E+01    0.379896994527834209E+00   -0.110618854166223621E-01
   -0.697009568123180401E+01   -0.192946909952185575E+01    0.123975125625133003E+03    0.322682160692399793E+04   -0.560813495725617095E+01    0.179471988590316212E+00   -0.160012978285088536E+01    0.147213391868159515E+01    0.859552261660997408E+00   -0.445496556585056741E-01
   -0.631835474797468599E+01   -0.489162497738323321E+01    0.311082869545293931E+03    0.311401232779692191E+04   -0.857793593725361170E+01    0.171490478598139262E+00   -0.303292092062508667E+01    0.187038380456043551E+01    0.660340760526488046E+00   -0.456782086689098005E-01
   -0.935980399160210830E+01   -0.488516827936130937E+01    0.285224732349064311E+03    0.324256723852585810E+04   -0.517739304199904549E+01    0.764000275237799453E-01   -0.153370609279001879E+01   -0.103356095017572036E+00    0.263676470714023004E+00   -0.647329607453264039E-01
   -0.740859515657374601E+01   -0.586858526538697589E+01    0.614677140149128377E+03    0.317000838623422715E+04   -0.768213245108483367E+01   -0.681617845689210577E+00   -0.540598195345578958E+00    0.171572771626746245E+01    0.460401786831528881E+00   -0.179163914792795963E-03
   -0.957593221125946137E+01   -0.497834469014303593E+01    0.204746541390714242E+03    0.319559982338526879E+04   -0.719747730370747529E+01   -0.811272244859729819E-01   -0.391135391705108004E+01    0.243227529754844252E+01    0.686557210475514657E+00   -0.556470254226412026E-02
   -0.783275225241466089E+01   -0.373762172776623780E+01    0.989109794731789407E+03    0.289918647219845025E+04    0.166433028469636923E-01   -0.107744745821697130E+00   -0.153939781739857917E+01    0.205820795131113243E+01    0.291753635696106128E+00   -0.303994428859355389E-01
   -0.783275225241466089E+01   -0.373762172776623780E+01    0.989109794731789407E+03    0.289918647219845025E+04    0.166433028469636923E-01   -0.107744745821697130E+00   -0.153939781739857917E+01    0.205820795131113243E+01    0.291753635696106128E+00   -0.303994428859355389E-01
   -0.916335623919030695E+01   -0.490364915877363927E+01    0.749800949678153529E+03    0.324071883927219596E+04   -0.507192122608087814E+01   -0.507566866534591155E-01   -0.356512355107271839E+01    0.561858944224950640E+00    0.733625143872751795E+00   -0.687008831887731125E-01
   -0.854173681112003713E+01   -0.557494794345714251E+01    0.637422742090494808E+03    0.305231631610359545E+04   -0.408037279713636813E+01   -0.329907384804307591E+00   -0.392336848162949625E+01    0.754788190302894790E+00    0.615976573085603829E+00   -0.379992554178836817E-01
   -0.661289779003007894E+01   -0.375952664100116296E+01    0.544485780885247323E+03    0.314544222174096285E+04   -0.339046883373865793E+01   -0.288334490516013564E+00   -0.960419343193056996E+00   -0.997992152141533584E-01    0.518939553804200981E+00   -0.589185985087386163E-01
   -0.661289779003007894E+01   -0.375952664100116296E+01    0.544485780885247323E+03    0.314544222174096285E+04   -0.339046883373865793E+01   -0.288334490516013564E+00   -0.960419343193056996E+00   -0.997992152141533584E-01    0.518939553804200981E+00   -0.589185985087386163E-01
   -0.705578325045750709E+01   -0.303746472652743416E+01    0.514482833948228176E+03    0.281197790525864093E+04   -0.114966111784980196E+01   -0.146868629030884490E+00   -0.315279612100664952E+01    0.659058601478672124E+00    0.258192138198181431E+00   -0.610142094694912760E-03
   -0.783033456355251545E+01   -0.433175188645266562E+01    0.425939683994937070E+03    0.308369137546656157E+04   -0.841492305519607164E+01   -0.501927836068883915E-01   -0.272131260916524242E+01    0.948265801702771860E+00    0.106658596718407117E+01   -0.450389342300498083E-01
   -0.592710486367419787E+01   -0.479331835680879426E+01    0.727937746839815077E+03    0.327480174372573993E+04   -0.539647603732101722E+01    0.547581207939885850E+00   -0.121300748963036353E+01    0.930854627273324908E+00    0.288168297060715006E+00   -0.877919086385738762E-01
   -0.775811828880078913E+01   -0.521109439827147902E+01    0.545024711047786013E+03    0.311989040753451536E+04   -0.850394397637529487E+01   -0.156170200816290516E+00   -0.198406143467101170E+00    0.139128600939130376E+00    0.944274738537023151E+00   -0.540110584856509486E-04
   -0.775811828880078913E+01   -0.521109439827147902E+01    0.545024711047786013E+03    0.311989040753451536E+04   -0.850394397637529487E+01   -0.156170200816290516E+00   -0.198406143467101170E+00    0.139128600939130376E+00    0.944274738537023151E+00   -0.540110584856509486E-04
   -0.948142593154652680E+01   -0.547301604540907594E+01    0.840440774132155070E+03    0.324098258455290397E+04   -0.830593918897348615E+01    0.238178752445552089E+00   -0.777773954436165926E+00    0.195200468760421408E-01    0.137368557465627372E+01   -0.774870960082369581E-01
   -0.929329095054725585E+01   -0.188057228271074006E+01    0.722084971510278137E+03    0.307710542299114331E+04   -0.864392452888615637E+01    0.814743876136319045E-01   -0.114656854787380835E+01    0.839961955050275044E+00    0.110628950423140782E+01   -0.885211969308107305E-01
   -0.860593086554838038E+01   -0.506251051610425318E+01    0.833675405045739694E+03    0.306052051755031971E+04   -0.844427843013827228E+01    0.172647511080272320E+00   -0.228147737849383425E+01    0.325355847668630904E+00    0.153417878347594749E+01   -0.109924161182670191E+00
   -0.690581691816430610E+01   -0.321744185715015796E+01    0.617342455894144450E+03    0.306446184665055443E+04   -0.393809339931604718E+01   -0.354809746633047984E-01    0.181915482334634504E+00    0.134314740168580515E+01    0.865240610484873440E+00   -0.103748881800792184E+00
   -0.730526385664697742E+01   -0.415416366219551136E+01    0.883530667434161501E+03    0.326418816324670797E+04   -0.336115817458383681E+01    0.584597130838469203E+00   -0.120746634522012286E+00   -0.586736983888425878E+00    0.188911035293032437E+00   -0.421692052917228694E-01
   -0.918417413655363468E+01   -0.494698430360872532E+01    0.859761015586545113E+03    0.347480741922988727E+04   -0.312869582912054067E+01    0.317834801398324540E+00    0.743701405659983550E+00    0.657547867033577038E+00    0.563289933884266070E+00   -0.107274663502702969E-01
   -0.837866024416621613E+01   -0.496235812059116377E+01    0.822447899922978422E+03    0.314230597709251742E+04   -0.518085606982682556E+01    0.961024416447115115E+00   -0.588707936953415167E+00    0.599544749093209983E+00    0.914299025026277801E+00   -0.136060827918407894E-01
   -0.738253209974000058E+01   -0.335370355153527511E+01    0.399101479329162430E+03    0.314179976024250936E+04   -0.613137728759766887E+01    0.552778961291840787E+00    0.567106284982807018E+00    0.418200189047328807E+00    0.634929500474563757E+00   -0.143991757948901729E-01
   -0.850724093688173078E+01   -0.313959324737424428E+01    0.637223354348504586E+03    0.311434878517542620E+04   -0.852105715078378090E+01    0.226573063308363354E+00   -0.528324885942725864E+00    0.782839349184905942E+00    0.480015505774212370E+00   -0.438254653684529774E-01
   -0.865241852822174273E+01   -0.380657967788229268E+01    0.699171040418558960E+03    0.318841190042254675E+04   -0.472101780568167850E+01    0.854729649793711799E+00   -0.195518106132568903E+01   -0.885795433298264268E-01    0.690370541462829723E+00   -0.115628793231233544E-03
   -0.871227091758001926E+01   -0.414774375913401627E+01    0.584210257996860719E+03    0.308737216221706194E+04   -0.639139307156444936E+01   -0.813438001442415848E-01    0.519449618551655945E+00    0.151574939213152149E+01    0.930204138103763012E+00   -0.900153644057410940E-01
   -0.866530670893510724E+01   -0.390891851510222832E+01    0.956350532263840364E+03    0.317820787634597127E+04   -0.326264400720308245E+01   -0.362901606492460282E+00   -0.106483026605631803E+00    0.100029978681620957E+01    0.914021507309205505E+00   -0.105676600599844878E+00
   -0.827846030087723150E+01   -0.164681406473851144E+01    0.589321100016484934E+03    0.309687222171865233E+04   -0.718124804592204491E+01    0.881236785316389160E+00    0.917174457053358871E+00    0.876757947780927527E+00    0.362058569554451593E+00   -0.503845736613087458E-01
   -0.827846030087723150E+01   -0.164681406473851144E+01    0.589321100016484934E+03    0.309687222171865233E+04   -0.718124804592204491E+01    0.881236785316389160E+00    0.917174457053358871E+00    0.876757947780927527E+00    0.362058569554451593E+00   -0.503845736613087458E-01
   -0.971291275820924760E+01   -0.348693898403380720E+01    0.834743538980431367E+03    0.308824083289918417E+04   -0.551990973109657368E+01    0.777101463963648653E+00   -0.128112246469621116E+01    0.518143743767263132E+00    0.506890219051481905E+00   -0.121624094308431269E+00
   -0.598768118294213192E+01   -0.499633991337541872E+01    0.937737011180411628E+03    0.306800946383810151E+04   -0.364748613820128131E+01   -0.746562189736533766E-01   -0.200019842677093118E+01    0.397654466028998232E+00    0.472162772759879945E+00   -0.161206958029810714E-01
   -0.919664769554520944E+01   -0.131093530502846178E+01    0.791583096183181397E+03    0.305435957554566403E+04   -0.579611847581628670E+01   -0.192425011325936257E-01    0.550457660633483670E+00    0.931534364181391794E+00    0.703476754895076550E+00   -0.878059462994875972E-01
   -0.268603380587334151E+01    0.369869141738361051E+01    0.377460321881128607E+03    0.310120589530243114E+04   -0.385274532239583678E+01   -0.245950041207802728E+00   -0.507294729949204104E+00    0.236384213791066555E+00    0.765435517931368659E+00   -0.919834646232406232E-02
   -0.412010312080383301E+01    0.461510109901428223E+01    0.236797809600830078E+03    0.294608047604560852E+04   -0.107931160926818848E+01   -0.454967021942138672E+00   -0.284198760986328125E+00    0.117614427208900452E+01    0.133416662216186532E+01   -0.825666506542682352E-02
   -0.323350260453339722E+01    0.167623411517133469E+01    0.217818042923493181E+03    0.319775185332370847E+04   -0.490795764233695930E+01    0.419776772339094606E+00   -0.148415689169133369E+01    0.897315175706305368E+00    0.256407265061073253E+00   -0.269833051686757946E-01
   -0.244700833549460839E+01    0.320701972201706198E+01    0.481767740148598591E+03    0.294543339231393747E+04   -0.635538459609885109E+01    0.856007099863361320E+00    0.630461849009519071E+00    0.109122592564086007E+01    0.911939702329982338E+00   -0.136675656145032764E-02
   -0.254473893316290045E+01    0.238475145695057655E+01    0.942162093073501836E+02    0.320890830788706671E+04   -0.744210608949802310E+01    0.615775423375138020E+00   -0.760809758151387516E+00    0.170377009248144118E+01    0.110912292892885178E+01   -0.204210744302036444E-01
   -0.525394797325134277E+01    0.442081475257873535E+01    0.265844285488128662E+03    0.310507705807685852E+04   -0.563106501102447510E+01    0.781202316284179688E-01    0.586639404296875000E+00    0.358170032501220703E+00    0.650375252962112405E+00   -0.597226429925667782E-01
   -0.322093002195042022E+01    0.487154775036144727E+01    0.140310704135581460E+03    0.331850794838260072E+04   -0.484690463526262505E+01    0.898920090720465970E+00   -0.552093974570309953E+00    0.171714394500820156E+01    0.427954620461184376E+00   -0.188415146901798197E-01
   -0.186213552951812744E+01    0.199503493309020996E+01    0.629279017448425293E+02    0.333523696660995483E+04    0.546802139282226562E+01    0.737707614898681641E-01   -0.919219791889190674E+00   -0.892435401678085327E+00    0.636505728960037209E+00   -0.580871611317637995E-01
   -0.354391251935984641E+01    0.123988387262713751E+01    0.587207542094389169E+03    0.300381067166053163E+04   -0.758636468983333856E+01    0.983769731108096623E+00   -0.623223171282456967E+00    0.786170964563279284E+00    0.248658917076693381E+00   -0.402586073814099193E-02
   -0.354391251935984641E+01    0.123988387262713751E+01    0.587207542094389169E+03    0.300381067166053163E+04   -0.758636468983333856E+01    0.983769731108096623E+00   -0.623223171282456967E+00    0.786170964563279284E+00    0.248658917076693381E+00   -0.402586073814099193E-02
   -0.438205617824032245E+01    0.348323806783536050E+01    0.529130765437897480E+03    0.191047498652965351E+04   -0.288282303026379783E+01   -0.464831089271094955E-01   -0.226226988940339568E+01   -0.119615140803937603E+01    0.751409696851876308E+00   -0.179610224070267006E-01
   -0.742711103638343939E+01    0.344956254616584879E+01    0.750932729149402121E+03    0.256256337327762913E+04   -0.249549975705467908E+01   -0.436301776337305602E-01   -0.128695079176316485E+01   -0.198298078175981995E+00    0.622287081012675158E+00   -0.425014042514319443E-02
   -0.340052480479944830E+01    0.480935074267388885E+01    0.470223597416406392E+03    0.302551063937355229E+04   -0.192062544750925834E+01   -0.123440028699913773E-01   -0.160248344618082950E+01   -0.186812374427869354E+00    0.444334718360781422E+00   -0.787175580855707796E-01
   -0.704371809959411621E+01    0.442044281959533691E+01    0.753082752227783203E+03    0.311938604712486267E+04   -0.348599517345428467E+01    0.732018351554870605E+00   -0.145743632316589355E+01   -0.785689651966094971E-01    0.110922048091888437E+01   -0.310614624693854591E-01
   -0.704371809959411621E+01    0.442044281959533691E+01    0.753082752227783203E+03    0.311938604712486267E+04   -0.348599517345428467E+01    0.732018351554870605E+00   -0.145743632316589355E+01   -0.785689651966094971E-01    0.110922048091888437E+01   -0.310614624693854591E-01
   -0.764996520261087998E+01    0.167955613758967104E+01    0.663604620292921254E+03    0.243652174790442132E+04   -0.589076965587541324E+01    0.234434770720783892E+00   -0.227415755981937995E+01   -0.144278224289257673E+01    0.188682931628324613E+00   -0.190069427992787428E-01
   -0.717291832147600594E+01    0.498865976474150052E+01    0.135356434512761666E+03    0.312645087822178539E+04   -0.522700425933292578E+01    0.123163144142669934E+00   -0.308276044729114052E+01   -0.866536505439041815E+00    0.850502974993649574E+00   -0.302108169536034997E-01
   -0.717291832147600594E+01    0.498865976474150052E+01    0.135356434512761666E+03    0.312645087822178539E+04   -0.522700425933292578E+01    0.123163144142669934E+00   -0.308276044729114052E+01   -0.866536505439041815E+00    0.850502974993649574E+00   -0.302108169536034997E-01
   -0.437770647532516755E+01    0.917690034473528371E+00    0.477083582431522473E+03    0.174575885861300731E+04   -0.437449822973529567E+01    0.173463007587543849E+00   -0.140851294466449550E+01   -0.981651282631454847E+00    0.136620183442717336E+01   -0.259873270793680652E-01
   -0.902134180068969727E+00    0.560456657409667969E+01    0.552956283092498779E+03    0.114437660574913025E+04   -0.613778972625732422E+01    0.550489425659179688E+00   -0.199609482288360596E+01    0.285415032505989075E+01    0.264717763662338235E+00   -0.146068031344277968E-01
   -0.714552819728851318E+01    0.501208806037902832E+01    0.875261664390563965E+03    0.108039876818656921E+04   -0.848626488447189331E+01    0.615228891372680664E+00   -0.969222128391265869E+00    0.147092306613922119E+01    0.242123371362686163E+00   -0.930185878241006651E-03
   -0.714552819728851318E+01    0.501208806037902832E+01    0.875261664390563965E+03    0.108039876818656921E+04   -0.848626488447189331E+01    0.615228891372680664E+00   -0.969222128391265869E+00    0.147092306613922119E+01    0.242123371362686163E+00   -0.930185878241006651E-03
   -0.633073902413615031E+01    0.449017311307388667E+01    0.653024652879355131E+03    0.172228893382684760E+04   -0.122770271508604711E+01   -0.321745494670405252E+00   -0.358948509029417462E+01    0.189776004203634319E+01    0.797558162198650389E+00   -0.148176774902623702E-01
   -0.816524701395583641E+01    0.149560078082796721E+01    0.405524624260107998E+03    0.283612641831237488E+04   -0.373165688005640206E+00    0.524862342047949682E+00   -0.310901283532327399E+01    0.238247397453139698E+01    0.449080277478692280E+00   -0.417904004087383887E-01
   -0.847336762190417403E+01    0.148918125108375854E+01    0.671694048123949074E+03    0.128740537969760885E+04    0.204868511631730144E+01   -0.602943862589089274E-01   -0.391515124760592093E+01    0.212723004264536542E+01    0.521674088897979726E+00   -0.224058941229999253E-01
   -0.185774490911499512E+01   -0.675217967593448876E+00    0.556367287899129110E+03    0.173834723771346853E+04    0.805565640743223454E+00   -0.204825217177208363E+00   -0.339872833238783123E+01    0.252820683065891583E+01    0.418922734518997197E+00   -0.120036610994222928E+00
   -0.540894160029555771E+01    0.328452296468785043E+01    0.768294810302237806E+03    0.212999407213026507E+04   -0.358029603415079833E+00    0.581040963324421789E-01   -0.355172912302280741E+01    0.258810452921389800E+01    0.516122248860461652E+00   -0.463714785700393498E-01
   -0.564218426576914034E+01    0.415994902728036919E+01    0.737783667988046432E+03    0.193239090986250881E+04   -0.659007556919942061E+00   -0.418524753177406672E+00   -0.383760478760012314E+01    0.201154864217262608E+01    0.671409147203112733E+00   -0.549238411262619776E-02
   -0.736529839769629913E+01    0.103170084084861813E+01    0.662087718191605063E+03    0.170971346225739603E+04   -0.560883831247476117E+01   -0.475181101419974716E+00   -0.312151919841013559E+01    0.244389551722121823E+01    0.287115665445610457E+00   -0.470438510300362767E-01
   -0.736529839769629913E+01    0.103170084084861813E+01    0.662087718191605063E+03    0.170971346225739603E+04   -0.560883831247476117E+01   -0.475181101419974716E+00   -0.312151919841013559E+01    0.244389551722121823E+01    0.287115665445610457E+00   -0.470438510300362767E-01
   -0.403638002199587298E+01    0.293304088366002347E+01    0.429931201293526556E+03    0.258518649766620365E+04   -0.146259255820814893E+01   -0.231304065971562167E+00   -0.258396505929551656E+01    0.151778965100521157E+01    0.567278316233626345E+00   -0.367131318308663770E-02
   -0.119667090511356200E+01    0.132478456801544908E+01    0.717324775315573902E+03    0.189160191909744935E+04   -0.257246141418956054E+01    0.319199234280568733E+00   -0.267596342094229644E+01    0.189156248712968011E+01    0.471517230724009306E+00   -0.298956130626917122E-03
   -0.800718838947369882E+01    0.116468321811811393E+01    0.510506637350031099E+03    0.145453630810998675E+04   -0.368971254329262344E+01   -0.285658390382788396E+00   -0.296989202505717920E+01    0.189684602319824380E+01    0.440045002415449860E+00   -0.190198526566628737E-01
   -0.800718838947369882E+01    0.116468321811811393E+01    0.510506637350031099E+03    0.145453630810998675E+04   -0.368971254329262344E+01   -0.285658390382788396E+00   -0.296989202505717920E+01    0.189684602319824380E+01    0.440045002415449860E+00   -0.190198526566628737E-01
   -0.582254469252953388E+01   -0.142862854312743703E+01    0.398905073498955744E+03    0.195091819065532854E+04   -0.616133458807591339E+01    0.436538659095107917E+00   -0.346003291222764409E+01    0.493689753032553025E+00    0.148156558636941371E+01   -0.908951195473034212E-01
   -0.524465972973185313E+01   -0.225976316059096360E+01    0.667535736863050602E+03    0.294567810378065315E+04   -0.805668629428717331E+01   -0.524658025292778163E+00   -0.363059460811746915E+01    0.471396670427586706E+00    0.603061743169666986E+00   -0.127304344916047751E+00
   -0.573042997907243024E+01    0.119407814004325097E+00    0.679302083263360714E+03    0.263867985951612809E+04   -0.233258168678834465E+01   -0.290860591733823615E-01   -0.373158667369721009E+01    0.118717611215411667E+01    0.717455010355155021E+00   -0.845278589377853329E-01
   -0.573042997907243024E+01    0.119407814004325097E+00    0.679302083263360714E+03    0.263867985951612809E+04   -0.233258168678834465E+01   -0.290860591733823615E-01   -0.373158667369721009E+01    0.118717611215411667E+01    0.717455010355155021E+00   -0.845278589377853329E-01
   -0.512441411178590300E+01   -0.119245177988142537E+01    0.842119759915862687E+03    0.303950726929175698E+04   -0.808595212349639603E+01   -0.416738092898039869E+00   -0.234323047028272757E+01    0.246594154817188072E+01    0.500757222960786841E+00   -0.692648154120842352E-01
   -0.411768713780300821E+01    0.329010260312161407E+01    0.453834118650997027E+03    0.301464388849757461E+04   -0.418139075552093953E+01   -0.258744577430880529E+00   -0.153297053060797861E+01    0.205250800697606151E+01    0.806104252860648351E+00   -0.160300178806067114E-02
   -0.411768713780300821E+01    0.329010260312161407E+01    0.453834118650997027E+03    0.301464388849757461E+04   -0.418139075552093953E+01   -0.258744577430880529E+00   -0.153297053060797861E+01    0.205250800697606151E+01    0.806104252860648351E+00   -0.160300178806067114E-02
   -0.212379872798919678E+01    0.424045443534851074E+01    0.899600744247436523E+03    0.303021466732025146E+04   -0.534001314640045166E+01   -0.626201391220092773E+00   -0.885892450809478760E+00    0.218414711952209473E+01    0.664079821109771706E+00   -0.140573228737637789E-01
   -0.414934961123543999E+01    0.303584778187773630E+01    0.841381674332181547E+03    0.281723226093811809E+04   -0.832554616787171398E+01   -0.688906654837380672E+00   -0.202609724044398209E+01    0.209485444956097489E+01    0.109772380275142845E+01   -0.255044547577274391E-01
   -0.414934961123543999E+01    0.303584778187773630E+01    0.841381674332181547E+03    0.281723226093811809E+04   -0.832554616787171398E+01   -0.688906654837380672E+00   -0.202609724044398209E+01    0.209485444956097489E+01    0.109772380275142845E+01   -0.255044547577274391E-01
   -0.460434671258228434E+01   -0.122288610860348257E-01    0.759226120815413196E+03    0.275349424676277476E+04   -0.606309375243031923E+01   -0.466048783724216209E+00   -0.882834511404335665E+00    0.211586107323061778E+01    0.483055137799498158E+00   -0.423358722633038198E-01
   -0.683858201340056304E+01    0.104739531611208747E+01    0.304974317111458788E+03    0.219076429586359291E+04   -0.361568666917724091E+01   -0.559725331270517268E+00   -0.256866282134835933E+01    0.191791218376280259E+01    0.135617137920416386E+01   -0.710086863833996607E-01
   -0.411496150980476649E+01    0.443540497802463918E+01    0.660678997107066380E+03    0.308124411856767256E+04   -0.843690046605937916E+01    0.107200113120160756E+00   -0.314589847915403098E+01    0.247543880735127830E+01    0.173833249684713753E+00   -0.848600757324566857E-01
   -0.550074347896168181E+01    0.266241760879934475E+01    0.853372133507122385E+03    0.278304337387803162E+04   -0.607361218158506677E+01   -0.917972221631714991E+00   -0.322836111487635069E+01    0.285221199984979190E+01    0.986131501812997135E+00   -0.118812255687086171E-01
   -0.429262239184859862E+01   -0.117313886802110989E+01    0.520007171581599778E+03    0.296275384701764324E+04   -0.765947157273493406E+01   -0.308285619897492369E+00   -0.247967231765132956E+01    0.254114599488281190E+01    0.580999873502482167E+00   -0.100860949290729973E+00
   -0.528074238642004445E+01    0.399743924013191076E+01    0.893366632046906602E+03    0.252296900352022885E+04   -0.389609545381845468E+01   -0.790350980409352810E+00   -0.243932274698556162E+01    0.189669492032177889E+01    0.407849417282824200E+00   -0.431335850707482357E-01
   -0.540587918217647267E+01   -0.358070342742645797E+01    0.654481867494253379E+03    0.316256662714601634E+04   -0.893485717533095070E+01   -0.293487486700911515E+00   -0.316832426521709642E+01    0.292208453588197514E+01    0.243087794330290097E+00   -0.541570977412443550E-04
