   -0.467973064837499741E+01   -0.174743792825239019E+01    0.764539886530820922E+02    0.129642466684873216E+04    0.863597846925827639E-01    0.999579367823725473E+00   -0.287992350306656864E+01   -0.579987813940380104E+01   -0.755104949573182171E+01   -0.996793010239820632E+01   -0.581543262873180443E+06
   -0.469102977795296283E+01   -0.176113694550381794E+01    0.884785786159259544E+02    0.127896121706510257E+04    0.691119173476089088E-01    0.999023468947144222E+00   -0.281050337041754750E+01   -0.577641227389395340E+01   -0.754324899149518302E+01   -0.999297046890855967E+01   -0.581542551570968702E+06
   -0.473780863888527293E+01   -0.174249488523795115E+01    0.382792517908910668E+02    0.129072771000128569E+04    0.585490725828883285E-01    0.998951015270047371E+00   -0.535643165205388350E+00   -0.575847165948230799E+01   -0.756182596212124203E+01   -0.993865004606626989E+01   -0.581542220183106372E+06
   -0.473041065691050733E+01   -0.175508663459898440E+01    0.584510133288505287E+02    0.127773738453378064E+04    0.503496798246469979E-01    0.999586419012008731E+00   -0.328057032743852517E+01   -0.576660799199324181E+01   -0.754088284846211820E+01   -0.992480437134065596E+01   -0.581540545421399875E+06
   -0.470999648647284275E+01   -0.174547044810773144E+01    0.559836748600435143E+02    0.128901816280189678E+04    0.646935461195852213E-01    0.999290484995809081E+00   -0.368248028360536939E+00   -0.577333077779733372E+01   -0.756193647933542934E+01   -0.999636737540189024E+01   -0.581540541979000438E+06
   -0.471727256528238215E+01   -0.172828686696475131E+01    0.120163399829660037E+03    0.130114753618660893E+04    0.666045255726306351E-01    0.999436026210562822E+00    0.148406327501863444E+00   -0.575305089776556056E+01   -0.755094392622085397E+01   -0.997544172555100417E+01   -0.581540316274224431E+06
   -0.473011209026963009E+01   -0.171816724161426837E+01    0.921252179260496291E+02    0.131071810939337502E+04    0.687365292371691083E-01    0.999507493543047465E+00    0.245841334677399104E+00   -0.575361448541003107E+01   -0.755418917230514175E+01   -0.997781248513352104E+01   -0.581539843796483125E+06
   -0.466476102085194988E+01   -0.178513053833424884E+01    0.276184926453084856E+02    0.126097146009215885E+04    0.677813025408138259E-01    0.999330623596967227E+00   -0.162771322764732496E+01   -0.576665514970933391E+01   -0.755649441615391737E+01   -0.990788504466735631E+01   -0.581539803636367433E+06
   -0.469911236367265150E+01   -0.174878429066379404E+01    0.481383093482746887E+02    0.129022620507551756E+04    0.731538614915283603E-01    0.999570215378654758E+00   -0.371836334602547192E+01   -0.577497660728869011E+01   -0.754503747987223505E+01   -0.998799445442024236E+01   -0.581539520326249884E+06
   -0.470376119193412023E+01   -0.176107807376307068E+01    0.702106273165598367E+02    0.128208576870980460E+04    0.698902132526875164E-01    0.999008939724106648E+00   -0.217585221832426701E+01   -0.577981823669289163E+01   -0.755059501562080726E+01   -0.994302607825782303E+01   -0.581539482694174163E+06
   -0.475657830453185504E+01   -0.171403855987468301E+01    0.683181979182659234E+02    0.131351778089564641E+04    0.641188217588712916E-01    0.999440846071646627E+00   -0.105875672882211003E+01   -0.579089839905152104E+01   -0.755854105708795387E+01   -0.999594841698404757E+01   -0.581539466274622479E+06
   -0.468892046001501139E+01   -0.176219911647688043E+01    0.718745867086996100E+02    0.128294723555181918E+04    0.751455401692862068E-01    0.999959467047652817E+00   -0.891600816154341835E+00   -0.577958246134946574E+01   -0.756362435418801127E+01   -0.990350563736639700E+01   -0.581539439614984323E+06
   -0.468760049574957005E+01   -0.177160879899595702E+01    0.911221320662526750E+02    0.126709268096571486E+04    0.586873778365344378E-01    0.999607564483001587E+00   -0.196955321911594394E+01   -0.575318817091735202E+01   -0.754210214024289982E+01   -0.990892087997291959E+01   -0.581539405327536864E+06
   -0.475698603160097822E+01   -0.171084276035351124E+01    0.365068428863202641E+02    0.131456918610856428E+04    0.619152910620304198E-01    0.999721367691905449E+00   -0.254238579021701749E+01   -0.577710890889389628E+01   -0.754803455393797140E+01   -0.996090599675694754E+01   -0.581539333461474045E+06
   -0.471846907305824903E+01   -0.173681913691260181E+01    0.123326884306368328E+03    0.129959644382924648E+04    0.722320569016314806E-01    0.999390915007221103E+00   -0.871668924094987752E+00   -0.578125543714808909E+01   -0.755243193391848511E+01   -0.999029671114114848E+01   -0.581539318804463255E+06
   -0.468420610871581644E+01   -0.176049411268752820E+01    0.822193637093876220E+02    0.128134310320021677E+04    0.730742460992015452E-01    0.999213502638432338E+00   -0.519578805056009951E+00   -0.577104400141396567E+01   -0.755513422774036769E+01   -0.993761990041311982E+01   -0.581539298383607180E+06
   -0.470439081080770194E+01   -0.177009810480135776E+01    0.141189081097890579E+03    0.127433611372152063E+04    0.663387160845623214E-01    0.999266712950190428E+00   -0.281302164288907086E+01   -0.579222229490275176E+01   -0.755847618270946953E+01   -0.999276159692411170E+01   -0.581539290066045942E+06
   -0.469140836443569142E+01   -0.178536024960104545E+01    0.587949018325885575E+02    0.126086280788013164E+04    0.606717025264771337E-01    0.999231287775762977E+00    0.108369110824163783E+00   -0.579070507567526604E+01   -0.755574904098866540E+01   -0.990537652804394853E+01   -0.581539108075994067E+06
   -0.473986072766091660E+01   -0.173783819686910768E+01    0.551474740003659605E+02    0.129204696948746437E+04    0.551434639888359612E-01    0.999364321361884578E+00   -0.228176635026484709E+01   -0.576140553457395388E+01   -0.755662368029330356E+01   -0.995893588718240430E+01   -0.581538929308666382E+06
   -0.473392029533487779E+01   -0.173929334720811379E+01    0.675317364450668691E+02    0.129007096639201086E+04    0.543363196298205509E-01    0.999753394777876947E+00   -0.117669441091206117E+01   -0.576355205443380658E+01   -0.755201551752655309E+01   -0.994337904861526667E+01   -0.581538879034469719E+06
   -0.472235994519011193E+01   -0.174966430194168421E+01    0.112956516638370687E+03    0.128382480667068398E+04    0.572114678736497240E-01    0.999675232700773186E+00    0.510217571712456852E+00   -0.577180036534703333E+01   -0.755459189634847128E+01   -0.993666751426782291E+01   -0.581538847435286734E+06
   -0.470036596946246110E+01   -0.174403354968573687E+01    0.856707445751348473E+02    0.129320052591878084E+04    0.734640486574402729E-01    0.999222150294109657E+00   -0.664320195159486815E+00   -0.578388840503002299E+01   -0.755720219698894091E+01   -0.999676889382469192E+01   -0.581538807120975456E+06
   -0.470211882940262260E+01   -0.176466367223584442E+01    0.552536623277421484E+02    0.127288042804715860E+04    0.577615499794763565E-01    0.999849826514929596E+00    0.467068683321807399E-01   -0.577095179487942911E+01   -0.754207540266612320E+01   -0.990109332870764725E+01   -0.581538780431043589E+06
   -0.465611878479663410E+01   -0.178585228413995978E+01    0.569618935653674612E+02    0.125861586227177327E+04    0.661034793955987965E-01    0.999692853593981079E+00   -0.302166909835698672E+01   -0.575853655701664202E+01   -0.754358294190565104E+01   -0.993526836174060080E+01   -0.581538701275985804E+06
   -0.474318923779733126E+01   -0.174246861576160761E+01    0.853668654473300990E+02    0.129550205524970056E+04    0.640768341582251821E-01    0.999475605995200800E+00   -0.259142229511683331E+01   -0.579083151831681775E+01   -0.755480285613092839E+01   -0.999958390915505824E+01   -0.581538612974997261E+06
   -0.475130496470851504E+01   -0.172284560030535872E+01    0.525021496559305163E+02    0.130651871891945257E+04    0.611649417264725770E-01    0.999570132706596004E+00   -0.159079638643486465E+01   -0.576494507658659749E+01   -0.755442423795928875E+01   -0.997320536504132882E+01   -0.581538374175556004E+06
   -0.474040701565569478E+01   -0.173276872903791457E+01    0.448475772718376646E+02    0.129560994246585619E+04    0.559256446851801314E-01    0.999810645753580696E+00   -0.293268760067583711E+01   -0.576449147237468917E+01   -0.754252026072880355E+01   -0.995006083676741504E+01   -0.581538323175332975E+06
   -0.470354911893891892E+01   -0.174030326751824926E+01    0.113817566104155560E+03    0.129297625607402733E+04    0.682464764278698510E-01    0.999941555352134248E+00   -0.206643874322454524E+01   -0.578114084664911232E+01   -0.754253077755091539E+01   -0.999680882042719610E+01   -0.581538239591536694E+06
   -0.467307971074402939E+01   -0.177583887992829226E+01    0.440831217924305605E+02    0.127065075849872869E+04    0.715071807840139684E-01    0.999934867119668391E+00   -0.142839979701178965E+01   -0.577501527745900844E+01   -0.754308478013662054E+01   -0.988687680423832305E+01   -0.581538217817296390E+06
   -0.468854804558381488E+01   -0.178227684587906854E+01    0.668836410731737629E+02    0.126497224868378771E+04    0.644696388367247408E-01    0.999866078891918919E+00   -0.400128876665277744E+00   -0.578939755502951492E+01   -0.754351338606187483E+01   -0.991643918074285757E+01   -0.581538061176662100E+06
   -0.470582974289432965E+01   -0.174804638027744996E+01    0.792956478104806735E+02    0.129224906679053220E+04    0.732095030288650861E-01    0.999685863197053326E+00   -0.223488954540729789E+01   -0.578215874750323167E+01   -0.755891909085622871E+01   -0.996517426739923629E+01   -0.581538047470812569E+06
   -0.468445750488633994E+01   -0.179576891944255745E+01    0.263174177054542433E+02    0.124959804269646838E+04    0.534139576478978029E-01    0.999738699694625588E+00   -0.155102689877784394E+01   -0.578126757506427325E+01   -0.755407103768323918E+01   -0.987163577031325445E+01   -0.581538036569426535E+06
   -0.469634966546083454E+01   -0.177336572895597744E+01    0.963984674627122473E+02    0.127007589972569122E+04    0.633965032034264908E-01    0.999438367623323165E+00    0.956971805472627501E+00   -0.578546614664012537E+01   -0.755612681438708123E+01   -0.993240630122995505E+01   -0.581537995750854374E+06
   -0.471166286553946900E+01   -0.176334403110666127E+01    0.568277140684049940E+02    0.127523652450941699E+04    0.582304766807819618E-01    0.999277185201769891E+00   -0.502882680488903944E+00   -0.577826131351504024E+01   -0.755116871110284293E+01   -0.998991089280232458E+01   -0.581537974042464979E+06
   -0.469334386684043015E+01   -0.176438614573544506E+01    0.185113486566287513E+02    0.127265845754093061E+04    0.596977555041711128E-01    0.999651563511336105E+00    0.243050561667823573E-01   -0.576345930075595625E+01   -0.755066917397180681E+01   -0.992078701500312832E+01   -0.581537875753515749E+06
   -0.468641850701270002E+01   -0.174703812325256980E+01    0.593057545330789964E+02    0.128925837250162908E+04    0.727597390545469125E-01    0.999620420499550022E+00   -0.118001702806140729E+01   -0.576849154723987656E+01   -0.755899611141908778E+01   -0.999278940539023353E+01   -0.581537870028240839E+06
   -0.465926828012048588E+01   -0.179453305505446892E+01    0.783467431419445575E+02    0.125741345087409945E+04    0.706576929505917661E-01    0.999742234258997442E+00   -0.388052660541483352E+00   -0.577446120792362283E+01   -0.754314247187235409E+01   -0.988704081744363883E+01   -0.581537856614472694E+06
   -0.471065668090397605E+01   -0.178214350391606402E+01    0.629113468585013180E+02    0.126306848352914312E+04    0.555513204995374821E-01    0.999700030119994310E+00   -0.144268585303589747E+01   -0.578284458402733481E+01   -0.755024733443659102E+01   -0.989236142850661082E+01   -0.581537829035151168E+06
   -0.470204891896301014E+01   -0.176861026990300996E+01    0.605775272323986584E+02    0.127225232577743714E+04    0.616185788042606930E-01    0.999219547157071064E+00   -0.285242405316876990E+01   -0.577460208777410244E+01   -0.754744049499349234E+01   -0.995939106053279311E+01   -0.581537667711294955E+06
   -0.467387901126614302E+01   -0.179348186060349324E+01    0.338216444071005213E+02    0.125769073130641277E+04    0.673094547640999963E-01    0.999522889420351612E+00   -0.180987066903593830E+01   -0.578176466420812218E+01   -0.756038537229953977E+01   -0.988279911357005325E+01   -0.581537650412844494E+06
   -0.470243719548877248E+01   -0.176328758896709559E+01    0.726726160368746719E+02    0.127320516253907408E+04    0.574758550396641255E-01    0.999985384586227877E+00   -0.677709681213297443E+00   -0.578694634698773669E+01   -0.754748874261226721E+01   -0.995448448258586360E+01   -0.581537619371780776E+06
   -0.471758347772036490E+01   -0.176378498032886366E+01    0.196988940985181600E+02    0.127730090061909846E+04    0.610741080427743555E-01    0.999296312419294175E+00   -0.195644938656853418E+01   -0.578108414731116493E+01   -0.755174113231496769E+01   -0.993719877173579569E+01   -0.581537618165385444E+06
   -0.467064331196880822E+01   -0.177591768566293062E+01    0.854443252866695104E+02    0.127074991554036887E+04    0.734022876803965829E-01    0.999333264244486319E+00   -0.323124356755356024E+01   -0.578592228184767166E+01   -0.754479703687471037E+01   -0.998921668322901191E+01   -0.581537493823690573E+06
   -0.469881411963163487E+01   -0.178444078255511585E+01    0.154296007101976205E+02    0.126082720381256172E+04    0.572669533410046228E-01    0.999637814585430329E+00   -0.998380201312437432E+00   -0.577608496277461825E+01   -0.756343072954993367E+01   -0.991063345824751707E+01   -0.581537414440743160E+06
   -0.469194715523288863E+01   -0.175196612443032773E+01    0.550377979298290896E+02    0.128597010782941811E+04    0.704092430855141060E-01    0.999864716126013908E+00   -0.224566081579103338E+01   -0.577326910308068708E+01   -0.755579660402756836E+01   -0.992620223359043230E+01   -0.581537395211327821E+06
   -0.472593825627487085E+01   -0.175614084724135289E+01    0.636198253181310704E+02    0.128355433549928966E+04    0.618318175677448068E-01    0.999618010339522467E+00   -0.273248514283491151E+01   -0.578740964151395598E+01   -0.754963252109630467E+01   -0.994866317536391875E+01   -0.581537360238235560E+06
   -0.472982220459297054E+01   -0.173841119979561487E+01    0.594660003906150720E+02    0.129701387816812030E+04    0.663949185115786378E-01    0.999517828160401578E+00   -0.182787394595905406E+01   -0.577765092910848033E+01   -0.755113708420991436E+01   -0.997053487279834982E+01   -0.581537195013363729E+06
   -0.467706207680610309E+01   -0.177840689140631802E+01    0.654031892598800368E+02    0.126776158139484414E+04    0.683875240790783323E-01    0.999687878167209387E+00    0.511658190281081282E+00   -0.578190130862082530E+01   -0.755897684520219215E+01   -0.996787805333492472E+01   -0.581537033386755385E+06
   -0.468957041263647767E+01   -0.175708873615920247E+01    0.106906591591060049E+03    0.128389468442292468E+04    0.720284347305799599E-01    0.999944259645932698E+00   -0.378284013766162897E+01   -0.577185775084119079E+01   -0.755884341600305021E+01   -0.994578105707564752E+01   -0.581537005487821414E+06
   -0.467640734785360657E+01   -0.177436050173019932E+01    0.775812091761774667E+02    0.127118668358485115E+04    0.711023750208763516E-01    0.999171916625481549E+00   -0.946638761633492365E+00   -0.577718938724309261E+01   -0.755629304043639927E+01   -0.997476138257024658E+01   -0.581536923669809126E+06
   -0.467028212442839497E+01   -0.178810717862369906E+01    0.205685362711192496E+02    0.126103648659614623E+04    0.677485985948607095E-01    0.999705551991804553E+00   -0.273928328395372089E+01   -0.576971556847511824E+01   -0.755390299781891450E+01   -0.989171217214661525E+01   -0.581536885158030549E+06
   -0.467028212442839497E+01   -0.178810717862369906E+01    0.205685362711192496E+02    0.126103648659614623E+04    0.677485985948607095E-01    0.999705551991804553E+00   -0.273928328395372089E+01   -0.576971556847511824E+01   -0.755390299781891450E+01   -0.989171217214661525E+01   -0.581536885158030549E+06
   -0.470394619845175388E+01   -0.174903263664335995E+01    0.744766364251559310E+02    0.128810813353428898E+04    0.685008789981225164E-01    0.999934040762364917E+00   -0.194521445606182830E+01   -0.577849853343114006E+01   -0.755237823255098029E+01   -0.993836381275705172E+01   -0.581536858339888626E+06
   -0.469480996447592247E+01   -0.176611911742041094E+01    0.319519965481086992E+02    0.127686020345472366E+04    0.673200042309467506E-01    0.999908295088401955E+00    0.340068624406750786E-01   -0.577189957418555100E+01   -0.755229471531418284E+01   -0.989862544885101947E+01   -0.581536793451321195E+06
   -0.468016710787924239E+01   -0.178408215909088241E+01    0.952365448752128145E+02    0.126092437978727253E+04    0.622825976070302545E-01    0.999253422317960771E+00   -0.155240420269165025E+01   -0.577059837767052475E+01   -0.755137005294454156E+01   -0.994096064105489319E+01   -0.581536735057007056E+06
   -0.468296459683305333E+01   -0.179227799884181671E+01    0.121591815929377731E+03    0.125667988070910951E+04    0.626640478553888158E-01    0.999543232347450683E+00    0.764895051127038705E+00   -0.579066467422141873E+01   -0.756142552506306664E+01   -0.995600890846184861E+01   -0.581536716441498371E+06
   -0.466771570247922796E+01   -0.177436224609865167E+01    0.760537249387175649E+02    0.126919934589423610E+04    0.695823743274104345E-01    0.999584513480313852E+00   -0.329246329887505551E+01   -0.576932698836774449E+01   -0.755220619371780355E+01   -0.994450102592771046E+01   -0.581536708321996965E+06
   -0.465108220533861960E+01   -0.179156432238610286E+01    0.989251475649476362E+02    0.125614025676822848E+04    0.690983885663847275E-01    0.999438522421187248E+00   -0.286567147472025496E+00   -0.578045683377703234E+01   -0.755815073732485043E+01   -0.997748537381220046E+01   -0.581536670506512863E+06
   -0.470480032333172460E+01   -0.175614855065031605E+01    0.202550303247328252E+02    0.128249483472077986E+04    0.652555388151174753E-01    0.999806756461505852E+00   -0.250085131377061209E+01   -0.578355339496705945E+01   -0.755076878624887904E+01   -0.995144925141575243E+01   -0.581536546200255165E+06
   -0.468855605954772248E+01   -0.177511278586450061E+01    0.772504159549290961E+02    0.126882318028915893E+04    0.645277723490060851E-01    0.999344308342410947E+00   -0.390236348029058799E+01   -0.576489662869425068E+01   -0.754262753002249831E+01   -0.996395487504338284E+01   -0.581536543752081343E+06
   -0.465427145539888265E+01   -0.180141582182642424E+01    0.666881450966118194E+02    0.125484644578383154E+04    0.744666489405449994E-01    0.999775897982718043E+00   -0.101687224769925688E+01   -0.579280300155029071E+01   -0.755308312147168870E+01   -0.991896595598825570E+01   -0.581536510013707913E+06
   -0.468132736882179934E+01   -0.178094561804619556E+01    0.534280192453386178E+02    0.126637182503825966E+04    0.677363413926173052E-01    0.999949616930594587E+00   -0.195735597516007331E+00   -0.578498626282768402E+01   -0.755252827758625678E+01   -0.988763188914503566E+01   -0.581536469671522267E+06
   -0.469044799482487029E+01   -0.178564971754822022E+01    0.663261268602969523E+02    0.125815375949616146E+04    0.561256125543927453E-01    0.999538281984658772E+00   -0.220713456270189212E+01   -0.577760973194938732E+01   -0.755913911506049985E+01   -0.997111374954441132E+01   -0.581536442584417411E+06
   -0.470599088576046753E+01   -0.177532081176754275E+01    0.836023041278345289E+02    0.126646310845906260E+04    0.568757202782705917E-01    0.999461057320571333E+00   -0.150492174677114399E+01   -0.578386368752066105E+01   -0.756010902023212950E+01   -0.997403667079595024E+01   -0.581536368546526530E+06
   -0.470162253298515598E+01   -0.177069554103762794E+01    0.303461750487299504E+02    0.127172537509596441E+04    0.620071869642941920E-01    0.999490537416797720E+00   -0.209649877627462988E+01   -0.578783552021517966E+01   -0.755436593767776809E+01   -0.999075125301370903E+01   -0.581536252224814962E+06
   -0.472624716645284870E+01   -0.175890723463735910E+01    0.554513293773712803E+02    0.128054804061046161E+04    0.595329350356728071E-01    0.999540848330149556E+00   -0.100960952914886359E+01   -0.578692933960938571E+01   -0.755727756206789358E+01   -0.997554267645720927E+01   -0.581536236854488961E+06
   -0.469519145455990738E+01   -0.175423118574983672E+01    0.667092338985484048E+02    0.128435132438625624E+04    0.689723158757455934E-01    0.999951584743053790E+00   -0.266787120874663275E+01   -0.577702092277473511E+01   -0.755749982329887438E+01   -0.994486207638827757E+01   -0.581536180856805528E+06
   -0.468063618459606623E+01   -0.177367212420766585E+01    0.415954523000492102E+02    0.126629807677729468E+04    0.613088830624644032E-01    0.999429184681737137E+00   -0.190640371953963061E+01   -0.577276231660177253E+01   -0.755241903789348701E+01   -0.999763408515086205E+01   -0.581536173258783296E+06
   -0.468812012567539504E+01   -0.177665335144240188E+01    0.567643620626706209E+02    0.126798373044148389E+04    0.642048964362054164E-01    0.999549668974179184E+00   -0.226266345077294240E+01   -0.576830161719380641E+01   -0.754365635288543146E+01   -0.995061596070228482E+01   -0.581536162126617157E+06
   -0.467007697060527160E+01   -0.178210035193668226E+01    0.525135984052480609E+02    0.126577939425754789E+04    0.705999121087312886E-01    0.999983228406773783E+00   -0.335851497466192228E+01   -0.578580597330518209E+01   -0.754933760464021564E+01   -0.990690173746735780E+01   -0.581536120696696220E+06
   -0.464747987736499635E+01   -0.180457121609573612E+01    0.991306738156628171E+02    0.124687738888101285E+04    0.667776551929009088E-01    0.999622355223322545E+00    0.911977823136096433E+00   -0.578797302797973146E+01   -0.755626348903787015E+01   -0.994579915192417552E+01   -0.581536038358657737E+06
   -0.464573395207981221E+01   -0.179819160198026040E+01    0.845259112618319364E+02    0.125167444074291188E+04    0.688542351429966004E-01    0.999164879260695082E+00   -0.304628147749282840E+01   -0.577212493863897436E+01   -0.755415107043729606E+01   -0.997875584721579045E+01   -0.581535918565958738E+06
   -0.467572030129473770E+01   -0.177199739526979716E+01    0.530496052233292446E+02    0.127203608890468809E+04    0.701336217816770358E-01    0.999997877155026638E+00   -0.273651610840562309E+01   -0.578331851850874035E+01   -0.754281093558734117E+01   -0.995456508322642719E+01   -0.581535887013121741E+06
   -0.464833709116285743E+01   -0.180638402622804239E+01    0.713354694074809288E+02    0.124434508214801258E+04    0.637346519472341555E-01    0.999177657374339612E+00   -0.294537862506650372E+01   -0.577474466735981995E+01   -0.754981195514877079E+01   -0.995758921782466722E+01   -0.581535838689294993E+06
   -0.472501689870527386E+01   -0.174011810865930450E+01    0.357806655480551825E+02    0.129379398954444923E+04    0.642762423981313447E-01    0.999805535597522166E+00   -0.185805317427355110E+01   -0.577553625550413230E+01   -0.755513326029148402E+01   -0.997844486479606907E+01   -0.581535809515280183E+06
   -0.465533294912289985E+01   -0.179877529347673271E+01    0.687843669772520201E+02    0.125117625019347588E+04    0.663452912736701705E-01    0.999232167680501160E+00   -0.948604187759739759E+00   -0.578680676320629850E+01   -0.754771262422984535E+01   -0.998217094836374663E+01   -0.581535740897683194E+06
   -0.465533294912289985E+01   -0.179877529347673271E+01    0.687843669772520201E+02    0.125117625019347588E+04    0.663452912736701705E-01    0.999232167680501160E+00   -0.948604187759739759E+00   -0.578680676320629850E+01   -0.754771262422984535E+01   -0.998217094836374663E+01   -0.581535740897683194E+06
   -0.469790389261140806E+01   -0.176613721618286412E+01    0.548895530030263146E+02    0.127304187398322165E+04    0.604382831273113652E-01    0.999327061943160677E+00   -0.370809468085278837E+01   -0.575436229295098656E+01   -0.754836145688448745E+01   -0.999063415068734706E+01   -0.581535689271746320E+06
   -0.469790389261140806E+01   -0.176613721618286412E+01    0.548895530030263146E+02    0.127304187398322165E+04    0.604382831273113652E-01    0.999327061943160677E+00   -0.370809468085278837E+01   -0.575436229295098656E+01   -0.754836145688448745E+01   -0.999063415068734706E+01   -0.581535689271746320E+06
   -0.470240164075457745E+01   -0.175707446513203180E+01    0.559110094036729564E+02    0.127934948374754504E+04    0.618789350298545315E-01    0.999594936552376856E+00   -0.399490292725742036E+01   -0.576633450659656788E+01   -0.755785769604633551E+01   -0.999034236020798438E+01   -0.581535673366503674E+06
   -0.465800407938759786E+01   -0.179415452312287105E+01    0.814814307536291977E+02    0.125312614079005880E+04    0.642825714876824605E-01    0.999256445104579338E+00   -0.267244834151944399E+01   -0.576351540596850587E+01   -0.755217279992243107E+01   -0.996714759737942835E+01   -0.581535669542866177E+06
   -0.464300330776877068E+01   -0.180061466213566046E+01    0.887927829375737616E+02    0.125233833737251553E+04    0.730252170634848596E-01    0.999129501391425645E+00   -0.185609105138981034E+01   -0.577720979942016477E+01   -0.755503300863056815E+01   -0.999679740926091220E+01   -0.581535566380182863E+06
   -0.465793548972011884E+01   -0.181173772540736877E+01    0.607712520464157961E+02    0.124415794632184065E+04    0.660384493306036546E-01    0.999750805505567053E+00    0.198338180491919758E+00   -0.580121706106701573E+01   -0.755653367028532408E+01   -0.991629701259515173E+01   -0.581535559209017083E+06
   -0.470649864805344009E+01   -0.175076725519481347E+01    0.284672206243524393E+02    0.128498961631105340E+04    0.640489533186769933E-01    0.999852543092701884E+00   -0.382588770170568671E+01   -0.577402179018279060E+01   -0.755658735625895162E+01   -0.997106741694210186E+01   -0.581535537696894840E+06
   -0.470026512664655627E+01   -0.176878173868251132E+01    0.714249598805389923E+02    0.127164550777557815E+04    0.610539075490894589E-01    0.999237775008026796E+00   -0.258691753063125862E+00   -0.577214422677064487E+01   -0.755256326240859899E+01   -0.999451042781057097E+01   -0.581535492948469357E+06
   -0.466898331712589609E+01   -0.178633579122577402E+01    0.837592601179542413E+02    0.126186580697266254E+04    0.685977219660482973E-01    0.999809343875145862E+00   -0.230746835713383192E+01   -0.577825887007612771E+01   -0.754508008510177142E+01   -0.994775273700003204E+01   -0.581535352385940496E+06
   -0.467150109268123614E+01   -0.178585523901259169E+01    0.528972241418319697E+02    0.126160636232039315E+04    0.669106839336564008E-01    0.999997780455605279E+00   -0.604148581964940590E+00   -0.578013989513568838E+01   -0.755860356995726335E+01   -0.990383648216474199E+01   -0.581535345786398975E+06
   -0.464307857792944567E+01   -0.182832236665842274E+01    0.363116074641783442E+02    0.123060838943567501E+04    0.625129769975796279E-01    0.999633464964869933E+00    0.375130325233999251E+00   -0.578882424290403019E+01   -0.755243703290485158E+01   -0.991821624926336654E+01   -0.581535080677539110E+06
   -0.464307857792944567E+01   -0.182832236665842274E+01    0.363116074641783442E+02    0.123060838943567501E+04    0.625129769975796279E-01    0.999633464964869933E+00    0.375130325233999251E+00   -0.578882424290403019E+01   -0.755243703290485158E+01   -0.991821624926336654E+01   -0.581535080677539110E+06
   -0.465992573204481264E+01   -0.181192931583353278E+01    0.382704128173279230E+02    0.124375415356633994E+04    0.641195462428481022E-01    0.999846541871406869E+00    0.155938767624983043E+00   -0.578119411217676848E+01   -0.754244567288474244E+01   -0.991117744811364432E+01   -0.581535076495539630E+06
   -0.470882071464957086E+01   -0.177002355232893382E+01    0.846689756956251500E+02    0.127279140317788642E+04    0.612885115164356620E-01    0.999504580555381938E+00   -0.864752856441435291E+00   -0.576552521237897775E+01   -0.755184624427277029E+01   -0.997647606105890006E+01   -0.581535057680119062E+06
   -0.470882071464957086E+01   -0.177002355232893382E+01    0.846689756956251500E+02    0.127279140317788642E+04    0.612885115164356620E-01    0.999504580555381938E+00   -0.864752856441435291E+00   -0.576552521237897775E+01   -0.755184624427277029E+01   -0.997647606105890006E+01   -0.581535057680119062E+06
   -0.465296498211065579E+01   -0.179135584888487109E+01    0.724763320207774484E+02    0.125730236649648623E+04    0.694583016495347039E-01    0.999720176185491916E+00   -0.261345282859914274E+01   -0.578041895664386818E+01   -0.755726528187365787E+01   -0.997287294503849431E+01   -0.581535025370986084E+06
   -0.466789131343388242E+01   -0.179868915779743599E+01    0.263155227665345386E+02    0.124870980584856807E+04    0.586421293608641037E-01    0.999946278740872607E+00    0.775918076937605505E+00   -0.578049585912939179E+01   -0.755706116735071731E+01   -0.991245554330025058E+01   -0.581535002941670245E+06
   -0.466789131343388242E+01   -0.179868915779743599E+01    0.263155227665345386E+02    0.124870980584856807E+04    0.586421293608641037E-01    0.999946278740872607E+00    0.775918076937605505E+00   -0.578049585912939179E+01   -0.755706116735071731E+01   -0.991245554330025058E+01   -0.581535002941670245E+06
   -0.465787108831852681E+01   -0.181753421303228979E+01    0.454315413307881073E+02    0.123879623821245104E+04    0.616906471940730228E-01    0.999765518647591778E+00   -0.912867444197189570E-01   -0.579294971996199415E+01   -0.754757094881708035E+01   -0.991123863154153284E+01   -0.581534983642085921E+06
   -0.465787108831852681E+01   -0.181753421303228979E+01    0.454315413307881073E+02    0.123879623821245104E+04    0.616906471940730228E-01    0.999765518647591778E+00   -0.912867444197189570E-01   -0.579294971996199415E+01   -0.754757094881708035E+01   -0.991123863154153284E+01   -0.581534983642085921E+06
   -0.465703922779890345E+01   -0.179975441223271027E+01    0.912346984209143983E+02    0.125115951777441978E+04    0.662854193534538894E-01    0.999179509715816927E+00   -0.199696443935545398E+01   -0.577626324124849244E+01   -0.754541180844004700E+01   -0.999920896282787730E+01   -0.581534917648760485E+06
   -0.465703922779890345E+01   -0.179975441223271027E+01    0.912346984209143983E+02    0.125115951777441978E+04    0.662854193534538894E-01    0.999179509715816927E+00   -0.199696443935545398E+01   -0.577626324124849244E+01   -0.754541180844004700E+01   -0.999920896282787730E+01   -0.581534917648760485E+06
   -0.469288491934066698E+01   -0.177725093606104956E+01    0.787142005876302022E+02    0.126906220578744183E+04    0.647914459481544469E-01    0.999672458049012613E+00   -0.349043773390344203E+01   -0.575545378992434653E+01   -0.754473467154400090E+01   -0.998445100894537418E+01   -0.581534881778342184E+06
   -0.469288491934066698E+01   -0.177725093606104956E+01    0.787142005876302022E+02    0.126906220578744183E+04    0.647914459481544469E-01    0.999672458049012613E+00   -0.349043773390344203E+01   -0.575545378992434653E+01   -0.754473467154400090E+01   -0.998445100894537418E+01   -0.581534881778342184E+06
   -0.463609070007658364E+01   -0.182442858021699195E+01    0.854233913406486352E+02    0.123494778005385410E+04    0.678158413173655106E-01    0.999640494909432409E+00    0.410241168971156256E+00   -0.579371835488404230E+01   -0.755925659417404727E+01   -0.992584504176127425E+01   -0.581534847908678581E+06
   -0.466060963853910959E+01   -0.180997114870446474E+01    0.992630277604772857E+02    0.124672603797205943E+04    0.672849708040708094E-01    0.999437521108059945E+00   -0.224012317926965210E+01   -0.577621468917780589E+01   -0.754815521565275738E+01   -0.996132373355253264E+01   -0.581534810125895776E+06
   -0.466046846424138828E+01   -0.180949024648283618E+01    0.369086115284272438E+02    0.124422602725488241E+04    0.630837549742278014E-01    0.999653383104628812E+00    0.379943550280435360E+00   -0.579189010544248362E+01   -0.755407267442874542E+01   -0.992042038862483189E+01   -0.581534797972230241E+06
   -0.466046846424138828E+01   -0.180949024648283618E+01    0.369086115284272438E+02    0.124422602725488241E+04    0.630837549742278014E-01    0.999653383104628812E+00    0.379943550280435360E+00   -0.579189010544248362E+01   -0.755407267442874542E+01   -0.992042038862483189E+01   -0.581534797972230241E+06
   -0.464815074254023575E+01   -0.182026176497426828E+01    0.550220799686556816E+02    0.123682751363842863E+04    0.637017428870354507E-01    0.999832238752956348E+00   -0.166853040347538339E+00   -0.576607301430409258E+01   -0.755624380221600322E+01   -0.992189992562541256E+01   -0.581534762607876910E+06
   -0.464815074254023575E+01   -0.182026176497426828E+01    0.550220799686556816E+02    0.123682751363842863E+04    0.637017428870354507E-01    0.999832238752956348E+00   -0.166853040347538339E+00   -0.576607301430409258E+01   -0.755624380221600322E+01   -0.992189992562541256E+01   -0.581534762607876910E+06
   -0.466621051040257662E+01   -0.178756911946672226E+01    0.512126708141794182E+02    0.125704754278871587E+04    0.626841814685423770E-01    0.999779049837117517E+00    0.467486898589735134E-01   -0.577089264345820663E+01   -0.755859117395222668E+01   -0.996753384086424532E+01   -0.581534654117027763E+06
   -0.466621051040257662E+01   -0.178756911946672226E+01    0.512126708141794182E+02    0.125704754278871587E+04    0.626841814685423770E-01    0.999779049837117517E+00    0.467486898589735134E-01   -0.577089264345820663E+01   -0.755859117395222668E+01   -0.996753384086424532E+01   -0.581534654117027763E+06
   -0.468159316505705725E+01   -0.179144971167687661E+01    0.416965849797346593E+02    0.125630445809237835E+04    0.599847944201545857E-01    0.999929165318641955E+00   -0.212157467932455557E+01   -0.577083519228703423E+01   -0.755397481560004991E+01   -0.992384093561245351E+01   -0.581534630053951521E+06
   -0.466165761267988543E+01   -0.180577870507937810E+01    0.416987360894934938E+02    0.124423390589971746E+04    0.584736951557331963E-01    0.999692119731868001E+00   -0.216060169984734696E+01   -0.576667233105751009E+01   -0.754571480343676626E+01   -0.991946989525655098E+01   -0.581534626815493219E+06
   -0.466165761267988543E+01   -0.180577870507937810E+01    0.416987360894934938E+02    0.124423390589971746E+04    0.584736951557331963E-01    0.999692119731868001E+00   -0.216060169984734696E+01   -0.576667233105751009E+01   -0.754571480343676626E+01   -0.991946989525655098E+01   -0.581534626815493219E+06
   -0.465809079694332251E+01   -0.180482352629881859E+01    0.581665149429123574E+02    0.124934010167155839E+04    0.675664129784081524E-01    0.999666573017469862E+00   -0.169808501594208128E+01   -0.578215012448816790E+01   -0.754437096236217819E+01   -0.994913294816562654E+01   -0.581534557841803646E+06
   -0.468956681451413537E+01   -0.179895037376094358E+01    0.706664888931177302E+02    0.125168658068345962E+04    0.582068809831834955E-01    0.999445857077396083E+00    0.433660898641817560E+00   -0.578715593404476447E+01   -0.755811440004496049E+01   -0.996528902843136066E+01   -0.581534553138143732E+06
   -0.468956681451413537E+01   -0.179895037376094358E+01    0.706664888931177302E+02    0.125168658068345962E+04    0.582068809831834955E-01    0.999445857077396083E+00    0.433660898641817560E+00   -0.578715593404476447E+01   -0.755811440004496049E+01   -0.996528902843136066E+01   -0.581534553138143732E+06
   -0.464376163257126784E+01   -0.180635781733577527E+01    0.898220999652078405E+02    0.124897198050710222E+04    0.713455743690420974E-01    0.999740214338404876E+00   -0.316165068517823888E+01   -0.576119921850696137E+01   -0.755158833041169686E+01   -0.993071561188349605E+01   -0.581534547833725694E+06
   -0.465472556035962803E+01   -0.180383376615328128E+01    0.889751812029796127E+02    0.125117417817336650E+04    0.706274866359137832E-01    0.999553921647145627E+00    0.201929515767827361E+00   -0.578223449001574608E+01   -0.755654673303505486E+01   -0.995560253770027614E+01   -0.581534511248862953E+06
   -0.465472556035962803E+01   -0.180383376615328128E+01    0.889751812029796127E+02    0.125117417817336650E+04    0.706274866359137832E-01    0.999553921647145627E+00    0.201929515767827361E+00   -0.578223449001574608E+01   -0.755654673303505486E+01   -0.995560253770027614E+01   -0.581534511248862953E+06
   -0.464289863453251428E+01   -0.182140781458671341E+01    0.589737606728758408E+02    0.123860783260941139E+04    0.688862999148369681E-01    0.999878752160275885E+00   -0.134481026618200161E+01   -0.577430026994897272E+01   -0.755333028842659537E+01   -0.991539157639214075E+01   -0.581534440655773040E+06
   -0.464289863453251428E+01   -0.182140781458671341E+01    0.589737606728758408E+02    0.123860783260941139E+04    0.688862999148369681E-01    0.999878752160275885E+00   -0.134481026618200161E+01   -0.577430026994897272E+01   -0.755333028842659537E+01   -0.991539157639214075E+01   -0.581534440655773040E+06
   -0.469517825182560333E+01   -0.177723125867001741E+01    0.642255183477071228E+02    0.126755838329840890E+04    0.626434797266632870E-01    0.999610892496768377E+00   -0.522181481906232925E+00   -0.577219433464660892E+01   -0.755517174701351912E+01   -0.996523399432215662E+01   -0.581534235124501982E+06
   -0.469517825182560333E+01   -0.177723125867001741E+01    0.642255183477071228E+02    0.126755838329840890E+04    0.626434797266632870E-01    0.999610892496768377E+00   -0.522181481906232925E+00   -0.577219433464660892E+01   -0.755517174701351912E+01   -0.996523399432215662E+01   -0.581534235124501982E+06
   -0.464365542970236245E+01   -0.182992945228687987E+01    0.553042540693591320E+02    0.122881574529030877E+04    0.603195383255332729E-01    0.999836368226129979E+00   -0.946551792976956463E+00   -0.578308722905444839E+01   -0.755580928036939703E+01   -0.988512827184978704E+01   -0.581534183484139969E+06
   -0.468431075640513139E+01   -0.176765731227661327E+01    0.427283049863129420E+02    0.127245152448431418E+04    0.645368943254407412E-01    0.999716450903148868E+00   -0.127359012562158647E+01   -0.575944707551028312E+01   -0.754756286899401019E+01   -0.999267631590955574E+01   -0.581534172675338807E+06
   -0.469814370804506432E+01   -0.177046309002368574E+01    0.783738852470542327E+02    0.126944331664220681E+04    0.586229307782915043E-01    0.999656786661062391E+00   -0.181906247457982095E+01   -0.575388096748930788E+01   -0.755210057579368232E+01   -0.998846042876510865E+01   -0.581534140632549883E+06
   -0.469814370804506432E+01   -0.177046309002368574E+01    0.783738852470542327E+02    0.126944331664220681E+04    0.586229307782915043E-01    0.999656786661062391E+00   -0.181906247457982095E+01   -0.575388096748930788E+01   -0.755210057579368232E+01   -0.998846042876510865E+01   -0.581534140632549883E+06
   -0.466420250789995627E+01   -0.180085083079096364E+01    0.672778563980164392E+02    0.124774314556267973E+04    0.599013218998578623E-01    0.999682638047780125E+00   -0.952854903596324299E+00   -0.576293193812509408E+01   -0.755484055848281422E+01   -0.994961454606423956E+01   -0.581534139209655812E+06
   -0.466971440708324437E+01   -0.178974562793375203E+01    0.697416061755432679E+02    0.125845661764104943E+04    0.650775040226658774E-01    0.999631107443254230E+00   -0.320882381426266949E+01   -0.575231447356722381E+01   -0.755182118925885426E+01   -0.995636697297043582E+01   -0.581534135781373945E+06
   -0.466971440708324437E+01   -0.178974562793375203E+01    0.697416061755432679E+02    0.125845661764104943E+04    0.650775040226658774E-01    0.999631107443254230E+00   -0.320882381426266949E+01   -0.575231447356722381E+01   -0.755182118925885426E+01   -0.995636697297043582E+01   -0.581534135781373945E+06
   -0.464618235519825973E+01   -0.182334631160746241E+01    0.508077672130776961E+02    0.123160071543366030E+04    0.584318184601109181E-01    0.999637862115834830E+00    0.274614889383139271E+00   -0.578032300140072319E+01   -0.755335704735589797E+01   -0.992343404909528104E+01   -0.581534096399042523E+06
   -0.464618235519825973E+01   -0.182334631160746241E+01    0.508077672130776961E+02    0.123160071543366030E+04    0.584318184601109181E-01    0.999637862115834830E+00    0.274614889383139271E+00   -0.578032300140072319E+01   -0.755335704735589797E+01   -0.992343404909528104E+01   -0.581534096399042523E+06
   -0.464617608454198816E+01   -0.179932512164532277E+01    0.642228484802173654E+02    0.124981718072352623E+04    0.657167851965123617E-01    0.999886971468287422E+00   -0.186529005111710156E+01   -0.576439308999377342E+01   -0.755250844725189285E+01   -0.994222944463906444E+01   -0.581534049456723384E+06
   -0.464617608454198816E+01   -0.179932512164532277E+01    0.642228484802173654E+02    0.124981718072352623E+04    0.657167851965123617E-01    0.999886971468287422E+00   -0.186529005111710156E+01   -0.576439308999377342E+01   -0.755250844725189285E+01   -0.994222944463906444E+01   -0.581534049456723384E+06
   -0.466636856995427696E+01   -0.181031470304422015E+01    0.379749601774107433E+02    0.124644244486133266E+04    0.656316008636430581E-01    0.999791660843368568E+00    0.636726599740056187E-01   -0.578543998156992512E+01   -0.755227218247224297E+01   -0.992514194712520315E+01   -0.581534037840381148E+06
   -0.466636856995427696E+01   -0.181031470304422015E+01    0.379749601774107433E+02    0.124644244486133266E+04    0.656316008636430581E-01    0.999791660843368568E+00    0.636726599740056187E-01   -0.578543998156992512E+01   -0.755227218247224297E+01   -0.992514194712520315E+01   -0.581534037840381148E+06
   -0.468634892228858124E+01   -0.177216627363223189E+01    0.377116005018405005E+02    0.127136607845853905E+04    0.666904971297377358E-01    0.999889901144713766E+00   -0.761798833749633530E+00   -0.577793240292392962E+01   -0.754767879574579759E+01   -0.996641417326317658E+01   -0.581534036212468054E+06
   -0.468634892228858124E+01   -0.177216627363223189E+01    0.377116005018405005E+02    0.127136607845853905E+04    0.666904971297377358E-01    0.999889901144713766E+00   -0.761798833749633530E+00   -0.577793240292392962E+01   -0.754767879574579759E+01   -0.996641417326317658E+01   -0.581534036212468054E+06
   -0.463381823317386665E+01   -0.182910052968080006E+01    0.667016229265459231E+02    0.122872531790541598E+04    0.622180583430793632E-01    0.999647676818568032E+00   -0.479130411628273301E+00   -0.578462819974722908E+01   -0.755335289330523985E+01   -0.993065321046911365E+01   -0.581533992739004665E+06
   -0.463381823317386665E+01   -0.182910052968080006E+01    0.667016229265459231E+02    0.122872531790541598E+04    0.622180583430793632E-01    0.999647676818568032E+00   -0.479130411628273301E+00   -0.578462819974722908E+01   -0.755335289330523985E+01   -0.993065321046911365E+01   -0.581533992739004665E+06
   -0.463225126223320416E+01   -0.182889072416412546E+01    0.643643262701694709E+02    0.122968325764130918E+04    0.639630624786153845E-01    0.999300389466093453E+00   -0.644439412990230664E+00   -0.578203160259398974E+01   -0.754970513508936936E+01   -0.995309043700642704E+01   -0.581533988618210540E+06
   -0.467667336222928576E+01   -0.181730138639200511E+01    0.240355575343328454E+02    0.123664508375614105E+04    0.527580377429615055E-01    0.999802821501726724E+00   -0.628752152120633845E+00   -0.578176169976158594E+01   -0.755166518278598176E+01   -0.990575767514308758E+01   -0.581533968638020800E+06
   -0.466538017508768554E+01   -0.180790796578936419E+01    0.820470503419031303E+02    0.124748672853849075E+04    0.654181871519643465E-01    0.999456257053515040E+00    0.138559778996792282E+00   -0.577470758318531807E+01   -0.755744047963190457E+01   -0.995508387459972610E+01   -0.581533960106881917E+06
   -0.466789464395758813E+01   -0.179998193459476230E+01    0.461061205845929152E+02    0.125089105765566001E+04    0.621396388836483737E-01    0.999999640672434964E+00   -0.349669232055533374E+01   -0.574795300848964885E+01   -0.755014646916905452E+01   -0.990905415671958423E+01   -0.581533949048270937E+06
   -0.468074518414882590E+01   -0.178636149887766127E+01    0.534592460924528652E+02    0.126005381333013884E+04    0.622122266453857264E-01    0.999646298685163304E+00   -0.114579648614589846E+01   -0.575273754273921600E+01   -0.754802526271600804E+01   -0.997449834290763349E+01   -0.581533933176523424E+06
   -0.468074518414882590E+01   -0.178636149887766127E+01    0.534592460924528652E+02    0.126005381333013884E+04    0.622122266453857264E-01    0.999646298685163304E+00   -0.114579648614589846E+01   -0.575273754273921600E+01   -0.754802526271600804E+01   -0.997449834290763349E+01   -0.581533933176523424E+06
   -0.465677065603522777E+01   -0.179681777009652155E+01    0.351458759660857183E+02    0.125171265042143159E+04    0.637398293888988832E-01    0.999979527294045045E+00   -0.235535516177510473E+01   -0.576660312660132313E+01   -0.754988902182261690E+01   -0.992640053649321885E+01   -0.581533892957133474E+06
   -0.465677065603522777E+01   -0.179681777009652155E+01    0.351458759660857183E+02    0.125171265042143159E+04    0.637398293888988832E-01    0.999979527294045045E+00   -0.235535516177510473E+01   -0.576660312660132313E+01   -0.754988902182261690E+01   -0.992640053649321885E+01   -0.581533892957133474E+06
   -0.469632806486812449E+01   -0.177442524313843819E+01    0.460345958112534532E+02    0.126900267378589342E+04    0.621627803162603243E-01    0.999695719412348360E+00   -0.110445946431405240E+01   -0.577358690238909666E+01   -0.754729062283080765E+01   -0.997393575251088649E+01   -0.581533891016921494E+06
   -0.467489725459890337E+01   -0.179245268227689714E+01    0.609698162503903518E+02    0.125415282839210317E+04    0.597368674107503494E-01    0.999539242520807170E+00    0.204662004770543859E-01   -0.577293107898411417E+01   -0.755550692185555306E+01   -0.998357375973798788E+01   -0.581533890683098696E+06
   -0.469181723788241190E+01   -0.177724431528130822E+01    0.569960581984529782E+02    0.126521855849612712E+04    0.592836127763884946E-01    0.999770807181667553E+00   -0.956736428707658959E+00   -0.576495938600356883E+01   -0.755263688665058197E+01   -0.997165935623338662E+01   -0.581533851373784826E+06
   -0.464611661269047271E+01   -0.182535271536212207E+01    0.672985688292303053E+02    0.123609867342110874E+04    0.669425026560368508E-01    0.999953629640235153E+00   -0.176648908326567788E+01   -0.577035819720056864E+01   -0.755238834298287021E+01   -0.989848474705584813E+01   -0.581533786310244352E+06
   -0.466960020973160717E+01   -0.180371859305457072E+01    0.701564636740268810E+02    0.124830960368755859E+04    0.620556568068071357E-01    0.999788128799353526E+00    0.451763596979755100E+00   -0.578613709873286197E+01   -0.755347430952771060E+01   -0.993022546527448924E+01   -0.581533777267035446E+06
   -0.465880530263001003E+01   -0.181201999483411313E+01    0.302022664344782505E+02    0.123884798190537822E+04    0.567536725747288529E-01    0.999881413197487356E+00    0.648259975495740548E+00   -0.577744548352254395E+01   -0.755336004080526990E+01   -0.992394598218224644E+01   -0.581533760232059401E+06
   -0.467401459764065486E+01   -0.179344190574871298E+01    0.726094904229344706E+02    0.125370322337117909E+04    0.599589132269144898E-01    0.999745074131918487E+00   -0.149449875812939981E+01   -0.576875856860638514E+01   -0.754914105204256636E+01   -0.994511168996494455E+01   -0.581533719933922053E+06
   -0.468040014048860264E+01   -0.178128575503515929E+01    0.817700597974210268E+02    0.126455664250901691E+04    0.653506662715734876E-01    0.999694281631076320E+00    0.150004182166281197E-01   -0.577880984011785692E+01   -0.755511638154775156E+01   -0.998546553440312934E+01   -0.581533687501101289E+06
   -0.466154724797464670E+01   -0.180019453244447103E+01    0.372630708789504510E+02    0.124999320043593661E+04    0.639222247298771862E-01    0.999939679906153511E+00    0.757166204136789034E+00   -0.577467969991884722E+01   -0.755465694008059607E+01   -0.994140658085943585E+01   -0.581533677089341683E+06
   -0.466154724797464670E+01   -0.180019453244447103E+01    0.372630708789504510E+02    0.124999320043593661E+04    0.639222247298771862E-01    0.999939679906153511E+00    0.757166204136789034E+00   -0.577467969991884722E+01   -0.755465694008059607E+01   -0.994140658085943585E+01   -0.581533677089341683E+06
   -0.468895343554343835E+01   -0.177491378989225534E+01    0.261129301458679812E+02    0.126489435199630134E+04    0.577755355344429233E-01    0.999764270563600954E+00   -0.723152014428938728E+00   -0.576108931662989132E+01   -0.755207460159428301E+01   -0.999362558716191884E+01   -0.581533649126872187E+06
   -0.465545107969356664E+01   -0.181279021077188496E+01    0.101472085726703284E+03    0.124247287312037315E+04    0.644546338684133246E-01    0.999456020795354005E+00    0.312721976058368156E+00   -0.578468166074004220E+01   -0.755141083523643353E+01   -0.997290359070553478E+01   -0.581533637188822264E+06
   -0.468437333912550358E+01   -0.178767464860968683E+01    0.449958185807146407E+02    0.126024716535792777E+04    0.626004236801680491E-01    0.999902237893378398E+00   -0.258199286099435277E+01   -0.576896129945326042E+01   -0.754850070883566993E+01   -0.993181885450077040E+01   -0.581533634950581356E+06
   -0.464931273440223691E+01   -0.182437025504066419E+01    0.998382545562455874E+02    0.123520562853770525E+04    0.639822361663640038E-01    0.999128505205235218E+00   -0.121953643879037177E+01   -0.577226805343171456E+01   -0.755366701898967996E+01   -0.998215724812031802E+01   -0.581533628896988463E+06
   -0.465317092740798710E+01   -0.181033332286323567E+01    0.651981718956892138E+02    0.124466021950457798E+04    0.661973642960411723E-01    0.999489353556354931E+00   -0.654839606936699070E+00   -0.577387867155816092E+01   -0.754551968275032259E+01   -0.997062179245658697E+01   -0.581533625308273360E+06
   -0.466009457281076678E+01   -0.178668388302055003E+01    0.305799331054217092E+02    0.125931537312830574E+04    0.669460183751908744E-01    0.999852540345223639E+00    0.158693933979958679E+00   -0.576256343781164126E+01   -0.755430608609716536E+01   -0.998891353989417397E+01   -0.581533606717981980E+06
   -0.468527586987838696E+01   -0.178374393591923841E+01    0.447261528500207248E+02    0.126179952468039528E+04    0.623370717072173619E-01    0.999504213039566158E+00    0.109751456258623037E+00   -0.577824491800221018E+01   -0.754895326553182233E+01   -0.999816530256093294E+01   -0.581533599466397194E+06
   -0.467035618741013181E+01   -0.182028864741031082E+01    0.668050881870219655E+02    0.123522526099733136E+04    0.551143625859467079E-01    0.999331193916218830E+00    0.188262148732635026E+00   -0.578104816733267590E+01   -0.754904854290897376E+01   -0.996440870517900201E+01   -0.581533445596073056E+06
   -0.466194917369621287E+01   -0.180897725567861656E+01    0.564007057975226616E+02    0.124506233889956229E+04    0.634744023047968398E-01    0.999539778457183115E+00    0.785599779192298620E+00   -0.577497252606933387E+01   -0.755667387589981576E+01   -0.994422521801092429E+01   -0.581533435667741811E+06
   -0.465836704157139181E+01   -0.181180369841322264E+01    0.608339013030253000E+02    0.123990870853708088E+04    0.585425921450415387E-01    0.999318219051092083E+00    0.275259652893669049E+00   -0.576999963861735043E+01   -0.755261563235774958E+01   -0.997381049771381001E+01   -0.581533421431050985E+06
   -0.465870634241402826E+01   -0.181861721286696287E+01    0.791788704767302818E+02    0.123607684791505562E+04    0.579535546309486449E-01    0.999509961444736028E+00   -0.632656467879594064E+00   -0.577326718709112630E+01   -0.755991411304958483E+01   -0.994916843374515381E+01   -0.581533418908195104E+06
   -0.470690459275882844E+01   -0.177122377017906096E+01    0.534777240763789052E+02    0.126958137499792952E+04    0.574899809197173539E-01    0.999827027700292970E+00   -0.798742960763678234E+00   -0.577674600798196014E+01   -0.754799374484061492E+01   -0.998737602269929958E+01   -0.581533403787126532E+06
   -0.467899594336237090E+01   -0.179103792130113604E+01    0.273632444976465017E+02    0.125578671331495548E+04    0.594991539626921195E-01    0.999885014282612783E+00   -0.246394490223941842E+01   -0.576218987035665009E+01   -0.754947591846939048E+01   -0.993426213902622735E+01   -0.581533399075141409E+06
   -0.466438321541575718E+01   -0.180995006459501617E+01    0.627855961590047684E+02    0.124100549791648223E+04    0.564903771415199429E-01    0.999518925477183684E+00   -0.860545915785452920E+00   -0.576896248719759441E+01   -0.755215672778326041E+01   -0.995419082459707916E+01   -0.581533395309048588E+06
   -0.467653007393579490E+01   -0.178446185844384875E+01    0.687487503061863947E+02    0.126453335926675891E+04    0.684821503267336595E-01    0.999682214163499339E+00   -0.155597349259890638E+01   -0.576411785637935292E+01   -0.754979055011218048E+01   -0.999079790735966178E+01   -0.581533357499205624E+06
   -0.468827141633408040E+01   -0.179172714248581944E+01    0.639389992197420014E+02    0.125785778856252546E+04    0.611658412704834120E-01    0.999935449492542761E+00   -0.221236062887049645E+01   -0.576915746918378680E+01   -0.754916222279407556E+01   -0.994034993537812817E+01   -0.581533321939910180E+06
   -0.466765312580185210E+01   -0.179546811705104403E+01    0.275200738544754238E+02    0.125238285783930814E+04    0.616870078105158370E-01    0.999707937203249353E+00    0.429891230204679786E+00   -0.576915490957819710E+01   -0.755733322184445822E+01   -0.996146125746279942E+01   -0.581533290546144475E+06
   -0.466838325608814309E+01   -0.179468901989600926E+01    0.617810455100441445E+02    0.125638543467087356E+04    0.669183440647937999E-01    0.999965332763601333E+00   -0.501893763205064847E+00   -0.576972616710639841E+01   -0.755790469380747432E+01   -0.994129387223410887E+01   -0.581532944071865757E+06
   -0.465031779285110147E+01   -0.181197957204585691E+01    0.594778217545565298E+02    0.124116418969320489E+04    0.629340684455339527E-01    0.999434223831267010E+00    0.701226372628736883E+00   -0.577245748218254828E+01   -0.755279627794730768E+01   -0.999076321421855518E+01   -0.581532560695784050E+06
   -0.465031779285110147E+01   -0.181197957204585691E+01    0.594778217545565298E+02    0.124116418969320489E+04    0.629340684455339527E-01    0.999434223831267010E+00    0.701226372628736883E+00   -0.577245748218254828E+01   -0.755279627794730768E+01   -0.999076321421855518E+01   -0.581532560695784050E+06
   -0.467647713556753963E+01   -0.178009661076758618E+01    0.387603236005617120E+02    0.126488193926859503E+04    0.651304244961785628E-01    0.999974633481572228E+00   -0.226721093923443195E+01   -0.575399018690607189E+01   -0.754559998516037567E+01   -0.997046035768783590E+01   -0.581533153575372766E+06
   -0.467122881207210217E+01   -0.181098054337672032E+01    0.319531275306918907E+02    0.124378324954111622E+04    0.603465748205209707E-01    0.999775101624384543E+00   -0.315861457360759879E+00   -0.577527096120771333E+01   -0.754720671862126480E+01   -0.993620284651784758E+01   -0.581533181769240764E+06
   -0.463281197034729164E+01   -0.181967026032098023E+01    0.775430829890193110E+02    0.123823381995977479E+04    0.692542976866779014E-01    0.999485120640275060E+00   -0.583372078025373497E+00   -0.576723742152050800E+01   -0.755662409094842591E+01   -0.997774754055435409E+01   -0.581533025417656638E+06
   -0.467071112162822644E+01   -0.179448691697970375E+01    0.311396929954303197E+02    0.125277889150159422E+04    0.604620106246542832E-01    0.999911901825451199E+00    0.398597056568119612E-01   -0.576980191610266413E+01   -0.754834148669223381E+01   -0.996685940454043795E+01   -0.581532249033611733E+06
   -0.467071112162822644E+01   -0.179448691697970375E+01    0.311396929954303197E+02    0.125277889150159422E+04    0.604620106246542832E-01    0.999911901825451199E+00    0.398597056568119612E-01   -0.576980191610266413E+01   -0.754834148669223381E+01   -0.996685940454043795E+01   -0.581532249033611733E+06
   -0.464881410322164790E+01   -0.181454147438857127E+01    0.616463670801210952E+02    0.123911125401684785E+04    0.610750661395318417E-01    0.999741730523408423E+00   -0.330769519467178741E+01   -0.575492503512226339E+01   -0.754669759747321933E+01   -0.994390139016392460E+01   -0.581532553106341977E+06
   -0.464881410322164790E+01   -0.181454147438857127E+01    0.616463670801210952E+02    0.123911125401684785E+04    0.610750661395318417E-01    0.999741730523408423E+00   -0.330769519467178741E+01   -0.575492503512226339E+01   -0.754669759747321933E+01   -0.994390139016392460E+01   -0.581532553106341977E+06
   -0.466890755463167118E+01   -0.180039768890235052E+01    0.497886645401828147E+02    0.124926958565291079E+04    0.600403478957147740E-01    0.999719097584165661E+00   -0.190647436203317167E+01   -0.576542403085312394E+01   -0.755506473373867671E+01   -0.995993050967988580E+01   -0.581532859434689977E+06
   -0.466395438268222762E+01   -0.180372717866336973E+01    0.404794074959212438E+02    0.124760417462225837E+04    0.618347845816504815E-01    0.999634452952181007E+00    0.406490704473208453E+00   -0.576428616437485619E+01   -0.754957924227386989E+01   -0.998401150936633641E+01   -0.581531567052459810E+06
   -0.466395438268222762E+01   -0.180372717866336973E+01    0.404794074959212438E+02    0.124760417462225837E+04    0.618347845816504815E-01    0.999634452952181007E+00    0.406490704473208453E+00   -0.576428616437485619E+01   -0.754957924227386989E+01   -0.998401150936633641E+01   -0.581531567052459810E+06
   -0.466395438268222762E+01   -0.180372717866336973E+01    0.404794074959212438E+02    0.124760417462225837E+04    0.618347845816504815E-01    0.999634452952181007E+00    0.406490704473208453E+00   -0.576428616437485619E+01   -0.754957924227386989E+01   -0.998401150936633641E+01   -0.581531567052459810E+06
   -0.467545368073801626E+01   -0.179926692101062713E+01    0.645086594193493852E+02    0.125220344280452991E+04    0.625695565206676463E-01    0.999617614755550221E+00   -0.133873319403403057E+01   -0.576240999354381245E+01   -0.755043943399836959E+01   -0.997170880353410638E+01   -0.581533063720964477E+06
   -0.465362778516248632E+01   -0.181868587091160450E+01    0.877203143813834316E+02    0.123655771042983770E+04    0.603219619962924725E-01    0.999621076078221815E+00   -0.148182089701924991E+01   -0.577724139006956339E+01   -0.755576231638241858E+01   -0.994413503292781975E+01   -0.581532972957930528E+06
   -0.464378139189761718E+01   -0.181519302036063657E+01    0.473631080686524584E+02    0.124049778089061692E+04    0.655694886558499945E-01    0.999598240558355222E+00   -0.738780567260357124E+00   -0.577147149563941220E+01   -0.755221821230488022E+01   -0.994585034690861391E+01   -0.581532945968936081E+06
   -0.467470913941997956E+01   -0.180144828282101610E+01    0.646237630503850227E+02    0.124806954544323776E+04    0.577949714842400653E-01    0.999871164553579606E+00   -0.112595303208931563E+01   -0.577314453092891089E+01   -0.755066770455444036E+01   -0.995377813917093945E+01   -0.581532164545026724E+06
   -0.467470913941997956E+01   -0.180144828282101610E+01    0.646237630503850227E+02    0.124806954544323776E+04    0.577949714842400653E-01    0.999871164553579606E+00   -0.112595303208931563E+01   -0.577314453092891089E+01   -0.755066770455444036E+01   -0.995377813917093945E+01   -0.581532164545026724E+06
   -0.465027259042737562E+01   -0.181015533035700926E+01    0.667233625635334846E+02    0.124446841161745965E+04    0.656725345682449557E-01    0.999644458230210420E+00   -0.256151774609498961E+01   -0.575009047344765367E+01   -0.755373538709645942E+01   -0.996492034904143154E+01   -0.581532930943692918E+06
   -0.466174137209215722E+01   -0.179448970212169545E+01    0.562596591017547141E+02    0.125583162573477580E+04    0.679380485178953109E-01    0.999887089516978023E+00   -0.127612938797497488E+01   -0.577213192390917307E+01   -0.755276663115037472E+01   -0.997096257847872636E+01   -0.581532539837715332E+06
   -0.467302629965594996E+01   -0.180022932262494528E+01    0.346721581059824757E+02    0.125156630234731074E+04    0.623795470574659561E-01    0.999966314928911748E+00   -0.155542493547806071E+01   -0.576442948396831500E+01   -0.755351219723090228E+01   -0.992217856776608720E+01   -0.581532969340846175E+06
   -0.467059833765715560E+01   -0.179252652175386729E+01    0.263892247916976537E+02    0.125483525738757885E+04    0.615159598387897688E-01    0.999668022285840729E+00   -0.768358231024354410E+00   -0.575992663327359011E+01   -0.754255204291870207E+01   -0.998966452089360146E+01   -0.581532937395164743E+06
   -0.466941881601962905E+01   -0.180920052678833443E+01    0.324900762370581262E+02    0.124144777118304546E+04    0.551735179624692762E-01    0.999641015085553253E+00   -0.656389095462786010E+00   -0.576793043325219568E+01   -0.754629521103892564E+01   -0.997490415607567904E+01   -0.581532126714441343E+06
   -0.466941881601962905E+01   -0.180920052678833443E+01    0.324900762370581262E+02    0.124144777118304546E+04    0.551735179624692762E-01    0.999641015085553253E+00   -0.656389095462786010E+00   -0.576793043325219568E+01   -0.754629521103892564E+01   -0.997490415607567904E+01   -0.581532126714441343E+06
   -0.466941881601962905E+01   -0.180920052678833443E+01    0.324900762370581262E+02    0.124144777118304546E+04    0.551735179624692762E-01    0.999641015085553253E+00   -0.656389095462786010E+00   -0.576793043325219568E+01   -0.754629521103892564E+01   -0.997490415607567904E+01   -0.581532126714441343E+06
   -0.466831705737827818E+01   -0.179154431949926884E+01    0.466349094498621355E+02    0.125621762705496258E+04    0.632298499192085472E-01    0.999834404628700657E+00   -0.258186876729932147E+01   -0.574935103416997695E+01   -0.754853552450575549E+01   -0.997704328638223892E+01   -0.581532437850668677E+06
   -0.466831705737827818E+01   -0.179154431949926884E+01    0.466349094498621355E+02    0.125621762705496258E+04    0.632298499192085472E-01    0.999834404628700657E+00   -0.258186876729932147E+01   -0.574935103416997695E+01   -0.754853552450575549E+01   -0.997704328638223892E+01   -0.581532437850668677E+06
   -0.465983026529015731E+01   -0.181753680623165703E+01    0.806337291682226152E+02    0.123731592798898851E+04    0.583606371318605710E-01    0.999633948015922202E+00   -0.976331154650716293E+00   -0.576479000355611415E+01   -0.755681590335225728E+01   -0.995492313184550603E+01   -0.581532232483653468E+06
   -0.465983026529015731E+01   -0.181753680623165703E+01    0.806337291682226152E+02    0.123731592798898851E+04    0.583606371318605710E-01    0.999633948015922202E+00   -0.976331154650716293E+00   -0.576479000355611415E+01   -0.755681590335225728E+01   -0.995492313184550603E+01   -0.581532232483653468E+06
   -0.464637210480280594E+01   -0.180493381391408292E+01    0.765488963558832722E+02    0.124564326778599707E+04    0.640900964452519872E-01    0.999667080393462193E+00   -0.346430431283744333E+01   -0.575281766382639148E+01   -0.754914691398366777E+01   -0.998272980270584043E+01   -0.581533009960698662E+06
   -0.469413424422543990E+01   -0.178345814227589639E+01    0.474848176048845403E+02    0.126221978931400827E+04    0.593551028170953288E-01    0.999808546644941121E+00   -0.133863773523704976E+01   -0.576341354900129765E+01   -0.754754149418011799E+01   -0.997452411078324097E+01   -0.581532684479683870E+06
   -0.469413424422543990E+01   -0.178345814227589639E+01    0.474848176048845403E+02    0.126221978931400827E+04    0.593551028170953288E-01    0.999808546644941121E+00   -0.133863773523704976E+01   -0.576341354900129765E+01   -0.754754149418011799E+01   -0.997452411078324097E+01   -0.581532684479683870E+06
