   -0.214300409261572700E+01    0.214311580016383019E+01    0.206215807056570895E+03    0.280500941260418131E+04    0.423026468792748922E+01    0.810182945277431177E-01   -0.490286734950351466E+00    0.263618897101819272E+01    0.490128800687808064E+00   -0.800094551686585653E+01
   -0.795781583103577717E+01   -0.329190887577229585E+01    0.726308242118353064E+03    0.241306833976756752E+04   -0.391974581608057537E+01   -0.430603575328053712E+00   -0.202416945526968295E+01    0.602981437429333411E+00    0.403695800753957723E+00   -0.698122922449305428E+01
   -0.792051890325174135E+01   -0.395803157757380664E+01    0.425097143534610439E+03    0.256895169139117297E+04   -0.841127641577322294E+01   -0.929766656110370571E+00   -0.917561896959749212E+00    0.242415960751258153E+00    0.573106440449829058E+00   -0.663537029661347333E+01
   -0.812763523134917421E+01   -0.553014082340608670E+01    0.768630316218543157E+03    0.242283956094789710E+04   -0.380335612609475504E+01    0.109779588500908964E-01   -0.302149144824912463E+01    0.224906013728594889E+01    0.533441663347177353E+00   -0.647305539377813677E+01
   -0.709120690822601318E+01   -0.356530880928039551E+01    0.409736394882202148E+03    0.243483430147171021E+04   -0.276108616590499878E+01   -0.241853117942810059E+00    0.135857820510864258E+00   -0.613790899515151978E+00    0.551169282197952248E+00   -0.625245627107208790E+01
   -0.327515990678362368E+01    0.588038669223353594E+01    0.137254490664097972E+03    0.254417104672984988E+04   -0.656885866853812139E+01    0.135555261412057204E+00   -0.802361460064855869E+00   -0.896885708754247890E+00    0.944757333645960595E+00   -0.620201020260184155E+01
   -0.344737544757532621E+01   -0.751079532764892477E+00    0.706013107566593931E+03    0.202066825075613497E+04    0.279201849666648982E+01    0.197991078831049716E+00   -0.134721519137224455E+01    0.831846104172095924E-01    0.254138157271971032E+00   -0.580733537362124252E+01
   -0.796977241896303390E+01   -0.425347517644014328E+01    0.430163995965295555E+03    0.264246558105641452E+04   -0.137878070002496855E+00    0.759725059733415975E-01   -0.865874317731686105E+00    0.104845997436819127E+01    0.979152223140492439E+00   -0.569286641577387797E+01
   -0.788068846727459782E+01   -0.904430889953892425E+00    0.197875953646806749E+03    0.239992521435075560E+04   -0.290664891311087459E+01    0.639521340129686866E+00   -0.181014161675117080E+01   -0.887412119894090190E+00    0.121385699835387229E+01   -0.558605545942573123E+01
   -0.189955174922943115E+01    0.442747664451599121E+01    0.419482767581939697E+03    0.200924670696258545E+04   -0.570033127069473267E+01   -0.397007942199707031E+00   -0.314772540330886841E+01    0.277401745319366455E+00    0.570432549715042092E+00   -0.495380681177177440E+01
   -0.159522597681261935E+01    0.360691628146100030E+01    0.421779610567410543E+03    0.151944112690748716E+04   -0.698197249380474894E+01   -0.398465892510754816E+00   -0.310015537409186726E+01    0.678919764135856862E+00    0.576323873955307486E+00   -0.255578944844614453E+01
   -0.255004837301091491E+01    0.425239620792278927E+01    0.369690685400484938E+03    0.159639474377777901E+04   -0.864412636696013870E+01   -0.387384258426121342E+00   -0.322520884878844560E+01    0.137980707239935629E+01    0.911271629081040424E+00   -0.321805415350874391E+01
   -0.236622946810014767E+01    0.569019183037695342E+01    0.651185001600859778E+03    0.167373535050578676E+04   -0.853810965136457511E+01   -0.496223600681401700E+00   -0.278763506884559842E+01    0.594288714469981993E+00    0.476135929203419184E+00   -0.256442533899871439E+01
   -0.236622946810014767E+01    0.569019183037695342E+01    0.651185001600859778E+03    0.167373535050578676E+04   -0.853810965136457511E+01   -0.496223600681401700E+00   -0.278763506884559842E+01    0.594288714469981993E+00    0.476135929203419184E+00   -0.256442533899871439E+01
   -0.310652706741191764E+01    0.506689282744956415E+01    0.636589222062655608E+03    0.127610545236667849E+04   -0.677511988685057531E+01   -0.410000729682294063E+00   -0.117878030059436512E+01   -0.214445849443824832E+00    0.452796251784522097E+00   -0.153792135152604437E+01
   -0.310652706741191764E+01    0.506689282744956415E+01    0.636589222062655608E+03    0.127610545236667849E+04   -0.677511988685057531E+01   -0.410000729682294063E+00   -0.117878030059436512E+01   -0.214445849443824832E+00    0.452796251784522097E+00   -0.153792135152604437E+01
   -0.310652706741191764E+01    0.506689282744956415E+01    0.636589222062655608E+03    0.127610545236667849E+04   -0.677511988685057531E+01   -0.410000729682294063E+00   -0.117878030059436512E+01   -0.214445849443824832E+00    0.452796251784522097E+00   -0.153792135152604437E+01
   -0.120129552178606858E+01    0.539396107060531449E+01    0.489575709024323999E+03    0.173726291276552956E+04   -0.885083885640861467E+01   -0.257176663417974627E+00   -0.241416473714902935E+01    0.148140347801323680E+01    0.544767383965776952E+00   -0.219172320405994281E+01
   -0.120129552178606858E+01    0.539396107060531449E+01    0.489575709024323999E+03    0.173726291276552956E+04   -0.885083885640861467E+01   -0.257176663417974627E+00   -0.241416473714902935E+01    0.148140347801323680E+01    0.544767383965776952E+00   -0.219172320405994281E+01
   -0.144035247628188579E+01    0.567948968665390197E+01    0.603802436726143583E+03    0.167765073494863918E+04   -0.834154939077206770E+01   -0.192069921287558176E+00   -0.283547566006964402E+01    0.193426646366671662E+01    0.574539500761342747E+00   -0.180420998422961154E+01
   -0.144035247628188579E+01    0.567948968665390197E+01    0.603802436726143583E+03    0.167765073494863918E+04   -0.834154939077206770E+01   -0.192069921287558176E+00   -0.283547566006964402E+01    0.193426646366671662E+01    0.574539500761342747E+00   -0.180420998422961154E+01
   -0.182758428354023650E+01    0.285587764883171857E+01    0.712401766786354642E+03    0.208596678881092885E+04   -0.868622866950643413E+01   -0.133507550322109037E+00   -0.364640101278936024E+01    0.186594789426268370E+01    0.418643428548957752E+00   -0.420318330128617568E+01
   -0.280414823626682796E+01    0.373001694331565758E+01    0.402948665791956387E+03    0.163014843031597638E+04   -0.669003408738664351E+01   -0.432209799556869778E+00   -0.336874491748537119E+01   -0.719161464660610927E+00    0.393102515424171517E+00   -0.373238288553018194E+01
   -0.364965264495388109E+01    0.202226854889707752E+01    0.444508054300349158E+03    0.228010784322693053E+04   -0.500483923634964434E+01   -0.671260970469374163E+00   -0.266205610901947232E+01   -0.114203330507087242E+01    0.356701777132487852E+00   -0.343351652565772625E+01
   -0.561199033160841143E+01    0.495600136665554913E+00    0.930945023429170647E+03    0.203255080986881399E+04   -0.514884689447380417E+01   -0.862288489581557460E-01   -0.350736827625576453E+01   -0.141559978989047308E+01    0.534075321947288684E+00   -0.474194563366664568E+01
   -0.240218101532935435E+01    0.841994106233541650E+00    0.556600958142054196E+03    0.107120927119424687E+04   -0.686101494719321447E+01    0.453301446831037458E+00   -0.283082894981519573E+01    0.805981595993085609E+00    0.654498701047583231E+00   -0.431123552991573966E+01
   -0.169014648599279838E+01    0.646294753080050910E+00    0.473150490776191305E+03    0.146249994385064588E+04   -0.654403756139821269E+01    0.463532895913014720E+00   -0.180278069497144244E+01    0.626050318844614040E+00    0.342946744649445856E+00   -0.351595755507443242E+01
   -0.253526463187206552E+01    0.205326297687427584E+01    0.581229809084421049E+03    0.197693582871988701E+04   -0.721474530669111402E+01    0.481691558035314715E+00   -0.305265682758592849E+01    0.441628750610960408E+00    0.618221764125502893E+00   -0.452323579300385159E+01
   -0.164627950159627012E+01    0.280188600682826028E+01    0.548079901651658020E+03    0.207382607826651929E+04   -0.374955501919611844E+01    0.400654823751442901E+00   -0.289794764336298982E+01    0.562503833472935089E+00    0.167662671747125541E+00   -0.285627611590849462E+01
   -0.264955279161142343E+01    0.530807194233875812E+01    0.341481518603460472E+03    0.158509409568964884E+04   -0.640893881841940694E+01   -0.342675101683213801E+00   -0.766633447840233018E+00    0.128822659115392923E-01    0.854572947005835526E+00   -0.186163151720326914E+01
   -0.264955279161142343E+01    0.530807194233875812E+01    0.341481518603460472E+03    0.158509409568964884E+04   -0.640893881841940694E+01   -0.342675101683213801E+00   -0.766633447840233018E+00    0.128822659115392923E-01    0.854572947005835526E+00   -0.186163151720326914E+01
   -0.122966888278629938E+01    0.558251487126069179E+01    0.233537914398744533E+03    0.162060287095879198E+04   -0.557742796262033202E+01   -0.923789861933823619E-01   -0.986427240675596284E+00   -0.132314877741723791E-02    0.600862565324207898E+00   -0.215921708296929449E+01
   -0.122966888278629938E+01    0.558251487126069179E+01    0.233537914398744533E+03    0.162060287095879198E+04   -0.557742796262033202E+01   -0.923789861933823619E-01   -0.986427240675596284E+00   -0.132314877741723791E-02    0.600862565324207898E+00   -0.215921708296929449E+01
   -0.695397104624287721E+00    0.446758645733450876E+01    0.219810565403661741E+03    0.169998832551487340E+04   -0.458895516478655985E+01   -0.409055559362951460E+00   -0.758532312581893464E+00    0.160800425460019714E+00    0.360988049333822558E+00   -0.228501817618969261E+01
   -0.195631878119376523E+01    0.443047141702919234E+01    0.462685686137589073E+03    0.186552041561710530E+04   -0.760513099279746640E+00    0.367460680856557254E-01   -0.214468124872682475E+01    0.627184710699868475E+00    0.556609333948904106E+00   -0.374711066139670468E+01
   -0.290178358554840088E+01   -0.439443182945251465E+01    0.819589555263519287E+03    0.113175562024116516E+04   -0.895854735374450684E+01   -0.905106544494628906E+00   -0.373646908998489380E+01    0.278793436288833618E+01    0.712192749977111794E+00   -0.253851802935859183E+01
   -0.247941388558517328E+01   -0.333186813676345306E+01    0.385005821313998069E+03    0.120525676748406863E+04   -0.561616405610819491E+01    0.637742673453573827E+00   -0.327931683694944720E+01    0.174606270388700624E+01    0.468416441889100033E+00   -0.105866349645188085E+01
   -0.247941388558517328E+01   -0.333186813676345306E+01    0.385005821313998069E+03    0.120525676748406863E+04   -0.561616405610819491E+01    0.637742673453573827E+00   -0.327931683694944720E+01    0.174606270388700624E+01    0.468416441889100033E+00   -0.105866349645188085E+01
   -0.247941388558517328E+01   -0.333186813676345306E+01    0.385005821313998069E+03    0.120525676748406863E+04   -0.561616405610819491E+01    0.637742673453573827E+00   -0.327931683694944720E+01    0.174606270388700624E+01    0.468416441889100033E+00   -0.105866349645188085E+01
   -0.247941388558517328E+01   -0.333186813676345306E+01    0.385005821313998069E+03    0.120525676748406863E+04   -0.561616405610819491E+01    0.637742673453573827E+00   -0.327931683694944720E+01    0.174606270388700624E+01    0.468416441889100033E+00   -0.105866349645188085E+01
   -0.247941388558517328E+01   -0.333186813676345306E+01    0.385005821313998069E+03    0.120525676748406863E+04   -0.561616405610819491E+01    0.637742673453573827E+00   -0.327931683694944720E+01    0.174606270388700624E+01    0.468416441889100033E+00   -0.105866349645188085E+01
   -0.229636013692335350E+01    0.391037032083676017E+01    0.900745578871902126E+03    0.203856969446559356E+04   -0.381048868703792376E+01    0.367577102793933186E+00   -0.280105736209908107E+01    0.208034337237629430E+01    0.663934720127782318E+00   -0.262485526031392569E+01
   -0.211611031801951199E+01    0.196349591769423082E+01    0.926773236703321572E+03    0.193883348664942105E+04   -0.263469204322190365E+01   -0.436827573104070499E-02   -0.299165022178654860E+01    0.293037488454948747E+01    0.498545287636677048E+00   -0.272513080592132173E+01
   -0.158512079772722458E+01    0.413269245492626780E+00    0.632942504404070746E+03    0.124152070933498567E+04   -0.474549891891975850E+01   -0.349028316405143202E+00   -0.269126656598598757E+01    0.249802967666209685E+01    0.576615905174251431E+00   -0.224721980369796359E+01
   -0.200670757614881534E+01   -0.280444495809231142E+00    0.758702031215380998E+03    0.134991275335436330E+04   -0.868374972980309501E+01   -0.432036358449914282E-01   -0.272881831499082228E+01    0.139914919793402559E+01    0.389023129408731405E+00   -0.404233507528349012E+01
   -0.158075712849002770E+01   -0.594727389161612940E+00    0.630631993920233640E+03    0.168275621375878609E+04   -0.636223907344624529E+01    0.888935830315377151E+00   -0.335883458363653720E+01    0.105392750248421585E+01    0.121850296005774850E+00   -0.235487491762071777E+01
   -0.158075712849002770E+01   -0.594727389161612940E+00    0.630631993920233640E+03    0.168275621375878609E+04   -0.636223907344624529E+01    0.888935830315377151E+00   -0.335883458363653720E+01    0.105392750248421585E+01    0.121850296005774850E+00   -0.235487491762071777E+01
   -0.249293120191800188E+01   -0.482283472787341161E+01    0.480567523394798513E+03    0.104653998247023378E+04   -0.741474137012610690E+01    0.517195566121951833E+00   -0.387914497585785689E+01    0.119169956205132443E+01    0.435196902620030635E+00   -0.101761092475697934E+01
   -0.249293120191800188E+01   -0.482283472787341161E+01    0.480567523394798513E+03    0.104653998247023378E+04   -0.741474137012610690E+01    0.517195566121951833E+00   -0.387914497585785689E+01    0.119169956205132443E+01    0.435196902620030635E+00   -0.101761092475697934E+01
   -0.249293120191800188E+01   -0.482283472787341161E+01    0.480567523394798513E+03    0.104653998247023378E+04   -0.741474137012610690E+01    0.517195566121951833E+00   -0.387914497585785689E+01    0.119169956205132443E+01    0.435196902620030635E+00   -0.101761092475697934E+01
   -0.249293120191800188E+01   -0.482283472787341161E+01    0.480567523394798513E+03    0.104653998247023378E+04   -0.741474137012610690E+01    0.517195566121951833E+00   -0.387914497585785689E+01    0.119169956205132443E+01    0.435196902620030635E+00   -0.101761092475697934E+01
   -0.249293120191800188E+01   -0.482283472787341161E+01    0.480567523394798513E+03    0.104653998247023378E+04   -0.741474137012610690E+01    0.517195566121951833E+00   -0.387914497585785689E+01    0.119169956205132443E+01    0.435196902620030635E+00   -0.101761092475697934E+01
   -0.293922407861887969E+01   -0.490147171796528980E+01    0.227616369040244166E+03    0.116580548219592538E+04   -0.291730985812461796E+01    0.217871387145296413E-01   -0.197318436972162470E+01    0.181041599961292743E+01    0.689778849262852267E+00   -0.307907085031518069E+01
   -0.244095241173790978E+01    0.351711854974289473E+00    0.314572070775396071E+03    0.153873890717791801E+04   -0.463379986967068191E+01    0.929290737312020942E+00   -0.813180470259868393E+00    0.238082686383394959E+01    0.960657791011242934E+00   -0.293215337633226492E+01
   -0.718853818245008824E-01    0.318377888597176373E+01    0.213380429408116100E+03    0.127261408743359880E+04   -0.165034927134149090E+01    0.118517406954966820E+00   -0.618459644820555265E+00    0.150551372626044655E+01    0.696276652180481292E+00   -0.277557470511572735E+01
   -0.263425665633720385E+00    0.157358605959731612E+01    0.224451305272406898E+03    0.127074744302687691E+04   -0.260054525813182380E+01   -0.323507909671509997E+00    0.410602097383310216E+00    0.176137265240780572E+01    0.744488878604008142E+00   -0.341000759044535373E+01
   -0.521665763005573879E+00    0.193813040934157499E+01    0.119621104235604065E+03    0.132404227852982376E+04   -0.183520947735748940E+01   -0.838926634435177787E+00    0.588100224564753304E+00    0.635739528363093775E+00    0.884419161427038247E+00   -0.444838348591529975E+01
   -0.421610900178713166E+00    0.268802154351458888E+01    0.278084702247617827E+03    0.106130432288969268E+04   -0.269717760605399182E+01   -0.252308627213051140E+00    0.932725229756644403E+00    0.177261007798757708E+01    0.720648506114913823E+00   -0.275389189608698182E+01
   -0.199885589756256188E+01   -0.153345009260087739E+01    0.518127181656322477E+03    0.150090243010137920E+04   -0.597786064846206244E+01    0.978098945500163186E-01    0.293617139019491269E+00    0.261808622352571163E+01    0.349975112924745702E+00   -0.913011714831538979E+00
   -0.199885589756256188E+01   -0.153345009260087739E+01    0.518127181656322477E+03    0.150090243010137920E+04   -0.597786064846206244E+01    0.978098945500163186E-01    0.293617139019491269E+00    0.261808622352571163E+01    0.349975112924745702E+00   -0.913011714831538979E+00
   -0.199885589756256188E+01   -0.153345009260087739E+01    0.518127181656322477E+03    0.150090243010137920E+04   -0.597786064846206244E+01    0.978098945500163186E-01    0.293617139019491269E+00    0.261808622352571163E+01    0.349975112924745702E+00   -0.913011714831538979E+00
   -0.199885589756256188E+01   -0.153345009260087739E+01    0.518127181656322477E+03    0.150090243010137920E+04   -0.597786064846206244E+01    0.978098945500163186E-01    0.293617139019491269E+00    0.261808622352571163E+01    0.349975112924745702E+00   -0.913011714831538979E+00
   -0.199885589756256188E+01   -0.153345009260087739E+01    0.518127181656322477E+03    0.150090243010137920E+04   -0.597786064846206244E+01    0.978098945500163186E-01    0.293617139019491269E+00    0.261808622352571163E+01    0.349975112924745702E+00   -0.913011714831538979E+00
   -0.199885589756256188E+01   -0.153345009260087739E+01    0.518127181656322477E+03    0.150090243010137920E+04   -0.597786064846206244E+01    0.978098945500163186E-01    0.293617139019491269E+00    0.261808622352571163E+01    0.349975112924745702E+00   -0.913011714831538979E+00
   -0.179426546338273951E+01    0.149596438561553224E+01    0.554218761419702560E+03    0.126917143946817441E+04   -0.383034555707027913E+01   -0.913514647428983251E+00   -0.155782374256292044E+00    0.811130635246520182E+00    0.455277213103691292E+00   -0.248963838239051771E+01
   -0.179426546338273951E+01    0.149596438561553224E+01    0.554218761419702560E+03    0.126917143946817441E+04   -0.383034555707027913E+01   -0.913514647428983251E+00   -0.155782374256292044E+00    0.811130635246520182E+00    0.455277213103691292E+00   -0.248963838239051771E+01
   -0.212694204070843007E+01   -0.135632942448894234E+01    0.467184570765139426E+03    0.119498657912708245E+04   -0.354213471232097632E+01   -0.644177156591316802E+00   -0.140109594552141248E+01    0.157643738820325385E+01    0.543430954848516445E+00   -0.450171189242766623E+01
   -0.226731874406595235E+01    0.110343719403031315E+01    0.784869501182964655E+03    0.104758772757637166E+04   -0.700421739676616451E+01    0.218556676403332206E+00   -0.234573431090776552E+00    0.223934033207530359E+01    0.694360714170422777E+00   -0.329661084933782123E+01
   -0.168923461647261242E+01    0.379789888382189744E+01    0.590590903134619111E+03    0.221618122942405671E+04    0.403178500151426356E+01    0.415965543621842349E+00   -0.116227417781945608E+01    0.134284210194330145E+01    0.820922405416452228E+00   -0.502116842500158711E+01
   -0.256762817558446521E+01    0.401989429021275413E+01    0.492414471339840759E+03    0.305640733805854779E+04   -0.267798528479496412E+01    0.277779922803505164E+00   -0.572963302042577283E-01    0.209186200125614441E+01    0.535715516634068356E+00   -0.401534132627119877E+01
   -0.685474939455264831E+00    0.174807333744331395E+01    0.532306037331312950E+03    0.255193723472836473E+04   -0.855513352975819430E+00    0.388176982327755438E+00   -0.160339563420959941E+01    0.145907026630513847E+01    0.430764489070287637E+00   -0.197407196091839143E+01
   -0.685474939455264831E+00    0.174807333744331395E+01    0.532306037331312950E+03    0.255193723472836473E+04   -0.855513352975819430E+00    0.388176982327755438E+00   -0.160339563420959941E+01    0.145907026630513847E+01    0.430764489070287637E+00   -0.197407196091839143E+01
   -0.161039490210537650E+00    0.870887490977350964E+00    0.628756830421277073E+03    0.303248914461445656E+04    0.333744478687685486E+01    0.446139188832740841E+00   -0.201810642961413444E+01    0.155314565149816852E+01    0.297576650155177092E+00   -0.132370695498080315E+01
   -0.161039490210537650E+00    0.870887490977350964E+00    0.628756830421277073E+03    0.303248914461445656E+04    0.333744478687685486E+01    0.446139188832740841E+00   -0.201810642961413444E+01    0.155314565149816852E+01    0.297576650155177092E+00   -0.132370695498080315E+01
   -0.161039490210537650E+00    0.870887490977350964E+00    0.628756830421277073E+03    0.303248914461445656E+04    0.333744478687685486E+01    0.446139188832740841E+00   -0.201810642961413444E+01    0.155314565149816852E+01    0.297576650155177092E+00   -0.132370695498080315E+01
   -0.161039490210537650E+00    0.870887490977350964E+00    0.628756830421277073E+03    0.303248914461445656E+04    0.333744478687685486E+01    0.446139188832740841E+00   -0.201810642961413444E+01    0.155314565149816852E+01    0.297576650155177092E+00   -0.132370695498080315E+01
   -0.410153234307593895E+01    0.584527512635800406E+01    0.842066076195621463E+03    0.184253445028357510E+04   -0.664139565122113229E+01    0.378253835220956347E+00    0.973001589270507949E+00    0.121401045103841998E+01    0.114224303272340588E+01   -0.389720993575427865E+01
   -0.139373473957482119E+01   -0.393023411296048186E+01    0.580706600348716051E+03    0.239459459502482196E+04   -0.224401851224875770E-02    0.798584748675325473E+00    0.869232721407525055E+00    0.124838714796291983E+01    0.403080074497090046E+00   -0.856549225993048946E+00
   -0.139373473957482119E+01   -0.393023411296048186E+01    0.580706600348716051E+03    0.239459459502482196E+04   -0.224401851224875770E-02    0.798584748675325473E+00    0.869232721407525055E+00    0.124838714796291983E+01    0.403080074497090046E+00   -0.856549225993048946E+00
   -0.139373473957482119E+01   -0.393023411296048186E+01    0.580706600348716051E+03    0.239459459502482196E+04   -0.224401851224875770E-02    0.798584748675325473E+00    0.869232721407525055E+00    0.124838714796291983E+01    0.403080074497090046E+00   -0.856549225993048946E+00
   -0.139373473957482119E+01   -0.393023411296048186E+01    0.580706600348716051E+03    0.239459459502482196E+04   -0.224401851224875770E-02    0.798584748675325473E+00    0.869232721407525055E+00    0.124838714796291983E+01    0.403080074497090046E+00   -0.856549225993048946E+00
   -0.139373473957482119E+01   -0.393023411296048186E+01    0.580706600348716051E+03    0.239459459502482196E+04   -0.224401851224875770E-02    0.798584748675325473E+00    0.869232721407525055E+00    0.124838714796291983E+01    0.403080074497090046E+00   -0.856549225993048946E+00
   -0.139373473957482119E+01   -0.393023411296048186E+01    0.580706600348716051E+03    0.239459459502482196E+04   -0.224401851224875770E-02    0.798584748675325473E+00    0.869232721407525055E+00    0.124838714796291983E+01    0.403080074497090046E+00   -0.856549225993048946E+00
   -0.323244592498919125E+01    0.498834749133415301E+00    0.608102019643076915E+03    0.160261160540182664E+04   -0.294008313417550138E+01    0.442558827573296343E+00    0.830167912790397367E+00   -0.697782083478328818E-01    0.768910789403709161E+00   -0.339115704674413632E+01
   -0.863292448191897321E+00    0.906948896040075780E+00    0.535140903940080079E+03    0.267438621141411386E+04    0.702281292204864016E+00    0.385542697282223124E+00   -0.438878867744803003E-01    0.949621725747851642E+00    0.474481702965562580E+00   -0.206934990720362588E+01
   -0.863292448191897321E+00    0.906948896040075780E+00    0.535140903940080079E+03    0.267438621141411386E+04    0.702281292204864016E+00    0.385542697282223124E+00   -0.438878867744803003E-01    0.949621725747851642E+00    0.474481702965562580E+00   -0.206934990720362588E+01
   -0.345323119668029044E+01    0.502035925811275163E+01    0.430480516333194828E+03    0.305138569948794839E+04   -0.341868619440428034E+01    0.667097385796841635E+00   -0.174940300231478219E+00    0.208690327020450450E+01    0.518550349655596876E+00   -0.237526335725794047E+01
   -0.345323119668029044E+01    0.502035925811275163E+01    0.430480516333194828E+03    0.305138569948794839E+04   -0.341868619440428034E+01    0.667097385796841635E+00   -0.174940300231478219E+00    0.208690327020450450E+01    0.518550349655596876E+00   -0.237526335725794047E+01
   -0.176630315991363496E+01    0.314083212254608668E+00    0.637551616443359649E+03    0.219981246713676683E+04   -0.231781447870762847E+01    0.714531142187087465E+00   -0.375289428633835520E+00    0.127593760209152762E+01    0.525968605691741642E+00   -0.258069699091557636E+01
   -0.380848680630678782E+01    0.324712013953481105E+01    0.859850226450413402E+03    0.267103604151035779E+04   -0.439368782712638861E+01    0.868488536724530080E+00    0.330522602866973436E+00    0.100999738438876729E+01    0.373004984645114335E+00   -0.475602857469660023E+01
   -0.337021877787643831E+01    0.229137313427348666E+00    0.761354041723546175E+03    0.242458355482510069E+04   -0.377852642867940958E+01    0.650284679752499928E+00   -0.964369947578700426E-01    0.190035350373834833E+01    0.497612354201531715E+00   -0.375464658986254207E+01
   -0.424486489548748924E+01   -0.292000494700051583E+01    0.999276641704031476E+03    0.277038193407611107E+04    0.127614659076164649E+01    0.520857756694250940E+00   -0.844661086464732147E+00    0.767654698865292584E+00    0.827253161194873132E+00   -0.342307186690094412E+01
   -0.462132797988149946E+01   -0.250698420965171742E+01    0.800490828024214920E+03    0.310918195760077379E+04   -0.244088355893822762E+01    0.390606006031615216E+00   -0.126993204674038118E+01    0.258856548353210947E+01    0.668980906615894044E+00   -0.325093102810968038E+01
   -0.520663018504699693E+01   -0.133130364660302991E+01    0.931923809229368771E+03    0.285183230662276128E+04   -0.103626742002577821E+01    0.299586385710916447E+00   -0.129156991643818087E+01    0.636508225361454016E-02    0.192957420492875148E+00   -0.408776452041332661E+01
   -0.154012441635131836E+01    0.196794104576110840E+01    0.818939387798309326E+03    0.333164444565773010E+04    0.728720784187316895E+00    0.347583055496215820E+00   -0.368394196033477783E+00    0.249200275540351868E+01    0.592725819349288918E+00   -0.418107255918863618E+01
   -0.715101639654489318E+01   -0.213660151467954096E+01    0.711721181074916899E+03    0.285007341103790077E+04   -0.109361361823445868E+01    0.342507309779901181E+00   -0.138429239755251299E+01    0.157495692934742504E+01    0.925680667136286051E+00   -0.431869307059999663E+01
   -0.202595919175817230E+01    0.593560816125277668E+00    0.362509150928728673E+03    0.316989297973955536E+04   -0.225559205208787894E+01    0.747175511932450132E+00   -0.186039534965570130E+00    0.883646197379439613E-02    0.201145152624502055E+00   -0.265787700922422143E+01
   -0.305991223499319975E+01    0.449546439287123079E+01    0.269393168794162705E+03    0.289073179395003626E+04    0.242906943567435363E+00    0.312587583812497405E+00   -0.151683001924108662E+00   -0.787836905327777171E+00    0.722046857720924695E+00   -0.276178157850611017E+01
   -0.453683384612986629E+00    0.411079556621868747E+01    0.116043954865355360E+03    0.303669917216328031E+04   -0.582699364645113960E+00    0.527647041224455160E+00   -0.660255840320607135E+00   -0.474788781101309176E+00    0.397335169230946250E+00   -0.210657155579025135E+01
   -0.453683384612986629E+00    0.411079556621868747E+01    0.116043954865355360E+03    0.303669917216328031E+04   -0.582699364645113960E+00    0.527647041224455160E+00   -0.660255840320607135E+00   -0.474788781101309176E+00    0.397335169230946250E+00   -0.210657155579025135E+01
   -0.780321252941071641E+01   -0.327519871956055786E+01    0.823244565283038924E+03    0.291220135949972155E+04   -0.362729559752842157E+01    0.817805690995796475E+00   -0.464869401788302383E+00    0.129762306835120045E+01    0.474253955376366831E+00   -0.316541750999716509E+01
   -0.123068569744600786E+01    0.194810025571477397E+01    0.286776360262647302E+03    0.307470090433970563E+04   -0.176178168619534592E+01    0.603718969424658747E+00   -0.103453804584703590E+01    0.912220006619308688E-01    0.296231978525814177E+00   -0.214546720930392754E+01
   -0.123068569744600786E+01    0.194810025571477397E+01    0.286776360262647302E+03    0.307470090433970563E+04   -0.176178168619534592E+01    0.603718969424658747E+00   -0.103453804584703590E+01    0.912220006619308688E-01    0.296231978525814177E+00   -0.214546720930392754E+01
   -0.288075877778786538E+01    0.274788707527092946E+00    0.128699330630767321E+03    0.317639975671524007E+04   -0.218885272970665934E+01    0.701522269404627696E+00   -0.733535321419979347E+00    0.560329429109281296E+00    0.435786841759421728E+00   -0.315159324612291680E+01
   -0.235932119730018641E+01   -0.159603851889717419E+01    0.748549319596791918E+02    0.345072957206280762E+04   -0.237428368550920865E+00    0.675407634757113406E+00   -0.126151197715764818E+01    0.734920396754914496E+00    0.310945204643769957E+00   -0.287788596364169447E+01
   -0.421193772436744052E+01   -0.358858698975499246E+01    0.189952729915869782E+03    0.151602581103573993E+04    0.504477842425290035E+00    0.624616878965931210E-01   -0.357657395218632157E+01    0.177293740068005246E+00    0.581331587262200911E+00   -0.172082650506818147E+01
   -0.421193772436744052E+01   -0.358858698975499246E+01    0.189952729915869782E+03    0.151602581103573993E+04    0.504477842425290035E+00    0.624616878965931210E-01   -0.357657395218632157E+01    0.177293740068005246E+00    0.581331587262200911E+00   -0.172082650506818147E+01
   -0.483997813795192133E+01   -0.444302938258982838E+01    0.572804033798693240E+03    0.126111532616678596E+04    0.184891541774441315E+01   -0.102783035638216558E+00   -0.266953742729487242E+01    0.112427204789433910E+01    0.987589302040485673E+00   -0.189894192671580120E+01
   -0.483997813795192133E+01   -0.444302938258982838E+01    0.572804033798693240E+03    0.126111532616678596E+04    0.184891541774441315E+01   -0.102783035638216558E+00   -0.266953742729487242E+01    0.112427204789433910E+01    0.987589302040485673E+00   -0.189894192671580120E+01
   -0.216927483530449461E+01   -0.240859674603578178E+01    0.474332127582612202E+03    0.183977458861938067E+04    0.334523278728225826E+01    0.534657273161355695E+00   -0.269038867072484322E+01    0.127114520193966074E+01    0.585646357903597981E+00   -0.352549412264118001E+01
   -0.352959494229847603E+01   -0.562911157139100204E+01    0.637402673531900973E+03    0.249137957626654043E+04    0.152172086432602427E+01    0.126958371141604465E+00   -0.269962178053450330E+01    0.246353417969167143E+01    0.266406433905695961E+00   -0.282738534064669578E+01
   -0.262161284155678942E+01   -0.442928852475900925E+01    0.485722155838621916E+03    0.251574375309504831E+04   -0.594234821886772124E+00    0.409991614989293263E+00   -0.241869051709076599E+01    0.272862636435927453E+01    0.239805006755345829E+00   -0.312266738170518310E+00
   -0.262161284155678942E+01   -0.442928852475900925E+01    0.485722155838621916E+03    0.251574375309504831E+04   -0.594234821886772124E+00    0.409991614989293263E+00   -0.241869051709076599E+01    0.272862636435927453E+01    0.239805006755345829E+00   -0.312266738170518310E+00
   -0.262161284155678942E+01   -0.442928852475900925E+01    0.485722155838621916E+03    0.251574375309504831E+04   -0.594234821886772124E+00    0.409991614989293263E+00   -0.241869051709076599E+01    0.272862636435927453E+01    0.239805006755345829E+00   -0.312266738170518310E+00
   -0.262161284155678942E+01   -0.442928852475900925E+01    0.485722155838621916E+03    0.251574375309504831E+04   -0.594234821886772124E+00    0.409991614989293263E+00   -0.241869051709076599E+01    0.272862636435927453E+01    0.239805006755345829E+00   -0.312266738170518310E+00
   -0.262161284155678942E+01   -0.442928852475900925E+01    0.485722155838621916E+03    0.251574375309504831E+04   -0.594234821886772124E+00    0.409991614989293263E+00   -0.241869051709076599E+01    0.272862636435927453E+01    0.239805006755345829E+00   -0.312266738170518310E+00
   -0.262161284155678942E+01   -0.442928852475900925E+01    0.485722155838621916E+03    0.251574375309504831E+04   -0.594234821886772124E+00    0.409991614989293263E+00   -0.241869051709076599E+01    0.272862636435927453E+01    0.239805006755345829E+00   -0.312266738170518310E+00
   -0.262161284155678942E+01   -0.442928852475900925E+01    0.485722155838621916E+03    0.251574375309504831E+04   -0.594234821886772124E+00    0.409991614989293263E+00   -0.241869051709076599E+01    0.272862636435927453E+01    0.239805006755345829E+00   -0.312266738170518310E+00
   -0.262161284155678942E+01   -0.442928852475900925E+01    0.485722155838621916E+03    0.251574375309504831E+04   -0.594234821886772124E+00    0.409991614989293263E+00   -0.241869051709076599E+01    0.272862636435927453E+01    0.239805006755345829E+00   -0.312266738170518310E+00
   -0.262161284155678942E+01   -0.442928852475900925E+01    0.485722155838621916E+03    0.251574375309504831E+04   -0.594234821886772124E+00    0.409991614989293263E+00   -0.241869051709076599E+01    0.272862636435927453E+01    0.239805006755345829E+00   -0.312266738170518310E+00
   -0.262161284155678942E+01   -0.442928852475900925E+01    0.485722155838621916E+03    0.251574375309504831E+04   -0.594234821886772124E+00    0.409991614989293263E+00   -0.241869051709076599E+01    0.272862636435927453E+01    0.239805006755345829E+00   -0.312266738170518310E+00
   -0.262161284155678942E+01   -0.442928852475900925E+01    0.485722155838621916E+03    0.251574375309504831E+04   -0.594234821886772124E+00    0.409991614989293263E+00   -0.241869051709076599E+01    0.272862636435927453E+01    0.239805006755345829E+00   -0.312266738170518310E+00
   -0.412035961634941117E+01   -0.513919358781681801E+01    0.770133299571251200E+03    0.236127259279118971E+04    0.182376751246973079E+01    0.263383630312616912E+00   -0.299383180464613119E+01    0.315713596671425067E+00    0.315906082438454416E+00   -0.229486003556578977E+01
   -0.412035961634941117E+01   -0.513919358781681801E+01    0.770133299571251200E+03    0.236127259279118971E+04    0.182376751246973079E+01    0.263383630312616912E+00   -0.299383180464613119E+01    0.315713596671425067E+00    0.315906082438454416E+00   -0.229486003556578977E+01
   -0.433549758012134578E+01   -0.152012684732874703E+01    0.727839546608570686E+03    0.266594025824510072E+04    0.327087209255870448E+01    0.232547045936847052E+00   -0.265734202329511948E+01    0.123728873030545028E+00    0.250875890117233602E+00   -0.364118621737799586E+01
   -0.348381675488647513E+01   -0.176577447901106677E+01    0.556318159176830250E+03    0.308291795232009554E+04    0.388133935143990172E+01    0.373593007816453548E+00   -0.184512090409266794E+01    0.104838842251154540E+01    0.389859131117916591E+00   -0.297816884027646811E+01
   -0.310379790221114504E+01   -0.354812305142279971E+01    0.462712657991856929E+03    0.195244802164312318E+04   -0.375641845496793536E+01    0.662989191515633403E+00   -0.235730894503562860E+01    0.282445479895454898E+01    0.390256847357616454E+00   -0.230178489708667566E+01
   -0.574019881610713600E+01   -0.445816945161749167E+01    0.749034894366176047E+02    0.186798906076252183E+04   -0.195474899610063879E+01   -0.182564718263247272E+00    0.174044330864031593E-02    0.309399391069255403E+00    0.863950000699416631E+00   -0.372354981656338735E+01
   -0.484219388483320579E+01   -0.302543805612519900E+01    0.122123344416955163E+03    0.137762692596416491E+04   -0.183513963793376078E+01   -0.507449496724377003E-01   -0.178480640277873848E+01    0.345526341424371886E+00    0.831193861023341252E+00   -0.297982564238681169E+01
   -0.557993808242252065E+01   -0.288826872430875436E+01    0.580439763862290597E-01    0.179095446049391785E+04   -0.276681958945763995E+01    0.481479522700665408E+00   -0.160966873811027122E+01   -0.424398185809544692E-01    0.855901387575729644E+00   -0.194624551082761799E+01
   -0.557993808242252065E+01   -0.288826872430875436E+01    0.580439763862290597E-01    0.179095446049391785E+04   -0.276681958945763995E+01    0.481479522700665408E+00   -0.160966873811027122E+01   -0.424398185809544692E-01    0.855901387575729644E+00   -0.194624551082761799E+01
   -0.458742412694982260E+01   -0.432703878636173922E+01    0.208002249212246880E+03    0.104950541800310270E+04   -0.379170479761705437E+01    0.202463000127297121E+00   -0.160552997833830169E+01   -0.419159065089314220E+00    0.618728191084412571E+00   -0.336230909798393451E+01
   -0.542037426415574064E+01   -0.122085549242018221E+01    0.255189627614065671E+03    0.176132367101116961E+04   -0.219362236749630579E+01    0.330203822321291307E+00    0.837206070695398097E+00    0.775625664810954962E-01    0.938457636840200449E+00   -0.302359435397497567E+01
   -0.685811110477294505E+01   -0.238642174945190089E+01    0.719993913239744074E+02    0.235151292075129641E+04   -0.535937685196783420E+01   -0.287583888885343031E+00   -0.226160323541006214E+01   -0.141030613094420354E+01    0.273715466990226641E+00   -0.348410836375571797E+01
   -0.806240702558605804E+01   -0.457080771825112553E+01    0.275638054131938182E+01    0.263886956615265308E+04   -0.245306504052510821E+01    0.462939448137981158E+00   -0.178456638162059367E+00    0.161926867601413527E+01    0.129509528316576406E+01   -0.452045794010264856E+01
   -0.836339279206663022E+01   -0.521908296449270992E+01    0.610102605283697699E+03    0.274182366008270537E+04   -0.414984351554060815E+01    0.848099399866930392E+00   -0.160993731842833077E+01    0.769781526307959929E+00    0.207549822815089241E+00   -0.419031652891493600E+01
   -0.672282933199756005E+01   -0.959515133890754157E+00    0.716478998639472252E+03    0.250440621264543915E+04   -0.108450572714330917E+01    0.536150713978025273E+00   -0.226039145156710841E+01   -0.104723419759070135E+01    0.552567363908151532E+00   -0.202560727534018259E+01
   -0.672282933199756005E+01   -0.959515133890754157E+00    0.716478998639472252E+03    0.250440621264543915E+04   -0.108450572714330917E+01    0.536150713978025273E+00   -0.226039145156710841E+01   -0.104723419759070135E+01    0.552567363908151532E+00   -0.202560727534018259E+01
   -0.502233174918027014E+01   -0.152526807335950210E+01    0.499329335100437220E+03    0.214407497736557343E+04   -0.521392050592306511E+01    0.763849763566113005E+00   -0.216274846901694717E+01   -0.167790380143446605E-01    0.203329439115018468E+00   -0.523701160315525982E+01
   -0.621769552155297411E+01   -0.280661939125500437E+01    0.767339339503952488E+03    0.230536693610380735E+04   -0.563888169296333253E+01    0.838956940592789913E+00   -0.270061365031199330E+01   -0.874966600155570262E+00    0.132378832538094071E+00   -0.530007623707274078E+01
   -0.764900188846411844E+01   -0.276646724394301380E+01    0.665410239741806549E+03    0.291787172358103726E+04   -0.324085881471678583E+01    0.777925988050017780E+00   -0.718291392697814945E+00    0.588744579793853973E-01    0.140632595336022681E+00   -0.419584019185686508E+01
   -0.832078415566411245E+01   -0.262417865190204136E+01    0.189236897517381891E+03    0.259970510634180846E+04   -0.547212357926720827E+01    0.969353924672389011E+00   -0.315631310342365845E+01    0.166867214055995650E+01    0.291517466790126911E+00   -0.409805667846659993E+01
   -0.385418636825017291E+01   -0.496676880007100419E+01    0.501673308061722480E+03    0.229729772007883003E+04   -0.625385606580292297E+01    0.212430107753014408E-01   -0.272206104377359548E+01    0.231943912282285014E+01    0.416694116920932278E+00   -0.379167830715205323E+01
   -0.723712132695153265E+01   -0.434400786548504669E+00    0.158101652262255385E+03    0.245348807001205114E+04   -0.489400430302078693E+01    0.783211231685329468E+00   -0.120249928164432385E+01    0.169923259557354989E+01    0.655354892812976653E+00   -0.472046444741836435E+01
   -0.469089766320788559E+01   -0.315432932019816281E+01    0.398567208763850601E+03    0.255264619937423595E+04   -0.503233726274349991E+01    0.280679793244597464E+00   -0.506096151517115178E+00    0.141552365121245227E+01    0.243302746224897726E+00   -0.466005383878428869E+01
   -0.840318204322187867E+01   -0.309783925484397926E+00    0.588976442186513623E+03    0.263917026359870442E+04   -0.394430430127055764E+01    0.402827987765964401E+00    0.660907661443872030E+00    0.235440642906782127E+01    0.566391508302076296E+00   -0.375013668386474741E+01
   -0.392112019364673792E+01   -0.449186683245740070E+00    0.448960898092978482E+03    0.271171729163975033E+04   -0.300853703823269925E+01    0.439091757083287293E+00    0.722755568376856061E-01    0.186196312450840740E+01    0.411533362890257104E+00   -0.277490248727380173E+01
   -0.701972433725615730E+01   -0.183876835914553016E+01    0.370936317452137359E+03    0.307129931668459130E+04   -0.408842436369732987E+01    0.853860054144951253E+00   -0.145872872127758102E+01    0.136501089204569137E+01    0.170376425344698185E+00   -0.152542916928581351E+01
   -0.701972433725615730E+01   -0.183876835914553016E+01    0.370936317452137359E+03    0.307129931668459130E+04   -0.408842436369732987E+01    0.853860054144951253E+00   -0.145872872127758102E+01    0.136501089204569137E+01    0.170376425344698185E+00   -0.152542916928581351E+01
   -0.701972433725615730E+01   -0.183876835914553016E+01    0.370936317452137359E+03    0.307129931668459130E+04   -0.408842436369732987E+01    0.853860054144951253E+00   -0.145872872127758102E+01    0.136501089204569137E+01    0.170376425344698185E+00   -0.152542916928581351E+01
