   -0.126054883003234863E+01    0.370236539840698242E+01    0.757257580757141113E+03    0.310239559412002563E+04    0.551352328062057495E+01    0.998497009277343750E+00   -0.359278559684753418E+00    0.225145608186721802E+01    0.457200860977172829E+00   -0.326543209876543150E+01
   -0.871066212654113770E+01    0.230522704124450684E+01    0.723075687885284424E+03    0.316490224003791809E+04    0.264329320192337036E+01    0.933449983596801758E+00   -0.157042914628982544E+01    0.174978750944137573E+01    0.236418402194976812E+00   -0.326543200789903665E+01
   -0.799019932746887207E+01   -0.500999379158020020E+01    0.687814950942993164E+02    0.242957746982574463E+04    0.387865340709686279E+01    0.603702306747436523E+00    0.834090471267700195E+00    0.212674918770790100E+01    0.120119607448577886E+00   -0.326542430846286535E+01
   -0.322138369083404541E+01   -0.112186431884765625E+00    0.237563848495483398E+03    0.149437016248703003E+04    0.216153895854949951E+01    0.818189263343811035E+00    0.714553952217102051E+00    0.334090501070022583E+00    0.403570359945297219E+00   -0.326540004828722186E+01
   -0.600600838661193848E+01    0.498099875450134277E+01    0.492986440658569336E+02    0.221746703982353210E+04    0.383343493938446045E+01    0.534572720527648926E+00   -0.228626483678817749E+01   -0.120124778151512146E+01    0.110855815410614023E+01   -0.326536269992138317E+01
   -0.822125613689422607E+01   -0.189333057403564453E+01    0.778088152408599854E+03    0.149440711736679077E+04   -0.192471796274185181E+01    0.764511823654174805E-01   -0.246046268939971924E+01    0.265272527933120728E+01    0.130983335375785837E+01   -0.325717644359311098E+01
   -0.401642024517059326E+01    0.224033117294311523E+01    0.932986140251159668E+02    0.170887327194213867E+04    0.139986580610275269E+01    0.981940031051635742E-01   -0.243808501958847046E+01    0.135974201560020447E+01    0.111491981744766244E+01   -0.325217064854693838E+01
   -0.541314184665679932E+01    0.330997896194458008E+01    0.227143943309783936E+03    0.121373048424720764E+04    0.508068716526031494E+01   -0.361485362052917480E+00   -0.101198875904083252E+01    0.222774374485015869E+01    0.154190800189971933E+01   -0.315949252122059088E+01
   -0.836330950260162354E+01   -0.541070151329040527E+01    0.501587748527526855E+03    0.192950135469436646E+04   -0.577967995405197144E+01   -0.826334357261657715E+00   -0.246790224313735962E+01    0.156312400102615356E+01    0.320276325941085793E+00   -0.311818980228476406E+01
   -0.910510599613189697E+01   -0.972044706344604492E+00    0.852881073951721191E+02    0.178459873795509338E+04   -0.514026099443435669E+01   -0.944337606430053711E+00    0.404122233390808105E+00    0.241470175981521606E+01    0.144586360454559332E+00   -0.307135533644720837E+01
   -0.847221016883850098E+01   -0.410858988761901855E+01    0.446848034858703613E+03    0.215611314773559570E+04   -0.553567582368850708E+01    0.787625670433044434E+00   -0.157284700870513916E+01   -0.638697624206542969E+00    0.633695757389068581E+00   -0.293362975245310675E+01
   -0.445214509963989258E+01   -0.293144989013671875E+01    0.521638095378875732E+03    0.207150003314018250E+04    0.323323971033096313E+01    0.635620117187500000E+00   -0.203521096706390381E+01    0.151069164276123047E+00    0.870095109939575173E+00   -0.291706645588743552E+01
   -0.103998780250549316E+00    0.557589483261108398E+01    0.261269986629486084E+03    0.201716086268424988E+04    0.676788747310638428E+00    0.471580266952514648E+00    0.714399278163909912E+00    0.188622128963470459E+01    0.817947602272033669E+00   -0.290907014712251000E+01
   -0.502163469791412354E+01   -0.307673621177673340E+01    0.908259868621826172E+03    0.178929051756858826E+04   -0.315126264095306396E+01    0.389425754547119141E+00   -0.215364986658096313E+01    0.265834343433380127E+01    0.253634250164031960E+00   -0.289614663091368740E+01
   -0.453699350357055664E+01   -0.481371259689331055E+01    0.585974216461181641E+03    0.262639394402503967E+04   -0.183080971240997314E+00    0.496254444122314453E+00   -0.178522282838821411E+01    0.128333258628845215E+01    0.155273532867431646E+00   -0.270471819819545445E+01
   -0.671864330768585205E+01   -0.239168643951416016E+01    0.992799401283264160E+03    0.183156198263168335E+04    0.351438617706298828E+01   -0.241791844367980957E+00   -0.104262733459472656E+01    0.244014492630958557E+01    0.229728436470031744E+00   -0.264244666336278611E+01
   -0.139803528785705566E+01    0.460782051086425781E+01    0.203203141689300537E+03    0.228384098410606384E+04   -0.833394134044647217E+01   -0.763797283172607422E+00   -0.111212933063507080E+01    0.170959138870239258E+01    0.246649420261383062E+00   -0.263610692509250466E+01
   -0.492350339889526367E+01   -0.194160389900207520E+01    0.106608450412750244E+03    0.139188504219055176E+04   -0.200931072235107422E+00   -0.516103744506835938E+00   -0.387216204404830933E+01    0.461349248886108398E+00    0.188952600955963140E+00   -0.248077327188241803E+01
   -0.360912950272421629E+01    0.363264048731330647E+01    0.329368331604917159E+02    0.244230580513672794E+04   -0.876988705339732633E+01   -0.238099886838795682E+00   -0.704008728504289749E+00   -0.540174042431626811E+00    0.838390090130745058E+00   -0.236442098145781898E+01
   -0.503257632255554199E+01    0.243394088745117188E+01    0.420371711254119873E+03    0.187794899940490723E+04   -0.554405057430267334E+01    0.571731567382812500E+00   -0.102822357416152954E+01    0.559094578027725220E+00    0.725433027744293191E+00   -0.234807567213109181E+01
   -0.931984245777130127E+01    0.487267255783081055E+00    0.135581493377685547E+03    0.181039577722549438E+04   -0.606840723752975464E+01    0.846999168395996094E+00    0.125308394432067871E+00    0.164964079856872559E+00    0.149572679996490487E+01   -0.220251834338518782E+01
   -0.607903615581843582E+00    0.321913902682442910E+01    0.149009081100508070E+03    0.246842699445484777E+04   -0.542496107972474562E+01   -0.131202414890693397E+00   -0.247640583012333160E+00    0.912054774423403991E+00    0.237916867889394451E+00   -0.208454803995160187E+01
   -0.989413321018218994E+01   -0.208494043350219727E+01    0.583957731723785400E+03    0.251294559240341187E+04   -0.232884281873703003E+01   -0.691596746444702148E+00   -0.212487095594406128E+01   -0.137141838669776917E+01    0.543387478590011574E+00   -0.202568360391971236E+01
   -0.514975845813751221E+01    0.232530927658081055E+01    0.759749889373779297E+03    0.114272272586822510E+04   -0.267564797401428223E+01    0.254801750183105469E+00    0.885383546352386475E+00   -0.501129269599914551E+00    0.101945561766624460E+01   -0.200036462896021083E+01
   -0.685475324345562775E+01   -0.148372595877458746E+01    0.545628599102350449E+03    0.240835138965010174E+04   -0.755048571053906770E+01    0.240936309015853167E+00   -0.930848060323802962E+00   -0.101027213607072430E+01    0.143486211867979108E+00   -0.190637577544095893E+01
   -0.209522180147700876E+01    0.150190199678900349E+01    0.924011144390233653E+03    0.264760517302621338E+04   -0.182707266237971755E+01    0.605219588882847548E+00   -0.175268245655390231E+00    0.242858496883206421E+01    0.569523863150811160E+00   -0.187226468613343644E+01
   -0.190790951251983643E+01   -0.534002780914306641E+01    0.644458651542663574E+03    0.226877188682556152E+04    0.260412579774856567E+01    0.913355469703674316E+00   -0.831847786903381348E-01    0.119439992308616638E+01    0.154929990172386178E+01   -0.177028804424224262E+01
   -0.392010401052186097E+00    0.288857494749235499E+00    0.629103603575501538E+02    0.240154614605746247E+04   -0.615007806972287074E+01    0.126244971244809934E+00   -0.231406652897852982E+01    0.104849620202272931E+01    0.259441359892652157E+00   -0.174267500431925937E+01
   -0.580026057597549549E+01    0.465716631041297902E+01    0.938940167602829234E+02    0.264126249009279400E+04   -0.550058759804201092E+01   -0.384674248896408888E+00   -0.225143347614931422E+01   -0.224057372782073383E+00    0.858761365667557786E+00   -0.171082161361169582E+01
   -0.455643475055694580E+01    0.242927527427673340E+01    0.720501363277435303E+03    0.140616855025291443E+04   -0.720177733898162842E+01   -0.655285239219665527E+00   -0.229955875873565674E+01    0.165221330523490906E+01    0.678771263360977151E+00   -0.169517548399035634E+01
   -0.433702217741054419E+01    0.153184216447676746E+01    0.298997485994894248E+03    0.210942000577554290E+04    0.186924222941662777E+01   -0.232268420402479636E+00   -0.749805354223598286E-01   -0.325274763265078093E+00    0.578356995835216270E+00   -0.163262860360702988E+01
   -0.385863304138183594E+01    0.227174949645996094E+01    0.202470600605010986E+03    0.334561949968338013E+04   -0.799704426527023315E+01   -0.117463946342468262E+00   -0.506968438625335693E+00    0.233111447095870972E+01    0.562952762842178323E+00   -0.154472979473144201E+01
   -0.993856012821197510E+01   -0.343544054031372070E+01    0.513829350471496582E+03    0.272513455152511597E+04   -0.714205706119537354E+01   -0.794948101043701172E+00   -0.210481524467468262E+00    0.146087846159934998E+01    0.153365824222564706E+01   -0.138354373773840722E+01
   -0.403170824050903320E+01    0.297783565521240234E+01    0.713999688625335693E+03    0.216171553730964661E+04   -0.425870561599731445E+01    0.791605353355407715E+00    0.906820058822631836E+00    0.106912976503372192E+01    0.978068596124649026E+00   -0.131511684046906563E+01
   -0.768079473847819116E+01    0.391853170422623620E+01    0.697494166876786608E+03    0.189206914225101968E+04    0.401302145366833329E+01   -0.113142440491476926E+00   -0.236959071437887125E+01   -0.188683001982432819E+00    0.780728502218184128E+00   -0.126953831928752603E+01
   -0.378618478775024414E+01   -0.177690982818603516E+00    0.164949536323547363E+03    0.230447477102279663E+04   -0.138123893737792969E+01    0.862986326217651367E+00    0.398904681205749512E-01   -0.623528659343719482E-01    0.110903317332267770E+01   -0.121868077166217836E+01
   -0.659202044294086953E+01    0.415794849156352164E+01    0.922027962018364747E+03    0.159646543372231918E+04    0.397712973101701017E+01   -0.622564029795752205E+00   -0.437012899852341707E+00    0.420058059803908979E+00    0.850056715516429695E+00   -0.120784842049478480E+01
   -0.610623451416178931E+01    0.219148081544221185E+01    0.408334268805339434E+03    0.259172524032136607E+04   -0.728919163836045225E+01    0.193581044318514417E+00   -0.443825597128536309E+00    0.314046179441298090E+00    0.470737397499421784E+00   -0.114268290945212136E+01
   -0.142466664314270020E+01    0.384886264801025391E+01    0.666485428810119629E+03    0.211635282635688782E+04   -0.826512569189071655E+01   -0.314476490020751953E+00   -0.303537333011627197E+01    0.256334683299064636E+01    0.796574151515960671E+00   -0.108173486209680703E+01
   -0.500115156173706055E+01   -0.525669765472412109E+01    0.916284322738647461E+03    0.224814912676811218E+04   -0.385094994306564331E+01   -0.631509780883789062E+00   -0.546222329139709473E-01    0.159523352980613708E+01    0.229923254251480108E+00   -0.104728217420064151E+01
   -0.500115156173706055E+01   -0.525669765472412109E+01    0.916284322738647461E+03    0.224814912676811218E+04   -0.385094994306564331E+01   -0.631509780883789062E+00   -0.546222329139709473E-01    0.159523352980613708E+01    0.229923254251480108E+00   -0.104728217420064151E+01
   -0.886920223910086492E+01   -0.361941834417413544E+01    0.247668712375371882E+03    0.285335506978378726E+04   -0.364280057314639460E+01    0.196728840917188119E+00   -0.149118866169881326E+01    0.824218096718738469E-01    0.769950568064303842E+00   -0.998630684865046692E+00
   -0.886920223910086492E+01   -0.361941834417413544E+01    0.247668712375371882E+03    0.285335506978378726E+04   -0.364280057314639460E+01    0.196728840917188119E+00   -0.149118866169881326E+01    0.824218096718738469E-01    0.769950568064303842E+00   -0.998630684865046692E+00
   -0.793565000935409870E+01   -0.478517403417834508E+01    0.675391688757010115E+03    0.281072555128188833E+04   -0.412234238265967257E+01    0.461638622689323208E+00   -0.232212382829651931E+01    0.143792121699130648E+01    0.146937674805329155E+01   -0.983522897411379882E+00
   -0.357408646233822758E+01    0.170471549627191088E+01    0.804656082642464753E+03    0.220178953561474100E+04   -0.561626895160046402E+01    0.309425457562538142E+00    0.957144231550913993E+00    0.207215005548767151E+01    0.298513539081022072E+00   -0.976499174682574300E+00
   -0.645534688489528996E+01   -0.507713620073168670E+01    0.255131218533367900E+03    0.284075843877763555E+04   -0.607859591568508506E+01    0.176701285861471158E+00    0.786442080691823975E+00    0.250929859968450497E+01    0.816208326548618746E+00   -0.961326241674293369E+00
   -0.645534688489528996E+01   -0.507713620073168670E+01    0.255131218533367900E+03    0.284075843877763555E+04   -0.607859591568508506E+01    0.176701285861471158E+00    0.786442080691823975E+00    0.250929859968450497E+01    0.816208326548618746E+00   -0.961326241674293369E+00
   -0.394831721288405113E+01    0.155658659039031377E+01    0.154522924820199734E+03    0.282751529639730234E+04   -0.355744276910599577E+01    0.660842882170125989E+00   -0.160242907899948728E+01   -0.121067934437984448E+01    0.183582350513675080E+00   -0.938183486581779857E+00
   -0.820703498888797611E+01   -0.568394854682244333E+01    0.655176026912967018E+03    0.286162095835176478E+04   -0.489636166897423841E+01    0.745660788552875431E-01   -0.163791877150867293E+01    0.277817603176339212E+01    0.844052707248867939E+00   -0.924760491499509008E+00
   -0.820703498888797611E+01   -0.568394854682244333E+01    0.655176026912967018E+03    0.286162095835176478E+04   -0.489636166897423841E+01    0.745660788552875431E-01   -0.163791877150867293E+01    0.277817603176339212E+01    0.844052707248867939E+00   -0.924760491499509008E+00
   -0.997024687591817838E+01   -0.235905078207884156E+01    0.697326908142669367E+03    0.284643631892709982E+04   -0.568915003149655085E+01   -0.119072235390338732E+00   -0.255995666483948181E+01    0.212302512774497210E+01    0.722717277999913477E+00   -0.812351516619428615E+00
   -0.384927592202087077E+01   -0.183599294348005326E+01    0.503903942978938460E+03    0.160604945029916644E+04   -0.567856980533040456E+00    0.884093701532858933E+00   -0.162135852004873948E+01    0.181366234464854381E+01    0.158914815290628231E+01   -0.756166300506729172E+00
   -0.577165246009826660E+01    0.360060024261474609E+01    0.385018289089202881E+03    0.288598766922950745E+04   -0.855289274454116821E+01    0.543541431427001953E+00    0.334873259067535400E+00   -0.255306154489517212E+00    0.918739473819732644E+00   -0.719116169711569553E+00
   -0.535442413036654319E+01   -0.334574022146675221E+01    0.642981709148123173E+03    0.196262500681609754E+04   -0.241661024941558544E+01   -0.989573416880884515E-03   -0.578326102179767432E+00    0.250157980228314614E+01    0.120733870416397271E+01   -0.702593253008625518E+00
   -0.616095532912176047E+01   -0.232868969687203542E+01    0.831129651362675304E+03    0.334770631566320571E+04   -0.118905135091161185E+00    0.397798320682902995E+00   -0.127172853140896969E+01    0.144185819287091066E+01    0.111944222032579854E+01   -0.674324373787045239E+00
   -0.616095532912176047E+01   -0.232868969687203542E+01    0.831129651362675304E+03    0.334770631566320571E+04   -0.118905135091161185E+00    0.397798320682902995E+00   -0.127172853140896969E+01    0.144185819287091066E+01    0.111944222032579854E+01   -0.674324373787045239E+00
   -0.925515518533349635E+01   -0.711127885477263355E+00    0.770913639029673277E+03    0.279147961327768689E+04   -0.804387075988744016E+01    0.454390990249131432E+00   -0.156022031541913364E+01    0.180440655816979234E+01    0.127893826087692908E+01   -0.656116486769196428E+00
   -0.260539233684539795E+01    0.245663881301879883E+00    0.646710693836212158E+03    0.237856930494308472E+04   -0.493676537275314331E+01   -0.391536831855773926E+00   -0.354212760925292969E+00    0.256398573517799377E+01    0.175399577617645269E+00   -0.645735127723889191E+00
   -0.260539233684539795E+01    0.245663881301879883E+00    0.646710693836212158E+03    0.237856930494308472E+04   -0.493676537275314331E+01   -0.391536831855773926E+00   -0.354212760925292969E+00    0.256398573517799377E+01    0.175399577617645269E+00   -0.645735127723889191E+00
   -0.674211970168257402E+01    0.406568534808311455E-01    0.446442329776900976E+03    0.284378910347237706E+04   -0.665090259623933377E+01   -0.391277322695919638E+00    0.387561041388307714E+00    0.289414223204524301E+01    0.462870966967808162E+00   -0.627407149130583708E+00
   -0.643391657292808183E+01    0.295243765137325198E-01    0.620937589722443590E+03    0.241773625335718862E+04   -0.515574627120713558E+01   -0.316572573772344046E+00    0.419936134507121750E-01    0.250230523822686557E+01    0.672485036486768273E+00   -0.591389490055161837E+00
   -0.412611722946166992E+01    0.203816914558410645E+01    0.915859937667846680E+03    0.206425330042839050E+04    0.376679277420043945E+01   -0.148972272872924805E+00    0.162929356098175049E+00    0.288607880473136902E+01    0.831685966253280617E+00   -0.576485064859571961E+00
   -0.412611722946166992E+01    0.203816914558410645E+01    0.915859937667846680E+03    0.206425330042839050E+04    0.376679277420043945E+01   -0.148972272872924805E+00    0.162929356098175049E+00    0.288607880473136902E+01    0.831685966253280617E+00   -0.576485064859571961E+00
   -0.284119508162183543E+01   -0.936679387810507080E+00    0.753784902102177739E+03    0.211656852025234548E+04   -0.275955452828053005E+01   -0.330006531157690741E+00    0.786025229359108124E+00    0.241939765618047087E+01    0.115866631685742960E+00   -0.560974811262563322E+00
   -0.992803514003753662E+01   -0.437347269058227539E+01    0.647696793079376221E+03    0.237545987963676453E+04   -0.106948256492614746E+00   -0.992760062217712402E+00   -0.249778980016708374E+01   -0.124963805079460144E+01    0.684869891405105569E+00   -0.544204236009635522E+00
   -0.992803514003753662E+01   -0.437347269058227539E+01    0.647696793079376221E+03    0.237545987963676453E+04   -0.106948256492614746E+00   -0.992760062217712402E+00   -0.249778980016708374E+01   -0.124963805079460144E+01    0.684869891405105569E+00   -0.544204236009635522E+00
   -0.314663984909289240E+01    0.903254310661177229E+00    0.569660175507279973E+03    0.184553223415753860E+04    0.298793228031389013E+01    0.124154174392459016E+00   -0.124003950857542478E+01    0.875723847009803436E+00    0.964766294469815766E+00   -0.481244338228155322E+00
   -0.314663984909289240E+01    0.903254310661177229E+00    0.569660175507279973E+03    0.184553223415753860E+04    0.298793228031389013E+01    0.124154174392459016E+00   -0.124003950857542478E+01    0.875723847009803436E+00    0.964766294469815766E+00   -0.481244338228155322E+00
   -0.183729325101347385E+01    0.528330389854801652E+01    0.889813561507645318E+03    0.293922157362889266E+04   -0.197475633812109930E+01    0.252540993922451884E+00   -0.639447909395425285E+00    0.294733029913270794E+01    0.304629114506325238E+00   -0.475880376899949664E+00
   -0.779766859882334096E+01   -0.840002205792398371E+00    0.886794234474160135E+03    0.286323932588865682E+04   -0.822323260988677873E+01    0.234371194558936180E+00   -0.241244910654661471E+01    0.183277568604024266E+01    0.230941613491702669E+00   -0.474212126158639669E+00
   -0.885515154711935182E+01   -0.312222745823116377E+01    0.904764347909159028E+03    0.295700502130664245E+04   -0.741543146758208849E+01    0.310116148980443374E+00   -0.280532632607016286E+01    0.193298539014428750E+01    0.607273794535275968E+00   -0.446897477582268166E+00
   -0.829910397529602051E+01    0.461113572120666504E+01    0.228875875473022461E+02    0.212842962145805359E+04    0.482294833660125732E+01   -0.504392623901367188E+00   -0.390030556917190552E+01    0.131330519914627075E+00    0.139409897327423105E+01   -0.439960027097266837E+00
   -0.547950184652277805E+01   -0.896283731031132014E+00    0.592818977685025970E+03    0.204629649637583657E+04   -0.399284896783054677E+00   -0.408712076438025540E+00    0.125573087429549979E+00    0.175987233524027920E+01    0.761022205306938426E+00   -0.436284581925354020E+00
   -0.547950184652277805E+01   -0.896283731031132014E+00    0.592818977685025970E+03    0.204629649637583657E+04   -0.399284896783054677E+00   -0.408712076438025540E+00    0.125573087429549979E+00    0.175987233524027920E+01    0.761022205306938426E+00   -0.436284581925354020E+00
   -0.552450746986237551E+01    0.376499508377725611E+00    0.511861257269383259E+03    0.259987504050750977E+04   -0.461332402343093317E+01    0.311233275215111904E+00   -0.369833472861939683E+01    0.953492301925225050E+00    0.282679755570643954E+00   -0.366553521099478752E+00
   -0.552450746986237551E+01    0.376499508377725611E+00    0.511861257269383259E+03    0.259987504050750977E+04   -0.461332402343093317E+01    0.311233275215111904E+00   -0.369833472861939683E+01    0.953492301925225050E+00    0.282679755570643954E+00   -0.366553521099478752E+00
   -0.654112592053083830E+01   -0.426908690694185555E+01    0.320213095232780006E+03    0.281068977405954047E+04   -0.425964149630460742E+01    0.289941326471387928E+00   -0.645402400030476997E-01    0.254054759688528353E+01    0.125903693173668962E+01   -0.363339788061724400E+00
   -0.186307132244110107E+01    0.476116418838500977E+01    0.978470206260681152E+03    0.286362802982330322E+04   -0.779704087972640991E+01    0.704660654067993164E+00   -0.843281090259552002E+00    0.183381146192550659E+01    0.241343116760253912E+00   -0.349702963876601103E+00
   -0.574856870916475060E+01    0.234649146900045480E+01    0.620595235858556634E+03    0.199252629773027002E+04   -0.521701578532653265E+01   -0.145477289098772555E+00   -0.326583966325889818E+00    0.570833471840288098E+00    0.613477756447845191E+00   -0.338841699491890802E+00
   -0.574856870916475060E+01    0.234649146900045480E+01    0.620595235858556634E+03    0.199252629773027002E+04   -0.521701578532653265E+01   -0.145477289098772555E+00   -0.326583966325889818E+00    0.570833471840288098E+00    0.613477756447845191E+00   -0.338841699491890802E+00
   -0.732140974159827351E+01    0.110969375964027250E+01    0.322053799877896040E+03    0.274415513257148541E+04   -0.296365975029337569E+01    0.152713727002617983E+00   -0.340978230810357275E+00    0.154281023960425312E-01    0.123748558336618220E+01   -0.336136967861456526E+00
   -0.732140974159827351E+01    0.110969375964027250E+01    0.322053799877896040E+03    0.274415513257148541E+04   -0.296365975029337569E+01    0.152713727002617983E+00   -0.340978230810357275E+00    0.154281023960425312E-01    0.123748558336618220E+01   -0.336136967861456526E+00
   -0.274826566904890601E+01    0.198226444633505139E+00    0.498805057596037614E+03    0.291092202243240945E+04   -0.331688700501189881E+01    0.369143489172449213E+00   -0.355205401548199884E+01    0.215975484075162427E+01    0.166835869188050823E+00   -0.306410954352019982E+00
   -0.274826566904890601E+01    0.198226444633505139E+00    0.498805057596037614E+03    0.291092202243240945E+04   -0.331688700501189881E+01    0.369143489172449213E+00   -0.355205401548199884E+01    0.215975484075162427E+01    0.166835869188050823E+00   -0.306410954352019982E+00
   -0.365485141880363607E+01    0.912027033681765964E+00    0.912370910224753516E+03    0.205179110591363860E+04    0.239414241719933685E+01   -0.244551108408450180E+00   -0.154217513843247911E+01    0.205052822750162900E+01    0.184228407513706866E+00   -0.294776905305880244E+00
   -0.365485141880363607E+01    0.912027033681765964E+00    0.912370910224753516E+03    0.205179110591363860E+04    0.239414241719933685E+01   -0.244551108408450180E+00   -0.154217513843247911E+01    0.205052822750162900E+01    0.184228407513706866E+00   -0.294776905305880244E+00
   -0.434262515444342334E+01   -0.502879504872543848E+00    0.905145101970716610E+03    0.295838818903121228E+04   -0.508292088245945184E+01   -0.503460109280226109E+00   -0.390737435750097495E+01    0.243490633600382145E+01    0.253141729763078582E+00   -0.282862585836874403E+00
   -0.403970710569735481E+01   -0.219192612283696864E+01    0.628215698573190252E+03    0.278270262885913235E+04   -0.707281416245078276E+01   -0.822296362212146414E+00    0.334364556815929248E+00    0.174530366092588540E+01    0.429793200335715886E+00   -0.269907993846311645E+00
   -0.902662312971282255E+01   -0.296250139533120738E+01    0.491142739336314207E+03    0.330278338953362572E+04   -0.824249989747264600E+01   -0.963393649930505691E+00    0.663342253436465690E+00    0.253422466544039615E+01    0.152872161233498532E+00   -0.266457807617807185E+00
   -0.519827542656367125E+01    0.996117108318697930E+00    0.424905286789691786E+03    0.321036853392321564E+04   -0.305954150554572468E+01    0.937132650076843765E+00   -0.495753040195232586E+00   -0.159292686688827789E+00    0.122892058037961749E+01   -0.250785081598581150E+00
   -0.307693766043672845E+01   -0.930481737433543898E+00    0.151165886092223531E+03    0.241234349504092279E+04   -0.661774525735987851E+01   -0.191695239272559603E+00   -0.348796548853638821E+01    0.202259081056615431E+01    0.636400670218562392E+00   -0.247032263410301739E+00
   -0.401059687137603760E+01    0.184444499015808105E+01    0.116146326065063477E+03    0.240991359949111938E+04   -0.556922847032546997E+01   -0.320591807365417480E+00   -0.188406282663345337E+01    0.169712743163108826E+01    0.538341796398162820E+00   -0.223451786140390879E+00
   -0.175278365612030029E+01    0.450638794898986816E+01    0.908187389373779297E+03    0.176984733343124390E+04   -0.806986624002456665E+01    0.110676050186157227E+00   -0.287757158279418945E+00    0.256301182508468628E+01    0.152970677614212042E+00   -0.222634261173246056E+00
   -0.291656505673273436E+01   -0.156992325755097362E+00    0.373099995954770122E+03    0.280411936459768822E+04   -0.563412041456939328E+01    0.440967305561790646E+00   -0.246085042847540603E+01    0.160607643368075781E+01    0.111878662962813166E+00   -0.219883349051914478E+00
   -0.679613232612609863E+01   -0.127763915061950684E+01    0.162938296794891357E+03    0.300675725936889648E+04   -0.800508195161819458E+01    0.545350670814514160E+00    0.869407415390014648E+00    0.133571907877922058E+01    0.172972714900970465E+00   -0.199852280819096811E+00
   -0.766683085607295123E+01   -0.271351167766928381E+01    0.835882235561948960E+03    0.290312510218321222E+04   -0.200287517939323312E+01   -0.495756754559330992E+00   -0.748431983975571313E+00    0.256523389686042780E+01    0.140376245507982156E+01   -0.199741954279964773E+00
   -0.240941650571740773E+01    0.312497029147648320E+01    0.440398810434230597E+03    0.301360828048301391E+04   -0.710960455019637827E+01    0.529949525571170144E+00   -0.347059290536754972E+01    0.724605815265755293E+00    0.430608516233949024E+00   -0.196147048589711853E+00
   -0.889097395788103384E+01   -0.485755104120727310E+00    0.155607367122747640E+02    0.204680397910277179E+04    0.262882424460999076E+01   -0.400358789777464974E+00   -0.300125608516176534E+00   -0.103572463453864883E+01    0.495862647463198636E+00   -0.188278543210940369E+00
   -0.318416357040405273E+01    0.377836132049560547E+01    0.806094586849212646E+03    0.297602033615112305E+04   -0.489299529790878296E+01    0.896055698394775391E+00    0.637703895568847656E+00    0.131206601858139038E+01    0.901850140094757058E+00   -0.187780405963069774E+00
   -0.562629577721666507E+01   -0.339116557397744600E+01    0.670565527335339311E+03    0.285095739351610791E+04   -0.147428751064055152E+01   -0.694150760719988158E-01   -0.255590067172731850E+01    0.293020789251860769E+01    0.561647246585017190E+00   -0.181637031541976468E+00
   -0.635611530989740992E+01    0.216684634322429304E+01    0.109449812026009155E+03    0.272603784225121308E+04   -0.415063090742571728E+01    0.334368292186969063E+00   -0.223040233606588423E-01   -0.634751646657617297E+00    0.303062082926731036E+00   -0.181003469135789352E+00
   -0.274503243873085445E+01   -0.379342091865577657E+00    0.739712379584808446E+03    0.293042213945008916E+04   -0.156486509676746088E+01    0.158646477809924136E+00   -0.257903215018240317E+00    0.254873310068947578E+01    0.495793672725900914E+00   -0.175785653859875546E+00
   -0.555144624858120128E+01   -0.434981466166610442E+01    0.389949136996557513E+03    0.307982533551683855E+04   -0.551845358635996419E+01    0.327530070212016078E+00   -0.153904152517178350E+01    0.278209994601495314E+01    0.272713603551392736E+00   -0.175401071944743553E+00
   -0.906945305404498114E+01   -0.353442705477240304E+01    0.621826576376365324E+03    0.321870473394820419E+04   -0.429341566108315575E+01    0.209171693551414517E+00    0.285296712507250305E-01    0.249895379482566815E+01    0.683204142214050791E+00   -0.166946742110896412E+00
   -0.885220538285758174E+01   -0.592762413229533625E+01    0.441456548713328232E+03    0.305314847992316936E+04   -0.536199631804261578E+01    0.284896376225621806E+00   -0.154671647275147306E+01    0.180468446817962258E+01    0.149486451891895311E+01   -0.165809754272165377E+00
   -0.844474017213141614E+01   -0.369446617071205852E+01    0.343309417954521678E+03    0.304911821509772381E+04   -0.626456701965592266E+01    0.722747629814264325E-01   -0.549730379580130268E+00   -0.235258208808035718E+00    0.848366158824658823E+00   -0.159994451536532745E+00
   -0.430652976036071777E+01    0.241221284866333008E+01    0.390930771827697754E+03    0.236043727397918701E+04   -0.138439178466796875E+00   -0.631288647651672363E+00   -0.316902810335159302E+01   -0.113149318099021912E+01    0.572008526325225808E+00   -0.146379041897674894E+00
   -0.151715219582298211E+01    0.436201679879146376E+00    0.419978980476493462E+03    0.287777202321268715E+04    0.617303308195715772E+00   -0.433483148881617097E-01   -0.214586047580444728E+01    0.123394427552149022E+01    0.317728060519277489E+00   -0.146316534320627745E+00
   -0.388469056102356181E+01    0.698973607467117120E+00    0.727519553901352879E+03    0.288716989544305579E+04   -0.437968328184198263E+01    0.651279967376171776E+00    0.252964937002092327E+00    0.130643708187529439E+01    0.528573762480178844E+00   -0.138527971088435481E+00
   -0.700733761247649323E+01   -0.554627780599934184E+01    0.668476268133024973E+03    0.325759073836076868E+04   -0.439114125048307091E+01    0.359196153881734093E+00    0.744760800697681802E+00    0.212152000762008708E+01    0.517519160791826027E+00   -0.136501234360441592E+00
   -0.634682953357696533E+01    0.146923613548278809E+01    0.857377052307128906E+01    0.138888320326805115E+04   -0.679573291540145874E+01   -0.937360525131225586E+00   -0.129272097349166870E+01    0.152366173267364502E+01    0.314565813541412331E+00   -0.561949521736401572E-01
   -0.772115074807200763E+01    0.276819029076477996E+01    0.146564716185733459E+03    0.270006867527327267E+04   -0.278293326465066215E+01   -0.370249525952380143E+00   -0.240053836070289028E+01   -0.767001319320229191E+00    0.705153071530062348E+00   -0.384494527662269242E-01
   -0.996919453144073486E+01   -0.407507085800170898E+01    0.262977302074432373E+03    0.231112262606620789E+04    0.437194293737411499E+01   -0.382016777992248535E+00   -0.313904279470443726E+01    0.370304346084594727E+00    0.898773735761642434E+00   -0.467145193151814134E-02
   -0.662140268411776312E+01    0.321320924588315826E+01    0.118622338569876831E+03    0.154855300358372551E+04   -0.355227905025773083E+01   -0.618876294362263657E+00   -0.592048727199830704E+00    0.803380327602222000E+00    0.681862779381827488E+00   -0.232438874904975952E-01
   -0.872518241405487061E+01    0.320083665847778320E+01    0.473849177360534668E+02    0.287371551990509033E+04   -0.897089534997940063E+01    0.472151637077331543E+00   -0.100229644775390625E+01   -0.148316994309425354E+01    0.580846405029296853E+00   -0.585598893944404633E-02
   -0.337102651596069336E+01    0.575968980789184570E+00    0.541860461235046387E+02    0.289222484827041626E+04   -0.722327703237533569E+01    0.641445636749267578E+00   -0.322591030597686768E+01    0.539541274309158325E+00    0.197832769155502325E+00   -0.103524147168552270E-01
   -0.752459114209071345E+01    0.279015537558913707E+01    0.471203991088694806E+03    0.274368146603150763E+04   -0.638906152689354023E+01    0.378007833872449961E+00    0.303733254794755325E+00   -0.400863193416982844E+00    0.867474245470730598E+00   -0.268624069713249876E-01
   -0.251374821163951712E+01    0.901950176509959789E+00    0.341124694323836081E+03    0.263779517184632277E+04   -0.756672276062961391E+01    0.545596368718947788E+00   -0.161474098184890691E+01   -0.327388475751360319E+00    0.565165663514452743E+00   -0.420420507155487046E-02
   -0.751919810952165157E+01   -0.296957202437550993E+01    0.450296142542232829E+02    0.329268138791709271E+04   -0.369098427780685245E+01    0.161097587378751461E+00   -0.860853190729219619E+00    0.704337489767330904E+00    0.251955686003197954E+00   -0.670235129596331684E-02
   -0.497969596185483532E+01   -0.162999400060182609E+01    0.639485172150357926E+03    0.231077693971668896E+04   -0.182825791282414407E+01    0.184662694059485544E+00    0.509859647641315306E-01   -0.433338090878478965E-01    0.527142540019441164E+00   -0.115512076204579636E+00
   -0.164119108819576631E+01    0.212201979690285647E+00    0.292695665436181685E+03    0.289949612345648529E+04   -0.799190783865544674E+01    0.952861058038831921E-01   -0.249162694555795206E+00    0.158647539179507602E+01    0.245582542624407291E+00   -0.769439226144794791E-01
   -0.198332440124284659E+01    0.268141094453717166E+01    0.477155892693987539E+03    0.311369376665694926E+04   -0.801997952207945275E+01    0.979878927520938525E+00   -0.268628229127482410E+01    0.757870667218734084E+00    0.238666464089615782E+00   -0.255607960340360112E-02
   -0.467159561653916100E+01    0.552297999059594247E+01    0.214762530276303814E+02    0.228108179110071751E+04    0.522152841714131100E+01   -0.404510409183823527E+00   -0.378101907202144494E+01   -0.383864128915007097E+00    0.914383060942078996E+00   -0.109016268261138399E-01
   -0.467159561653916100E+01    0.552297999059594247E+01    0.214762530276303814E+02    0.228108179110071751E+04    0.522152841714131100E+01   -0.404510409183823527E+00   -0.378101907202144494E+01   -0.383864128915007097E+00    0.914383060942078996E+00   -0.109016268261138399E-01
   -0.642624597764579164E+01    0.336145601796656379E+01    0.413474707229732815E+03    0.233662144846133924E+04    0.371062195262098093E+01   -0.350908675191692332E+00   -0.229337565388564268E+01   -0.547144473607670268E-01    0.132632084639537462E+01   -0.199122778032579262E-02
   -0.470738302897069083E+01    0.322616357632230688E+01    0.456909936528660182E+03    0.180874818964429278E+04   -0.165351987025137870E+01   -0.980854287453796991E+00   -0.153055693749958754E+01    0.101828303626974481E+01    0.728132199446436368E+00   -0.725208747487885025E-01
   -0.526892119265643633E+01    0.197219781620859091E+01    0.627954351009075367E+03    0.164342325818603445E+04   -0.172973585729379131E+01   -0.195865808136989505E+00   -0.166910688499807103E+01    0.113002323383711456E+01    0.490088565264568565E+00   -0.641826020417293752E-01
   -0.388041257858276367E+01    0.374911093711853027E+01    0.999596178531646729E+03    0.130016034841537476E+04    0.509942150115966797E+01   -0.574920296669006348E+00   -0.403235793113708496E+00    0.599183410406112671E+00    0.692353612184524514E+00   -0.363763458589676583E-01
   -0.152275487700153178E+01    0.223594223188962005E+01    0.624948822252990112E+03    0.272751087473929010E+04   -0.124147878429169545E+01   -0.458920929427861779E-01   -0.124761301662262714E+01    0.231266445450183866E+01    0.128749279689796658E+00   -0.461794668932721530E-01
   -0.418544811446114373E+01   -0.800158651347846472E-01    0.608528315095336552E+03    0.224450725859639897E+04   -0.338822874687406905E+01   -0.512157410277404468E+00   -0.975402516674015452E+00    0.135561899662249719E+01    0.589085767316184450E+00   -0.105819200190815019E+00
   -0.933866619950004306E+00    0.409605737358175936E+01    0.619921900569482091E+03    0.250501038537749082E+04    0.454218522538086766E+01    0.983383524658334451E-01   -0.294529263822021870E+01    0.184458542177796492E+01    0.271886736244526306E+00   -0.107350319027230880E-01
   -0.162488774641487410E+01    0.243160092298401231E+01    0.729386644973236230E+03    0.274608352131272704E+04   -0.438441079428715330E+01    0.174384912425152416E+00   -0.236976982792854063E+00    0.156118924200376608E+01    0.352192356532247453E+00   -0.499272469849574990E-01
   -0.267897999551147681E+01    0.229661856007052556E+01    0.364047007606341481E+03    0.293565708455533331E+04   -0.438206140312956371E+01   -0.443618876642206894E+00   -0.823221509015971353E+00    0.174888945311781230E+01    0.588595614257120703E+00   -0.123250108829190998E-01
   -0.267897999551147681E+01    0.229661856007052556E+01    0.364047007606341481E+03    0.293565708455533331E+04   -0.438206140312956371E+01   -0.443618876642206894E+00   -0.823221509015971353E+00    0.174888945311781230E+01    0.588595614257120703E+00   -0.123250108829190998E-01
   -0.849482595920562744E+01   -0.196220183372497559E+01    0.271532058715820312E+03    0.312742969393730164E+04   -0.250803852081298828E+01    0.325078725814819336E+00   -0.486205160617828369E+00    0.120975610613822937E+01    0.144638702869415292E+01   -0.349300408599690498E-01
   -0.758692683306496285E+01   -0.327265575026794853E+01    0.111999965873232853E+03    0.322254153114907695E+04   -0.580363428200346299E+01    0.583563163120521589E+00   -0.196861752648777300E+01    0.168366723144881325E+01    0.767770864442744227E+00   -0.265003297823813080E-04
   -0.657962192149937231E+01    0.448620663057738511E+00    0.405183837732831648E+03    0.287891474562216172E+04   -0.739514313825324532E+01    0.353599012558149406E+00   -0.239135260484371059E-01    0.419786481735608952E-01    0.119357088848917225E+01   -0.351994210203466495E-01
   -0.880008495524297985E+01   -0.213252707387236295E+01    0.104029470590395448E+03    0.313094927812512242E+04   -0.681573209048734086E+01   -0.133166438469216608E-01    0.205561351782828083E-01    0.182639444132021334E+01    0.109469867715484526E+01   -0.190536496891472729E-01
   -0.572624516274195727E+01   -0.382368406776636816E+01    0.309962123179998912E+03    0.314642926405769686E+04   -0.224537748357948441E+01    0.213271445171563823E+00   -0.124462070241619838E+01    0.198240167443623339E+01    0.941434599304559527E+00   -0.122289111282011392E+00
   -0.597478985786437988E+01   -0.542363119125366211E+01    0.749407827854156494E+03    0.290219134092330933E+04   -0.492487514019012451E+01   -0.825232982635498047E+00   -0.273952656984329224E+01    0.288851934671401978E+01    0.693934595584869363E+00   -0.117586718310034963E+00
   -0.401701731160331388E+01   -0.554132815033217874E+00    0.686149872471151866E+03    0.263450632298039909E+04   -0.407111853319687800E+01   -0.234773658066154134E+00    0.968836685247307372E-01    0.284984772251706264E+01    0.385397881172546031E+00   -0.639403393606828158E-01
   -0.776551817331472538E+01   -0.472430373574081486E+01    0.405240778807198637E+03    0.259750985201081858E+04   -0.880591546574457595E+00   -0.244177733531227625E+00   -0.298582520303723387E+01    0.297215600164558946E+01    0.555546993176284531E+00   -0.356525767989659265E-01
   -0.497108887371034847E+01    0.822945407730754752E+00    0.655304407559142419E+03    0.302100597092680073E+04    0.344287319153126603E+00    0.268344951187965197E+00   -0.883074490490396879E+00    0.290869482332174556E+01    0.917887992141996234E+00   -0.304417441033612915E-01
   -0.497108887371034847E+01    0.822945407730754752E+00    0.655304407559142419E+03    0.302100597092680073E+04    0.344287319153126603E+00    0.268344951187965197E+00   -0.883074490490396879E+00    0.290869482332174556E+01    0.917887992141996234E+00   -0.304417441033612915E-01
   -0.708823800086975098E+01   -0.231523847579956055E+01    0.739762961864471436E+03    0.335199421644210815E+04   -0.382836753129959106E+01    0.255686044692993164E+00   -0.245181971788406372E+01    0.288340571522712708E+01    0.920463150739669778E+00   -0.117104018577866772E+00
   -0.941290616989135742E+01   -0.152239108085632324E+01    0.573857665061950684E+03    0.249512544274330139E+04    0.447992241382598877E+01   -0.268565416336059570E+00   -0.395928406715393066E+01    0.269577419757843018E+01    0.132423923015594491E+01   -0.204796404989765523E-02
   -0.307796716690063477E+01   -0.402312755584716797E+00    0.977147102355957031E+03    0.272450602054595947E+04    0.407725399732589722E+01    0.430298209190368652E+00   -0.235366576910018921E+01    0.171919074654579163E+01    0.142952228188514718E+01   -0.102514456986013996E+00
   -0.643794126248736553E+01   -0.253611761035696848E+01    0.931369665008567495E+03    0.343012613933500188E+04   -0.199135092338079378E+01    0.104699341225375608E+00   -0.266930529657847426E+01    0.269382558907721403E+01    0.800395783684789586E+00   -0.489670562312862628E-01
   -0.749540507793426514E+01   -0.231069803237915039E+01    0.683993279933929443E+03    0.306886440515518188E+04   -0.675065928697586060E+01    0.292636394500732422E+00    0.157450199127197266E+00    0.172056591510772705E+01    0.372053688764572121E+00   -0.131278715549524361E+00
   -0.755809508043075340E+01   -0.430776629683558276E+01    0.689974976438184513E+03    0.306744007787755800E+04   -0.819683783008331979E+01   -0.176071941809765709E+00   -0.111824229632886407E+01    0.183116981204941842E+01    0.569349076723943193E+00   -0.130034242831713887E+00
   -0.527575200274552092E+01   -0.181437559545948979E+00    0.953375825163877380E+03    0.268472843931673196E+04   -0.342220474829294030E+01    0.207667331680741141E+00    0.143422700820408977E+00    0.166754173242336279E+01    0.101563790434953760E+01   -0.738356292687479404E-01
   -0.999703889158972459E+01   -0.544598531054186985E+00    0.968459763453781875E+03    0.301506601005317589E+04   -0.708230568473736177E+01   -0.256293139369014100E+00   -0.494095276594705979E+00    0.138413136000376547E+01    0.518935512412149635E+00   -0.437019385768784487E-02
   -0.737555183546825344E+01   -0.574460809039022546E+01    0.558981156215555643E+03    0.311079544926230074E+04   -0.276062257277052137E+01   -0.101619814437198253E-01   -0.142990068106709778E+01    0.296615777657518365E+01    0.832315525221374530E+00   -0.228718683335867763E-01
   -0.948009088414156942E+01   -0.366207164677070729E+01    0.786212006309258527E+03    0.332168199956833178E+04   -0.509760876351758618E+01    0.572481395296495554E+00    0.886835564231405193E+00    0.150463284755618298E+01    0.653568165207842999E+00   -0.248420372762726722E-01
   -0.886831749038180028E+01   -0.276830973506918721E+01    0.776441723078034329E+03    0.308120761336464557E+04   -0.479620369915060252E+01    0.588709519644438739E+00   -0.697286096377817355E+00    0.242535222495660285E+00    0.120809847085449795E+01   -0.800750348864594369E-01
   -0.600564473943823796E+01   -0.164909585796815783E+01    0.883374237261740632E+03    0.305976554091615753E+04   -0.771896908525744507E+01    0.523996933606248216E+00   -0.171488524668376074E+01    0.135844349535935560E+01    0.880882131148104874E+00   -0.810360909270675944E-01
   -0.366590996526432011E+01    0.519428462464349039E+00    0.499761476331580241E+03    0.278636469817516490E+04   -0.298742850763595325E+01    0.199818657135738320E+00    0.710990771323594117E-02    0.159536109024634776E+01    0.148377714127026450E+01   -0.518860472020429356E-01
   -0.579597830952237292E+01   -0.442864550262368795E+01    0.811964186263883221E+03    0.291889894445968639E+04   -0.205538326629576318E+01    0.854193233028948562E+00   -0.304214494414003056E+00    0.143272197604224960E+01    0.959641703560011217E+00   -0.257853206233149730E-01
   -0.637265432878389415E+01   -0.208022854460927586E+01    0.738683168585210751E+03    0.349078065663079497E+04   -0.429048633808793589E+01    0.469878224325328997E+00   -0.129925545826145949E+01    0.270713963347525599E+01    0.854630666932766903E+00   -0.730433148428908108E-01
   -0.816588622333394554E+01   -0.341896277510331270E+01    0.634774249736306956E+03    0.297908408072814291E+04    0.153382092565065165E+01   -0.481962283652742629E-01   -0.135038653702959577E+01    0.239698999248053424E+01    0.145063808414632867E+01   -0.294626002194918329E-01
   -0.723514625140637513E+01   -0.587192901691824254E+00    0.788392995575877535E+03    0.301901765542983139E+04   -0.545429717836491079E+01    0.168229043616834772E+00   -0.369200874583897942E+00    0.110341582757755274E+01    0.120738085694540942E+01   -0.104476012329015891E+00
   -0.473648306169999422E+01   -0.284669623113104064E+01    0.209573545078657162E+03    0.299385580061674227E+04   -0.626881745604843132E+01    0.206410207859381689E+00    0.207471547711817195E-01    0.253790415317295270E+01    0.162546746076053322E+00   -0.732013545152127854E-01
   -0.522944336894126849E+01   -0.258049010043719473E+01    0.404803057029731121E+03    0.309622250603988050E+04   -0.674672965523558155E+01    0.576016859243700940E+00   -0.205563055336572109E+01    0.128247568268643963E+01    0.528735117729979276E+00   -0.380991817023871235E-01
